562 128
0 0.55942255 -0.7737974 -0.4027636 -0.4266813 0.37256065 0.17036933 -0.09355456 -0.2102791 -0.052854482 0.057891294 -0.24238662 0.031217886 -0.18685941 0.13946308 -0.62656176 -0.4953449 -0.49353358 -0.3297502 -0.18099985 -0.010073618 0.38823512 0.48851213 -0.10937885 -0.18495108 0.35434547 0.69863325 -0.14153586 -0.6614021 -0.3411381 0.5451744 -0.21441443 -0.2848921 0.099873185 0.023901982 -0.4356251 0.15038568 0.19438383 -1.0870532 0.109412596 -0.51874834 0.19505697 0.61781883 0.81481576 -0.1517347 -0.5174527 0.08612878 0.29202598 -0.45768052 0.1994346 -0.65887773 -0.032858122 -0.3002496 -0.4005075 -0.16996756 0.12026571 -0.12468642 -0.47737622 -0.35031337 -0.99915147 -0.031720053 0.0074325763 0.09272772 -0.81733805 -0.29003677 -0.20782939 -0.2986004 -0.19190848 0.22518216 -0.16290411 0.19859657 -0.36124387 0.3029927 0.17653988 0.18943387 -0.310211 0.18879297 0.3697079 -0.29672536 -0.0015323579 -0.3734558 0.21139926 0.088984385 -0.19241224 0.020546978 -0.11047216 0.48265433 0.39184248 -0.2863632 0.46302515 0.06194432 -0.23363349 -0.26324922 -0.2857495 0.18267475 0.07936573 0.10859027 0.21192057 0.3856547 0.09454292 0.013117652 -0.056397103 -0.022009425 -0.074381314 -0.5946806 -0.025975851 0.3437592 0.34919825 -0.06112551 -0.33215585 0.38412365 0.0034143357 -0.36655334 -0.46765718 0.0927276 0.15598083 -0.08406654 0.047700074 -0.12112269 -0.07080292 0.12366739 -0.0131052565 -0.34048653 -0.40744653 0.21885942 -0.0995513 -0.22590506 -0.373146 -0.22858179
1 -0.13754342 -0.18220025 -0.13142002 -0.32407615 -0.4511443 0.70843583 -0.04979117 0.056824107 0.7111034 0.047884125 -0.10214851 -0.25717166 -0.33829683 -0.24824542 0.2457687 -0.54808164 0.19639494 -0.14696333 -0.18649958 -0.7808398 -0.47747317 -0.5727957 0.50842255 1.1559523 0.5746838 0.723566 0.4223216 -0.35551402 -0.24955687 1.2777878 0.53188235 -0.42085123 0.11623078 0.24972132 -0.09766477 0.48992777 0.27933705 -0.29397365 0.5078536 0.4865664 -0.2160049 0.122065805 -0.7134177 0.3026287 0.06908734 1.1378328 -0.64418226 0.09887184 0.5004815 -0.370127 -0.26168907 0.0022143067 0.77476186 -0.34694314 0.7451278 0.5730562 0.62347275 -0.3195143 0.6903809 -0.16340582 0.36487398 0.1400364 -1.2866633 0.17931299 -0.34436283 -0.0100934245 -0.17936464 -0.32074583 -0.45809278 0.4807227 0.20356904 -0.078168735 0.5732119 0.29108658 -0.16776478 -0.20307438 0.022289008 -0.28708562 0.23214403 -0.31536946 0.223134 -0.16463333 -0.37512973 -0.64572215 -0.4140796 -0.4425485 0.55112755 0.93058723 0.23470794 0.47855896 0.25825647 -0.34035352 -0.14429818 1.1898676 0.43193442 -0.1571259 0.110937364 0.16108571 0.3440441 0.5432374 -0.024886124 -0.06314825 0.6246215 0.5009391 0.113085814 0.114451215 -0.47822818 0.106790274 -0.16586782 1.0049102 -0.41463244 0.10331213 0.27503496 -0.43781966 -0.34420565 -0.24612026 0.55291796 -0.29957587 0.507056 0.66841006 0.14516743 -0.22662126 0.46053046 -0.1199712 0.4181006 0.06748501 -1.1471282 0.29108053
2 -0.31398678 -0.18225048 -0.04731248 -0.026545743 -0.374971 0.6816022 -0.25877467 0.2506642 0.57207197 0.10719572 -0.047786012 -0.27817076 0.008785148 -0.044986796 0.5500991 -0.38781312 0.12577015 -0.5819898 -0.045764614 -0.5398566 -0.46954516 -0.72502947 0.41445673 0.9185374 0.33545375 0.5711023 0.2791936 -0.3454034 -0.16315359 1.3423734 0.6354729 -0.2326377 -0.069893956 0.3306063 0.16046485 0.4756708 0.08605712 -0.029110683 0.40074235 0.3797948 -0.14036682 0.33256528 -0.86304843 0.35896474 -0.2821032 1.398968 -0.21499746 0.5051726 -0.27453303 -0.6388179 -0.27321014 -0.063690215 0.66642 0.06332689 0.63654464 0.5943398 0.42647973 -0.27522612 0.28646547 0.2583503 0.121080324 -0.11974616 -0.9699751 0.1189732 -0.402352 -0.30370224 -0.16096073 -0.12012186 -0.46395975 0.6222789 -0.1053476 0.10174875 0.44687802 0.34408507 -0.15975131 -0.39335653 0.42246783 -0.15564503 0.74232936 -0.059211772 0.15816852 -0.49171937 -0.19626258 -0.40645573 -0.30091766 -0.45860067 0.22445753 0.7313414 0.37195545 0.47758648 -0.02529733 -0.07331245 -0.1050783 0.87657 0.3410248 -0.42035064 -0.20216814 0.27227908 0.30565563 0.47315338 -0.10523031 0.035702545 0.34461713 0.36777076 0.010601845 0.16453812 -0.46754944 0.09255258 -0.3228628 1.0375781 0.12739892 0.27969235 -0.40047374 -0.4981408 -0.241457 -0.28718674 0.43416464 0.22463353 0.5556838 0.41572165 0.21849687 -0.4046619 0.13699785 0.21112731 0.13582861 0.12052619 -0.7991915 -0.03727775
3 -0.5225163 -0.5112736 -0.54448986 -0.018062945 -0.44729096 0.6110698 -0.088587955 0.3806375 0.17544428 0.4487066 0.1720716 -0.3553036 0.4686417 -0.21535498 0.6281153 -0.5371701 0.05077173 -0.658832 0.039603963 -0.5883954 -0.12426902 -0.6111202 0.27147204 0.7300063 0.36958474 0.4434876 0.16334777 -0.24082385 -0.029941821 0.926603 0.34131697 -0.352634 -0.10990787 0.09754078 -0.054699216 0.42533413 -0.13565734 -0.09689483 0.30072668 0.43268615 0.0023035365 0.046119425 -0.5126432 0.2442878 -0.17698544 1.4153664 0.017981162 0.37783676 -0.3628349 -0.64949596 -0.5429379 -0.8244727 0.81342405 0.27563646 0.64006996 0.5273905 0.43845025 -0.15795857 0.3712904 0.25053152 0.24264897 0.27616137 -0.84640765 -0.012708562 -0.402352 -0.30370224 -0.16096073 -0.12012186 -0.46395975 0.6222789 -0.1053476 0.10174875 0.44687802 0.34408507 -0.15975131 -0.39335653 0.42246783 -0.15564503 0.74232936 -0.059211772 0.15816852 -0.49171937 -0.19626258 -0.40645573 -0.30091766 -0.45860067 0.22445753 0.7313414 0.37195545 0.47758648 -0.02529733 -0.07331245 -0.1050783 0.87657 0.3410248 -0.42035064 -0.20216814 0.27227908 0.30565563 0.47315338 -0.10523031 0.035702545 0.34461713 0.36777076 0.010601845 0.16453812 -0.46754944 0.09255258 -0.3228628 1.0375781 0.12739892 0.27969235 -0.40047374 -0.4981408 -0.241457 -0.28718674 0.43416464 0.22463353 0.5556838 0.41572165 0.21849687 -0.4046619 0.13699785 0.21112731 0.13582861 0.12052619 -0.7991915 -0.03727775
4 0.064264745 0.39207533 0.2851779 -0.28434107 -0.30300397 0.88379484 -0.4219678 -0.3998482 0.21796785 0.20213802 -0.15942311 -0.66448545 0.24995801 0.1642021 0.99287075 0.40650496 0.25471097 -0.385705 0.18504776 -0.8127193 -0.20372204 0.006381111 -0.08585174 0.29197538 0.21680108 0.6332038 -0.73973364 -0.038512435 -0.15199761 0.9072078 0.1153491 -0.07115917 -0.32379803 0.15374988 0.44794846 -0.21396083 -0.73566943 0.6976766 -0.14105639 0.113991 0.30890462 0.18524562 -0.8300391 -0.2809961 -0.6444083 0.7289626 0.38074926 -0.2628812 -0.44215906 -0.44436276 0.34566292 -0.44991848 -0.015994614 0.54224914 0.4106427 0.25436133 0.41120857 -0.4939714 -0.15850772 0.6114587 -0.5230721 0.08419157 -0.74518424 -0.847946 -0.0901641 -0.19516176 0.19138025 0.06525498 -0.42096183 0.542971 -0.36379513 -0.044333294 0.09768271 0.25731626 -0.4257308 -0.38256523 0.6505273 -0.1937965 0.7024843 0.078588046 0.15247823 -0.38328326 -0.20694003 -0.33044136 -0.17432547 -0.06421844 0.17245999 0.30355906 0.36921078 0.5219486 -0.34192526 0.08386508 -0.33298376 0.4186994 0.22150928 -0.20987947 -0.4021296 0.2217956 0.3036192 0.17429191 -0.37400115 0.33058307 0.062786035 0.20376283 0.031027958 0.022016417 -0.30048528 -0.08418591 -0.3875599 0.6946341 0.23862405 0.37273178 -0.5757354 -0.3994817 0.2183337 -0.07198692 0.095301956 0.43290937 0.4476338 0.23946935 0.07627411 -0.26867762 -0.3253261 0.3962288 -0.2193982 0.38566127 -0.399048 -0.6348816
5 0.46926337 -0.5622267 -0.31484544 -0.40849736 0.010172237 0.31623104 -0.25909954 0.043991227 -0.06421825 0.22048704 -0.4432002 0.161253 0.090119846 -0.012318019 -0.5921771 -0.3480563 -0.21186745 -0.02044638 -0.06973231 0.02660536 0.16541718 0.5457519 0.2439367 -0.05272646 0.23940095 0.5825161 -0.049296632 -0.2677205 -0.17374146 0.3028395 0.06670447 -0.3365648 0.2306568 -0.14246503 -0.13496582 -0.1911424 -0.059578154 -0.69247335 0.0712271 -0.32972682 0.01027109 0.5652904 0.24816313 -0.011849699 -0.05997776 0.28197342 0.16838902 -0.2358149 0.028994394 -0.3925063 0.0003164598 -0.021540446 -0.44483215 -0.20561513 0.3337997 -0.3728009 -0.26394075 -0.18687664 -0.8764057 -0.28813756 -0.1929289 -0.15713398 -0.5453632 -0.39976045 0.02086325 -0.19703111 -0.32376304 0.030323565 -0.16199645 0.41093424 -0.36934033 0.30765024 0.06511942 0.04008208 -0.03473003 -0.01586819 0.12533918 -0.26492536 -0.108185545 -0.41003725 0.059115846 0.016902715 -0.10108703 -0.0703428 0.050491527 0.33868656 0.19809835 -0.12575135 0.27512613 0.35850647 -0.23205848 -0.02270746 -0.21093278 0.18535027 -0.02610687 -0.17863837 0.109390326 0.1153308 0.1562048 -0.13370769 -0.2222243 0.08058016 -0.0002250895 -0.35081518 0.017150177 0.37939283 0.14961283 -0.17996755 -0.22134866 0.27268645 0.030535882 0.058971897 -0.22155648 0.036224335 -0.00535859 0.11013188 -0.09210405 -0.2900021 -0.19642177 -0.13689268 -0.19599755 -0.20204489 -0.24932276 -0.09073738 -0.11958052 -0.22324923 -0.530004 -0.23749171
6 -0.31492049 -0.5716487 -0.2734773 0.09325575 -0.51853454 0.53246933 0.22272421 0.15687892 0.17292422 0.5059979 0.27433679 -0.29992425 0.524639 -0.2130638 0.4709102 -0.3071078 -0.048491765 -0.52284825 -0.033040844 -0.4630268 -0.0036277878 -0.15375477 -0.18973446 0.989401 0.2508926 0.32330188 -0.29776105 -0.19298983 0.53103006 0.5266395 0.38655442 -0.13883302 -0.14699714 0.012406559 -0.3248395 0.35050678 0.016685162 -0.3766774 0.29122582 0.28141496 0.028115995 0.23171407 -0.43069935 0.2704584 -0.19382362 1.1775539 0.08632611 0.2654094 -0.35813275 -0.5554067 -0.37664098 -0.60567653 0.4868137 0.17063606 0.54019636 0.5668343 0.50589085 -0.25259504 0.3724082 0.29504406 0.24382602 0.0101591265 -0.2942218 0.14343233 -0.32374468 -0.24280223 0.08461792 -0.20414393 -0.2508076 0.4874131 -0.042936124 0.11788476 0.2438255 0.44670382 -0.03902739 -0.28935212 0.34883815 -0.17619103 0.37527004 -0.17197874 0.2158928 -0.34717923 -0.3157353 -0.40847987 0.16233724 0.026706608 0.005201486 0.5794323 0.17867067 0.13085987 -0.20344797 0.03947905 0.04289945 0.55063695 0.099773616 -0.32327697 -0.10979737 0.22458202 -0.008529251 0.25274643 -0.08983246 -0.027518416 0.36242935 0.29276225 0.053577624 0.23299225 -0.14278482 0.06773023 -0.3398468 0.6569712 0.22191845 0.13744321 -0.30069423 -0.26705304 -0.13302234 -0.13563448 0.43665978 0.13840526 0.29862678 0.35815376 0.21993199 -0.29165518 0.3048965 0.08993 0.14682908 -0.06467042 -0.46358693 0.060081992
7 -0.24730432 -1.0819291 -0.7434771 0.51009715 -0.632995 -0.1419612 0.0954233 0.8093223 0.5073604 -0.0016175712 -0.49199018 0.09096821 0.8847975 0.4617506 0.21537718 -0.470541 0.07566718 0.43686002 -0.121842824 -0.24080172 0.73087794 1.0179294 0.025068099 -1.8529451 0.81509924 0.45765862 -0.5342816 -1.2066789 -1.5535713 0.36644956 -0.068163626 -1.3854442 0.517417 0.03369352 0.2867999 -0.33898255 -0.26753706 0.103803635 1.0970719 -0.07910154 1.2259091 0.15327495 1.0252247 0.40010676 -1.2771032 -0.114833266 0.33223015 -0.42065948 -0.8206342 -0.68519664 -0.09150205 -0.73404723 0.341357 -0.71913594 0.26756063 0.22935526 0.17060758 -0.56839085 0.7551914 0.2637795 -0.2182833 -0.3786107 0.35026422 0.24814387 0.15044335 -0.8301851 -0.85205007 0.5850143 -0.83051586 -0.1764781 0.2841691 1.1495296 0.5292422 -0.0033572477 -0.2922733 0.12457962 0.82304525 0.46841216 0.20746915 -0.6927261 0.12570126 0.270872 -0.27252766 -0.09014071 0.5279306 1.0147309 -0.18212026 -2.007411 0.7702193 0.767396 -0.4633677 -1.2484038 -1.4888401 0.7007419 0.12859556 -1.4242013 0.37892625 -0.20604485 0.25793448 -0.5741702 -0.27928764 0.1959816 1.2162718 -0.21384022 1.3290681 0.3566784 0.80360174 0.45850497 -1.6589482 0.24427372 0.28064638 -0.5283973 -0.9912396 -0.76616085 0.070331104 -0.6251883 0.015163779 -0.98487294 0.3808401 0.42483127 0.082206756 -0.57615095 0.7753502 0.24069749 -0.34490708 -0.5686892 0.6436884 0.9216641
8 -0.22142899 0.3526285 -0.9126014 0.22352739 -0.22210005 0.11750556 0.21904562 0.0062157414 -0.16461672 1.0330775 0.01940156 -0.67447454 0.3818175 -0.09980728 -0.66184324 -0.8735035 0.4707446 -0.18318261 -0.117562875 0.46524101 0.13764194 -0.26361638 -0.05279495 -0.67282265 0.20987098 0.32233796 -0.44943994 0.5300088 0.05010828 0.2602797 0.93977785 -0.30992833 -0.4332554 0.14115722 0.07963292 0.3816109 -0.24584575 0.42148829 0.03275414 -0.7580355 0.15144894 -0.5229119 0.57110643 -0.3806776 0.35985392 -0.023000553 0.4352695 -0.05059833 0.33859688 -0.37061173 -0.07213239 0.47422022 0.47133973 0.32397375 -0.1687846 -0.35006723 0.6195492 -0.18099461 -0.15145919 -0.10365108 -0.31862885 0.30479896 -0.72131735 0.38798556 -0.16529192 0.22709759 -0.6348745 0.05509162 -0.002421575 0.4259205 0.3156737 0.07738704 0.24679843 0.830566 -0.15840791 -0.3179396 0.20909172 0.051679567 -0.3606806 -0.7705708 0.45264164 -0.37075838 -0.026334982 0.4218301 0.030812325 -0.01360989 -0.3974686 -0.43692788 0.06565553 0.54289633 -0.7412254 0.21087804 0.054737367 0.4285405 0.80608284 -0.3134308 -0.19903359 0.086190276 -0.02758364 0.17503665 -0.03981596 0.29054874 0.20980427 -0.64662266 0.07662989 -0.36456093 0.107818246 -0.73869336 0.2959598 -0.30128852 -0.01354641 -0.08488754 0.5180956 -0.5969246 0.2606306 0.031637523 0.053046737 0.20092338 -0.16878836 0.01574352 0.6808056 0.081496805 0.19931072 -0.31998956 -0.2500842 0.21616532 -0.39259017 0.46089154
9 0.15347417 0.34389478 -0.14425428 0.15031794 -0.61251885 0.50940657 0.20640983 -0.18629767 -0.15594909 0.5459285 -0.106756024 -0.3315315 0.92203957 -0.25285378 1.0630646 0.30429488 0.66428983 -0.12580344 -0.20681992 -0.23823564 0.19466501 0.060123168 0.33498952 0.025922475 0.22337359 0.5823504 -0.38160163 0.035136435 -0.4724757 0.17607322 0.25688058 -0.31763718 -0.37481007 -0.1388044 0.39610627 0.32951164 -0.010558049 0.15292917 0.5306758 0.059945464 0.021988465 0.16696513 0.09218808 -0.19472897 -0.24575266 0.98036754 0.63515234 -0.25905907 -0.5404134 -0.36724046 -0.096505694 -0.4669865 0.39668417 0.1037225 0.14721166 -0.2239555 0.024233408 -0.094462566 -0.7943239 0.41143906 -0.34444717 -0.07320469 -0.6235808 -0.8737849 -0.0901641 -0.19516176 0.19138025 0.06525498 -0.42096183 0.542971 -0.36379513 -0.044333294 0.09768271 0.25731626 -0.4257308 -0.38256523 0.6505273 -0.1937965 0.7024843 0.078588046 0.15247823 -0.38328326 -0.20694003 -0.33044136 -0.17432547 -0.06421844 0.17245999 0.30355906 0.36921078 0.5219486 -0.34192526 0.08386508 -0.33298376 0.4186994 0.22150928 -0.20987947 -0.4021296 0.2217956 0.3036192 0.17429191 -0.37400115 0.33058307 0.062786035 0.20376283 0.031027958 0.022016417 -0.30048528 -0.08418591 -0.3875599 0.6946341 0.23862405 0.37273178 -0.5757354 -0.3994817 0.2183337 -0.07198692 0.095301956 0.43290937 0.4476338 0.23946935 0.07627411 -0.26867762 -0.3253261 0.3962288 -0.2193982 0.38566127 -0.399048 -0.6348816
10 0.031542886 -0.7739659 -0.364268 0.39225614 -0.36014956 0.046222407 -0.08180202 0.4870873 0.45529273 -0.1158326 -0.17510822 0.23997805 0.5272628 0.2850499 0.27938282 -0.31409767 0.2049504 0.37200302 -0.41063243 -0.37805185 0.12557882 0.74759525 0.021321686 -1.236713 0.6673601 0.27902755 -0.55581814 -0.8535645 -1.050061 0.30720434 -0.1637621 -0.8738839 0.7380938 0.21911067 0.065847 -0.16179176 -0.11967131 0.3398217 0.57721454 -0.21150294 0.89103943 0.32631564 0.87032884 0.38850814 -0.740607 -0.0022429214 0.25645512 -0.5406165 -0.43048915 -0.35430175 0.064954855 -0.19147523 0.16851456 -0.4325286 0.17576037 0.18060115 -0.046540044 -0.49573112 0.5674532 0.1812142 -0.40645733 -0.22809842 0.26424864 0.05718465 -0.20782939 -0.2986004 -0.19190848 0.22518216 -0.16290411 0.19859657 -0.36124387 0.3029927 0.17653988 0.18943387 -0.310211 0.18879297 0.3697079 -0.29672536 -0.0015323579 -0.3734558 0.21139926 0.088984385 -0.19241224 0.020546978 -0.11047216 0.48265433 0.39184248 -0.2863632 0.46302515 0.06194432 -0.23363349 -0.26324922 -0.2857495 0.18267475 0.07936573 0.10859027 0.21192057 0.3856547 0.09454292 0.013117652 -0.056397103 -0.022009425 -0.074381314 -0.5946806 -0.025975851 0.3437592 0.34919825 -0.06112551 -0.33215585 0.38412365 0.0034143357 -0.36655334 -0.46765718 0.0927276 0.15598083 -0.08406654 0.047700074 -0.12112269 -0.07080292 0.12366739 -0.0131052565 -0.34048653 -0.40744653 0.21885942 -0.0995513 -0.22590506 -0.373146 -0.22858179
11 -0.015198681 -0.5360178 -0.50532764 -0.07443518 0.23241803 0.059979018 -0.3011108 -0.17790578 -0.054037664 -0.1382427 -0.079998456 -0.4136347 -0.2985552 0.7127005 -1.0690287 -0.48694465 -0.0587011 -0.61703354 -0.24121943 -0.38265508 0.25551042 0.18210362 0.18565458 0.0042920504 0.09102637 0.08774073 -0.16517672 -0.4841992 -0.17543694 0.103439786 0.15782902 -0.014394347 0.42107928 -0.028825967 -0.524501 0.09429262 0.082212806 -0.59851944 0.095172234 -0.060801428 -0.5076253 0.72057045 0.5657815 -0.035621773 -0.24689451 -0.35473132 0.14892085 -0.29295698 0.08872781 -0.79844254 -0.073411986 -0.17014334 0.034773782 -0.22241282 0.46745843 0.04527466 -0.6655371 -0.13118716 -0.099222474 0.2109347 -0.17282091 0.24466957 -0.9694975 0.038785458 -0.2685045 0.10265537 -0.030200386 -0.04543116 -0.15777515 0.2156581 0.012834877 -0.1191707 0.095387876 -0.035787508 0.08582496 -0.384237 0.20023733 0.12673838 -0.54829437 -0.38415164 -0.08339195 -0.30613288 -0.15950727 -0.28423247 0.04683246 0.4434188 0.23624587 -0.08044511 -0.12066948 0.20697439 -0.11223416 -0.2811074 -0.0105696 -0.23367612 0.13903639 0.066466056 0.104846 -0.05781208 -0.106081925 -0.038209207 -0.22648825 -0.032237407 0.1166703 -0.018153097 -0.28867176 0.3176665 0.19421028 -0.39782423 -0.46207848 -0.08945109 0.3038139 0.01416393 0.04616322 -0.5034745 0.1996794 -0.005588122 -0.08901451 -0.06703851 0.15617804 -0.013610524 -0.2233321 -0.24705687 0.18262503 0.1039849 -0.032911643 -0.17191686 -0.69308 0.1368566
12 0.08559709 0.56643677 -0.06636221 0.11034928 0.17327234 0.9862235 0.20749177 -0.71717817 0.32238558 0.32281172 -0.36245027 -0.020198515 -0.07331664 -0.5626156 -0.05619544 -0.59832674 0.83255285 0.27551106 -0.6280446 -0.8095512 -0.1402988 0.26230916 0.8983494 0.63363373 0.32569328 0.47881588 0.030659117 -0.47243708 -0.40329194 0.6474174 0.6850253 -0.22536835 0.7857682 0.034497857 0.028663194 0.04244944 -0.42214 0.009591506 0.5934242 0.6779583 0.16800554 0.07566278 -0.29354107 -0.01793272 0.31687224 0.2877007 -0.5439289 -0.20176259 0.7540278 0.17280173 -0.42622575 0.25433993 0.5960862 -0.69819844 0.64265656 0.5652122 -0.10795041 -0.2485005 0.36615622 -0.6411912 0.45868734 0.048379246 -0.6451511 -0.487481 0.08793005 0.32539627 0.02071947 -0.22816615 -0.041980397 0.089126356 0.30639702 -0.30469355 0.13291988 0.079062946 -0.5650956 -0.20946224 -0.054571107 -0.56308657 -0.099684455 -0.34853363 0.3915578 0.3811853 -0.5819172 -0.55037683 0.053545434 0.0639185 0.66990155 0.44747806 0.18015212 0.22100283 -0.26622054 -0.34620985 -0.24123643 0.51738155 0.24171455 0.11482833 0.084531575 -0.10122324 0.23757777 0.25918293 -0.5774169 0.0048671793 0.37842384 0.33131775 0.38228643 -0.044258956 0.094129495 -0.30222568 -0.15180767 0.21446264 -0.5778337 -0.020961612 0.6306239 -0.08445994 0.078676976 -0.047509514 0.19039589 -0.4960902 0.1011295 0.43461114 -0.021989811 -0.028468117 0.14534838 -0.33230606 0.52307886 0.21195032 -0.56644905 -0.108073294
13 -0.13570489 0.1650187 0.043363 0.28018743 0.33581424 1.0488008 -0.082063854 -0.26242575 -0.047725193 1.0377485 0.31867555 0.052990183 0.7325236 0.031965878 0.018245941 -0.4591174 0.29405606 -0.1321199 0.11825783 -0.006816366 -0.5845156 -0.69011354 -0.64948297 -0.4678351 -0.0452544 0.04061145 -0.6240375 0.08038644 0.13096328 0.36304912 0.69662994 -0.32210794 -0.14185248 0.034991622 -0.11684978 -0.24787012 -0.53325796 0.003950462 0.2941043 0.027572189 0.106895134 -0.397598 -0.19813158 -0.6423981 -0.565918 -0.4277173 -0.23636642 -0.8278769 -0.017441295 0.080156095 0.7604308 -0.4515989 -0.31573915 -0.1524464 -0.3814231 0.54128796 0.30842462 0.57530034 0.27829203 -0.54796493 -0.00013910666 -0.37049603 -0.48086974 0.046046782 -0.21516171 0.35848957 0.050452296 -0.10174559 0.27478614 0.61399394 -0.29170978 0.04098954 -0.29303086 0.7182212 -0.23921017 0.28792277 0.54240197 0.2768202 0.15393451 -0.66221356 -0.09117334 0.025803309 -0.3707823 0.5790569 -0.065272406 -0.35079482 -0.6186316 -0.12744695 0.028303836 0.30122107 -0.45120394 -0.11408174 -0.4042941 -0.15681921 0.5443949 -0.42803678 -0.008681196 -0.15091413 -0.23044486 -0.24270713 -0.4585815 0.119228266 0.27114862 -0.24723913 0.09783576 -0.22104482 0.11124928 -0.2914903 -0.35791188 -0.26844856 -0.1572873 0.05286036 0.13238293 -0.4816086 0.067712374 -0.21627988 -0.7173029 -0.29568183 -0.050605733 0.25819972 0.49716234 0.4541195 0.1476181 -0.4489293 -0.32688597 -0.29283166 -0.16490066 -0.2701069
14 0.36089888 0.15893112 0.19993292 -0.44665518 -0.9354153 -0.25213826 -0.19480991 -0.014623577 0.32829148 0.3399894 0.40120625 0.5823356 -0.090404 -0.20675032 -0.84841526 -0.4713364 0.93493265 -0.41685775 -0.03888615 -0.63855195 -0.0058292537 -0.50712 -0.86541414 0.6012075 0.0066165975 -0.23373713 -1.3334461 -1.2917548 -0.21666507 -0.49829036 -0.17745283 0.16820332 0.29944316 1.1739715 0.21961503 -0.10940708 0.0076104966 -0.017919796 -0.10090445 -0.7123782 0.77296114 0.40375683 0.79234827 0.8186584 0.14259274 0.25846022 0.10689799 0.13735719 0.11823861 -1.2045256 0.6106463 -0.007272902 -0.09305302 0.6862915 0.07371301 -0.029576419 -0.32906282 0.027710246 0.37095052 0.11082751 0.52292836 -1.2195605 -1.0797386 -0.37236035 0.12237574 -0.020019118 0.05007532 -0.29000273 -0.6689885 -0.32968125 0.120225206 0.12041477 0.28007546 0.25558344 0.17514835 0.34237435 -0.00737745 0.08501575 -0.4241734 -0.3610319 0.7562882 -0.2688618 -0.16426556 -0.7038938 0.062139828 -0.2905751 -0.4929174 0.43905795 0.13055834 -0.28472197 -1.0965875 -0.8223342 -0.08551358 -0.45641163 -0.27745882 0.057624858 0.019687995 0.7839467 0.01860415 -0.1264516 -0.20374453 -0.18350433 -0.014337326 -0.518945 0.59437 0.34177846 0.6327332 0.3229843 0.04922833 0.34226975 0.20753396 0.050507873 0.1538762 -0.981934 0.17860696 -0.06638901 -0.13695632 0.430638 0.25581548 0.12962596 -0.18102875 0.17585264 0.21693674 0.10796932 0.24452206 -0.9949658 -0.8756381 -0.13619731
15 0.19278745 -0.1007971 -0.016796006 -0.4472002 -0.68595487 -0.30592912 -0.06883011 0.03267874 0.36074182 0.23172535 0.22885826 0.5407405 0.021857107 -0.017515317 -0.73305464 -0.45811933 1.1080698 -0.31002966 -0.35628024 -0.5784044 -0.017882193 -0.7018693 -0.7630487 0.66413647 0.019604426 -0.37878636 -1.150404 -1.2216859 -0.14767289 -0.6579746 -0.24859978 -0.0007712049 0.21700472 1.0207223 0.2615472 -0.046749942 0.01561085 -0.046698514 0.07302887 -0.81807375 0.9561023 0.34017912 0.9077803 0.6146199 -0.0552253 0.1421735 0.34367365 0.39316857 0.035299055 -1.1243633 0.344221 -0.051114727 0.18549636 0.43125775 0.12726219 -0.02999769 -0.2612368 0.2123006 0.31456402 0.2832463 0.44581574 -1.2096028 -1.1845015 -0.42009717 0.12237574 -0.020019118 0.05007532 -0.29000273 -0.6689885 -0.32968125 0.120225206 0.12041477 0.28007546 0.25558344 0.17514835 0.34237435 -0.00737745 0.08501575 -0.4241734 -0.3610319 0.7562882 -0.2688618 -0.16426556 -0.7038938 0.062139828 -0.2905751 -0.4929174 0.43905795 0.13055834 -0.28472197 -1.0965875 -0.8223342 -0.08551358 -0.45641163 -0.27745882 0.057624858 0.019687995 0.7839467 0.01860415 -0.1264516 -0.20374453 -0.18350433 -0.014337326 -0.518945 0.59437 0.34177846 0.6327332 0.3229843 0.04922833 0.34226975 0.20753396 0.050507873 0.1538762 -0.981934 0.17860696 -0.06638901 -0.13695632 0.430638 0.25581548 0.12962596 -0.18102875 0.17585264 0.21693674 0.10796932 0.24452206 -0.9949658 -0.8756381 -0.13619731
16 -0.01764811 -0.2303263 0.2605121 -1.0375804 -0.7658406 0.26633283 -0.37844586 0.064560905 -0.12144839 0.40445134 0.3562948 -0.4419991 0.82972354 0.066112384 0.11009435 -0.6175548 0.57346654 0.35919374 -0.9114426 0.10795536 0.10201737 0.44772118 0.050076652 0.52215004 0.029435443 0.2566392 -0.7750684 0.42455465 -0.37363717 0.47999194 0.18855129 0.17774552 0.37164542 -0.21822068 -0.4256437 -0.92086846 0.2200735 -0.595587 0.38803828 -0.0951296 0.42956644 0.56431586 -0.3790879 -0.4013582 0.40536085 -0.4014665 0.45177794 0.2910806 -0.3004782 0.137664 0.18136273 0.315459 0.1711956 0.045139115 1.116664 1.1091871 0.44068095 0.015309612 0.24172628 -0.11475068 0.14154395 0.31129217 0.27415273 1.0906473 0.24369812 0.049630005 0.15593146 -0.85282403 -0.6681278 0.117711365 -0.28946027 -0.022808379 -0.3878733 0.38249597 -0.082885265 0.04021387 0.32006413 0.41241005 0.16372095 -0.314736 0.8565044 0.47953165 -0.73846453 0.26917028 0.0051909266 0.14126427 -0.42407504 0.29189882 0.23578513 0.13139366 -0.65268594 0.12329683 -0.19478697 0.5400913 0.558126 0.39184004 0.1322512 0.09672925 -0.2689051 -0.6734227 -0.085131176 -0.1940888 0.39310047 0.03903153 0.104080625 0.35052046 -0.2996763 -0.23314616 -0.20451659 -0.15170828 0.5570132 0.19935174 -0.24051787 0.3572146 -0.3386185 0.26963267 -0.12842771 0.038818974 0.57376075 1.1148722 0.15150386 -0.3292533 0.05915491 -0.1381846 -0.06782956 0.31130213 -0.09980377 1.0769677
17 -0.32959577 -0.026233999 0.6191804 -0.347388 -0.79396 -0.31775942 0.20656554 0.42114633 0.28815183 0.6488644 0.46779445 0.25701892 0.1762226 -0.049974196 0.059806585 -0.8146579 0.54626787 0.03447647 0.12891914 -1.0745767 -0.053166136 0.0989641 -0.37210926 0.2950928 0.4431123 -0.11850691 -0.44466507 -0.13403599 0.3314861 -0.52239406 -0.33875927 -0.050408278 -0.46623647 0.86519337 -0.77650315 0.49241054 -0.057465356 -0.17392838 0.18408778 0.48385087 0.065652184 0.3413993 0.32472193 -0.095538706 0.13883513 0.061086144 0.15172608 0.18146268 0.10250876 -0.13287394 -0.025557814 -0.3851573 0.26627356 -0.010805068 0.14565717 -0.17427815 0.15138076 -0.04635661 0.1798787 0.03890009 -0.216832 -0.16451283 -0.68887365 -0.15323713 -0.1823016 -0.023176404 0.34954765 -0.47754204 -0.4396148 -0.03806826 0.11278441 0.18887049 0.23129725 0.44625923 -0.0105737 0.3490956 -0.049092174 -0.08990161 -0.060214523 -0.30584818 0.60236365 0.00086485 -0.116645165 -0.65201867 0.2504193 -0.12289853 -0.41536963 0.29826978 0.3263676 -0.35253453 -0.69544846 -0.16874224 0.17990443 -0.2816213 -0.17122479 -0.16874394 -0.3051516 0.38834527 -0.44233426 0.17108254 -0.25474116 -0.07139505 0.032307595 0.12318421 -0.09942532 0.24984564 0.35733572 -0.31900522 -0.028479975 0.3048231 -0.03847484 0.07773819 0.03611618 -0.34696075 -0.2305404 -0.13043782 -0.02472169 0.07495192 0.0848968 0.03452693 -0.021742083 -0.06925458 0.31991938 -0.043800365 -0.05023857 -0.36759824 -0.5870188 0.0061389506
18 -0.36638802 -0.11472814 0.8490448 -0.18361546 -0.6398094 -0.31381017 0.2039274 0.1547201 0.27586913 0.5407248 0.41280666 0.4026841 0.26881856 0.0212627 0.027385365 -0.5798765 0.5523916 -0.020168673 0.37561774 -0.691874 0.06533221 0.13386372 -0.376435 0.1920612 0.5125723 -0.017897176 -0.5070048 -0.12156563 0.31209365 -0.37330285 -0.31048632 0.1648671 -0.50380653 0.8053087 -0.7728209 0.48195106 -0.32684284 -0.10108946 0.13536288 0.40782508 0.070245735 0.29585004 0.30616766 -0.1801716 -0.14306417 0.044113953 0.17814553 0.30263954 0.31784308 -0.1512445 -0.03484525 -0.4132671 0.28402108 0.09764162 0.19429173 -0.14094216 -0.017540026 0.24596731 0.10770745 0.14221165 0.08664288 -0.35055363 -0.7435522 -0.041401945 -0.1823016 -0.023176404 0.34954765 -0.47754204 -0.4396148 -0.03806826 0.11278441 0.18887049 0.23129725 0.44625923 -0.0105737 0.3490956 -0.049092174 -0.08990161 -0.060214523 -0.30584818 0.60236365 0.00086485 -0.116645165 -0.65201867 0.2504193 -0.12289853 -0.41536963 0.29826978 0.3263676 -0.35253453 -0.69544846 -0.16874224 0.17990443 -0.2816213 -0.17122479 -0.16874394 -0.3051516 0.38834527 -0.44233426 0.17108254 -0.25474116 -0.07139505 0.032307595 0.12318421 -0.09942532 0.24984564 0.35733572 -0.31900522 -0.028479975 0.3048231 -0.03847484 0.07773819 0.03611618 -0.34696075 -0.2305404 -0.13043782 -0.02472169 0.07495192 0.0848968 0.03452693 -0.021742083 -0.06925458 0.31991938 -0.043800365 -0.05023857 -0.36759824 -0.5870188 0.0061389506
19 0.20787358 -0.097331345 0.3089354 -0.4224804 -0.95501167 -0.098438166 -0.09225408 -0.12526707 -0.20007885 -0.13293645 -0.08389117 0.29942164 0.21547261 -0.4414901 -0.94085646 -0.21109243 0.6290357 -0.36265364 -0.40738147 -1.09528 -0.3815842 0.07438155 0.008579875 0.30654803 0.48919845 0.3618665 -0.30863932 -0.45296985 0.5072338 -0.09817513 0.29354793 0.36175865 0.08200758 0.5104402 0.31130794 0.1526748 -0.60546976 0.16016002 0.0032946775 0.75800055 0.8451282 -0.79062015 0.19450095 -0.13123423 0.010259949 -0.11835911 -0.612192 -0.16311768 0.3260137 -0.55851567 -0.5791441 0.09647282 -0.13984953 -0.54165214 0.17473157 0.18908526 0.35991192 -0.11024883 -0.05859106 -0.66017663 0.83830005 0.0015927657 -0.6076699 -0.16694264 0.0522177 -0.000787495 0.19467933 -0.34161246 -0.15777425 0.066317886 -0.07210465 -0.14254624 0.04050707 0.2507269 -0.10723657 -0.095852405 0.11520835 -0.32967976 -0.6430369 -0.1585668 0.49628866 0.0302874 -0.26388776 -0.44558293 0.060340617 -0.0944535 0.3076457 0.1206855 0.02287908 0.24418432 -0.3150638 -0.5596454 -0.19008286 0.3762631 -0.0043313 -0.061958235 -0.22830357 0.01473386 0.5355564 0.21796077 -0.50346893 0.09765842 0.2063983 0.5720524 0.3288723 -0.28144494 -0.0142099 -0.11725713 -0.08766116 -0.18499628 -0.49923623 -0.1830515 0.06590219 -0.002112675 -0.43858314 0.109104745 0.029206825 -0.5279824 0.083751634 0.23820171 0.243727 -0.17015393 -0.03189041 -0.77010286 0.6889768 0.41166222 -0.9120395 -0.04300149
20 -0.12904061 0.7596346 0.55838436 -0.07016317 -0.41353527 0.2968861 -0.36645815 -0.15491436 0.38884407 0.19836745 -0.47570568 0.15023287 0.3708144 -0.648234 0.12230743 0.08019421 0.2857813 -0.45938748 0.15711367 -0.12302711 0.33478156 0.019700637 0.8054346 0.5651783 0.6750554 1.2799821 -0.6338888 -0.51602274 -0.6068555 0.7772607 -0.024455164 -0.49740368 0.46025008 -0.37689382 0.4380407 0.55907536 -0.27720064 0.6205715 0.13049696 0.64024717 0.60836697 -0.15047814 -0.6602854 -0.16633527 0.10169428 0.3757211 -0.13065176 -0.20252706 -0.15967855 -0.33987737 0.4390167 -0.17572986 0.41959384 0.9153507 0.3037247 0.9160951 -0.019593336 -0.4788509 0.34395522 0.3385972 -0.08986521 0.25871387 -0.48097518 -0.63476753 -0.0901641 -0.19516176 0.19138025 0.06525498 -0.42096183 0.542971 -0.36379513 -0.044333294 0.09768271 0.25731626 -0.4257308 -0.38256523 0.6505273 -0.1937965 0.7024843 0.078588046 0.15247823 -0.38328326 -0.20694003 -0.33044136 -0.17432547 -0.06421844 0.17245999 0.30355906 0.36921078 0.5219486 -0.34192526 0.08386508 -0.33298376 0.4186994 0.22150928 -0.20987947 -0.4021296 0.2217956 0.3036192 0.17429191 -0.37400115 0.33058307 0.062786035 0.20376283 0.031027958 0.022016417 -0.30048528 -0.08418591 -0.3875599 0.6946341 0.23862405 0.37273178 -0.5757354 -0.3994817 0.2183337 -0.07198692 0.095301956 0.43290937 0.4476338 0.23946935 0.07627411 -0.26867762 -0.3253261 0.3962288 -0.2193982 0.38566127 -0.399048 -0.6348816
21 0.09812493 -0.29673085 -0.3940066 0.09731213 0.037426338 0.35029823 -0.66954863 -0.32084233 0.059339732 0.5953954 -0.1771683 -0.09103965 0.03475139 0.3180489 0.29572132 -0.27364376 -0.348428 0.3315245 -0.21188065 -0.24961382 0.23409894 0.5348569 0.5360716 0.29742637 0.5526532 0.08214072 -0.5433866 -0.06760867 -0.5829834 -0.034662906 0.17828506 -0.08577572 -0.25659975 -0.19060123 0.004354479 -0.65784925 -0.21471344 0.30235577 -0.17789805 -0.4008289 0.007853967 0.6329185 -0.67240006 0.1675849 -0.8006733 0.32769382 0.1487113 -0.53366643 -0.03602494 0.15197486 0.17346808 -0.23390499 0.46128744 0.1862736 -0.28651902 0.12527783 -0.5930396 -0.5987608 -0.21136445 0.28392363 -0.030124042 -0.20108972 -1.0310007 -0.24986134 -0.20782939 -0.2986004 -0.19190848 0.22518216 -0.16290411 0.19859657 -0.36124387 0.3029927 0.17653988 0.18943387 -0.310211 0.18879297 0.3697079 -0.29672536 -0.0015323579 -0.3734558 0.21139926 0.088984385 -0.19241224 0.020546978 -0.11047216 0.48265433 0.39184248 -0.2863632 0.46302515 0.06194432 -0.23363349 -0.26324922 -0.2857495 0.18267475 0.07936573 0.10859027 0.21192057 0.3856547 0.09454292 0.013117652 -0.056397103 -0.022009425 -0.074381314 -0.5946806 -0.025975851 0.3437592 0.34919825 -0.06112551 -0.33215585 0.38412365 0.0034143357 -0.36655334 -0.46765718 0.0927276 0.15598083 -0.08406654 0.047700074 -0.12112269 -0.07080292 0.12366739 -0.0131052565 -0.34048653 -0.40744653 0.21885942 -0.0995513 -0.22590506 -0.373146 -0.22858179
22 0.22030807 0.18799715 -0.74950075 0.13248956 0.25401145 0.16531289 0.20735055 0.09996652 0.14092273 0.2257095 0.13924594 -0.54162 -0.31034476 -0.0588057 -0.33547732 -0.8374161 -0.09393431 -0.23333772 -0.1388283 -0.4403337 -0.43636626 -0.01451626 -0.63581043 -0.44372395 0.3501168 0.49105656 -0.5008495 -0.17056629 0.19624242 0.40738842 -0.057476208 -0.13311206 0.19536756 0.18743303 0.20194656 -0.36503872 -0.4865683 -0.14202473 0.025225013 -0.2965618 -0.40244532 -0.20335574 -0.32450706 -0.06468525 0.20612922 0.109993756 0.183177 0.4858611 -0.1439724 0.1263722 0.2095853 0.622222 -0.06956887 0.16322899 -0.19529404 -0.25313333 0.116726674 0.2203479 0.13261402 -0.41155612 -0.11743364 -0.046587255 -0.7790996 -0.064980075 0.33665916 0.03415665 -0.26147616 -0.21272351 0.20701878 0.29749626 0.0766312 0.21122853 0.2424929 0.19483835 0.044487763 -0.30185536 0.04431585 -0.0772662 -0.33292457 -0.60697085 -0.001115602 -0.13289952 -0.30281928 -0.07648234 -0.089596145 0.12044266 -0.17030661 0.040207803 0.20253989 0.45382333 -0.53135544 0.05772469 0.032041714 0.33315897 0.21820752 -0.38160384 0.06373606 0.18097349 0.138234 -0.059638992 -0.39059922 0.09283405 0.1046788 -0.1776277 -0.16129844 -0.12627846 0.013137904 -0.26937047 0.1011232 0.07465565 0.34787115 0.29140848 -0.09076502 -0.09995051 0.11378925 0.18921806 -0.004001905 0.065645285 -0.1637594 -0.13749455 0.13583565 0.13110378 0.19906995 -0.11073659 0.006741167 -0.14419046 -0.44382763 0.06985742
23 0.5920638 0.09265725 -0.28417724 -0.15035556 0.030608954 0.19115882 -0.12487336 0.17117749 0.22612812 0.13349815 -0.5289654 -0.70208246 0.12503548 -0.07029094 0.040986583 0.10396644 -0.41020572 -0.7887456 -0.8305921 -0.33914587 -0.7949593 0.38344046 0.16121738 0.2505687 0.70357686 0.49723765 -0.537176 -0.49512494 0.22599365 0.58477706 0.14289421 -0.31366786 -0.65256184 0.17309853 -0.023379412 -0.32417685 -0.8731774 0.4670639 -0.11396545 0.30621633 -0.18000376 0.28334653 0.05490493 0.27612972 0.09733263 0.64197123 0.42121997 0.24903572 -0.74149764 -0.21995647 -0.18101114 -0.28346857 0.007100655 0.820752 0.092244565 0.17896223 0.41969264 0.09532739 0.123081185 0.26226786 0.083446756 0.07127809 -0.69200015 -0.24394889 0.30861557 -0.047385175 0.14067377 -0.20144628 -0.005754755 0.10567137 -0.027995946 0.18386771 0.2771624 0.051238794 -0.28241608 -0.40342787 0.38103053 -0.14833952 0.26407614 -0.2509128 -0.072684504 -0.27555513 -0.6025461 -0.31544027 -0.26315445 0.23059818 -0.00977029 0.4080197 0.37181744 0.36777258 -0.49112886 0.042719614 -0.1626546 0.3099938 0.21733885 -0.25644824 -0.14964981 0.35004774 0.194143 0.09623003 -0.61099774 0.23387419 0.078107275 0.07435314 -0.15760317 -0.07383671 -0.08820256 0.06636473 -0.15212542 0.44311678 0.5029855 0.27118984 -0.56865567 -0.21747562 0.07547837 -0.022920731 0.11305649 0.40554222 0.18184854 0.01537847 0.17683315 0.020067126 0.00529491 0.38003388 -0.040698566 0.0358182 -0.4228163 -0.16588064
24 -0.30523655 -0.04463136 -0.4018273 0.08693684 -0.25159988 0.110144086 0.4771114 0.28376737 0.04069542 0.094298 0.29426315 -0.033853002 0.09982865 0.08192173 -0.5217415 -0.2474346 -0.07365326 0.12710334 -0.40431628 0.044215996 0.3762669 -0.4392367 0.5760141 0.16331209 -0.41468143 0.09430953 -0.106984206 -0.70149195 -0.1813215 0.27794474 -0.12422806 -0.085661724 0.37787873 -0.14680429 -0.08632334 -0.31676155 -0.07040686 0.5638341 0.037098605 0.30523044 -0.098966934 0.44685778 0.9556203 -0.76438093 -0.5907358 -0.02091954 0.40470263 -0.08790014 0.2911641 0.12518957 0.0004080271 0.17898539 0.09545947 -0.3769972 0.71892965 -0.13571647 0.34386608 -0.38994452 -0.2692627 0.48356497 -0.2991051 -0.89542365 -1.1439981 -0.031114615 -0.20362973 -0.00928425 -0.26918268 0.010063207 -0.64853126 0.30878344 0.42395 0.17659907 -0.03013803 0.20345357 0.3919834 -0.03859734 0.103814416 -0.06321791 -0.544464 -0.3632696 -0.31595632 0.0746755 -0.2821901 -0.1525849 0.17818871 -0.08836055 0.50366 -0.00294274 -0.10669109 0.36825344 0.26430514 -0.35683474 -0.14583863 0.045697823 0.09841596 -0.0351918 0.17221142 -0.14993723 -0.39093494 -0.30076018 -0.22244103 0.3546521 0.12880214 0.40565398 -0.4631148 0.33841497 0.72771996 -0.5936941 -0.6604622 -0.25675473 0.37133533 -0.158709 0.2712581 0.036134697 0.12603042 0.21772392 0.082833365 -0.05580661 0.49189413 0.09689237 0.27301285 -0.33143023 -0.18381548 0.4466592 -0.031757593 -0.5358019 -0.9845235 -0.03622589
25 0.8006855 0.09363755 0.3224722 -0.5654068 0.12616031 0.17982072 -0.53754497 0.9975261 0.2702411 0.120555095 -0.28416303 -0.09040387 0.8678979 -0.5324783 0.25510383 -0.07590697 0.40232638 -0.18304653 0.07864505 -0.04049683 0.5278817 0.3845354 -0.670846 -0.8439567 -0.15841283 0.1233008 0.34957165 -0.11187317 -0.7485437 0.28780648 -0.34539148 0.64397556 -0.5373502 0.25907168 -0.47340083 0.28264487 -0.47061548 -0.23194861 -0.0923741 0.04810186 -0.022773243 0.0764484 -0.45650816 -0.24774785 0.40784356 -0.31977212 0.7560302 0.45063755 0.5689945 -0.15911643 -0.17113909 -0.34751526 -0.2430416 -0.06796409 -0.40423182 0.87249535 0.90792006 -0.61737686 0.4658625 0.02674378 -0.105947144 -0.53423727 -0.6355934 -0.33430117 0.88924795 -0.3773849 -0.053498387 -0.2314546 -0.51351696 0.4510215 -0.66720647 0.90894806 0.10105408 0.2869877 -0.64570487 0.08680369 0.6942765 0.0037037286 0.16348451 -0.28293544 0.4338416 -0.50689936 -0.052081764 0.1645619 0.4761431 0.80128485 0.22009182 -0.78290904 -0.3897119 -0.15215465 -0.24488017 -0.57065284 -0.50859696 0.8127096 -0.028285546 0.4616877 -0.4598282 0.33149838 -0.12229501 0.6671807 -0.6628082 -0.6263377 -0.19478409 0.37683445 -0.3760139 -0.118272364 -0.9881067 -0.22326988 -0.03579952 -0.10562062 0.7650228 -0.19245176 0.28610802 -0.21728049 -0.13912788 0.38430217 0.029066322 -0.11835012 0.051514193 0.2547736 0.6596282 -0.40050393 0.5829513 0.6144204 -0.467384 -0.566021 -0.49663273 0.023438774
26 0.34706837 0.31299028 0.2144692 0.19876906 -0.9499234 0.7894302 -0.60300756 0.09366665 0.13668345 0.25321305 0.00634487 -0.39423737 0.7646619 -0.65720326 0.3534442 0.5438309 0.46187723 -0.4773761 0.023275403 -0.21325229 -0.3081851 -0.1926765 0.87636584 0.38744467 0.8080047 0.8172948 -0.24059254 -0.2307543 -0.31694913 0.61969227 -0.1075302 -0.49666613 -0.3303265 -0.025321694 0.16754106 0.1663544 -0.8112948 0.067185335 0.2205507 0.24484047 -0.06305584 0.12085769 -0.24470939 -0.35641176 -0.11528581 0.9430913 0.56462526 0.20253633 -0.7738235 -0.6543869 0.16668007 -0.44311485 0.24220695 0.39658925 0.66534656 0.20720215 0.13858514 -0.2271313 -0.16747354 0.15674625 -0.29031578 1.0021288 -0.15234901 -0.60100853 -0.0901641 -0.19516176 0.19138025 0.06525498 -0.42096183 0.542971 -0.36379513 -0.044333294 0.09768271 0.25731626 -0.4257308 -0.38256523 0.6505273 -0.1937965 0.7024843 0.078588046 0.15247823 -0.38328326 -0.20694003 -0.33044136 -0.17432547 -0.06421844 0.17245999 0.30355906 0.36921078 0.5219486 -0.34192526 0.08386508 -0.33298376 0.4186994 0.22150928 -0.20987947 -0.4021296 0.2217956 0.3036192 0.17429191 -0.37400115 0.33058307 0.062786035 0.20376283 0.031027958 0.022016417 -0.30048528 -0.08418591 -0.3875599 0.6946341 0.23862405 0.37273178 -0.5757354 -0.3994817 0.2183337 -0.07198692 0.095301956 0.43290937 0.4476338 0.23946935 0.07627411 -0.26867762 -0.3253261 0.3962288 -0.2193982 0.38566127 -0.399048 -0.6348816
27 0.328812 0.018051974 -0.3605147 -0.06613809 -0.46709707 0.39349076 -0.49894148 0.42905906 -0.19251823 1.1066 -0.44151205 0.5041778 1.0292784 0.45726806 0.32792333 0.14997575 0.5847441 -0.4675277 -0.20944695 1.21826 -0.18359302 0.97712225 0.5748535 -0.7743556 -0.79758865 -0.022464143 -0.4167072 0.014796505 -0.48885813 0.22322932 -0.46971917 -0.02388694 -0.5377885 0.12092516 -0.4628765 1.3230909 -0.49465963 -0.8831359 0.26383746 0.52691126 -0.19552828 0.17742622 -0.5727563 -0.5715732 0.26274064 -0.3392141 0.8379689 -0.15575899 0.29407308 0.07608525 -0.1145491 0.08330189 -1.2947222 -0.4337569 -0.2108792 0.43841818 1.0558842 -0.365584 0.81216574 1.033101 0.23221344 0.004884787 -0.68487424 -0.41801155 0.88924795 -0.3773849 -0.053498387 -0.2314546 -0.51351696 0.4510215 -0.66720647 0.90894806 0.10105408 0.2869877 -0.64570487 0.08680369 0.6942765 0.0037037286 0.16348451 -0.28293544 0.4338416 -0.50689936 -0.052081764 0.1645619 0.4761431 0.80128485 0.22009182 -0.78290904 -0.3897119 -0.15215465 -0.24488017 -0.57065284 -0.50859696 0.8127096 -0.028285546 0.4616877 -0.4598282 0.33149838 -0.12229501 0.6671807 -0.6628082 -0.6263377 -0.19478409 0.37683445 -0.3760139 -0.118272364 -0.9881067 -0.22326988 -0.03579952 -0.10562062 0.7650228 -0.19245176 0.28610802 -0.21728049 -0.13912788 0.38430217 0.029066322 -0.11835012 0.051514193 0.2547736 0.6596282 -0.40050393 0.5829513 0.6144204 -0.467384 -0.566021 -0.49663273 0.023438774
28 0.8556173 -0.010572186 0.42967615 -0.3202163 0.23340489 -0.48774672 0.26030663 0.12242458 0.23625213 0.5009525 0.044832192 -0.66218174 0.60537124 -0.19549593 -0.07300678 -0.82619476 -0.48912504 -0.08149124 -0.9037759 -1.1894611 -0.85870844 0.49310642 -0.44842988 0.2790894 0.53346276 0.3850698 -0.24540494 -0.10296201 -0.40789253 0.4512595 0.057319425 -0.23829468 0.0143626295 0.47123373 -7.528017e-05 0.5088473 -0.57715577 -0.12652844 0.04854323 -0.4471946 -0.018366896 -0.21540545 0.23924406 0.049205232 -0.103839844 -0.015157325 0.8778019 0.095447116 -0.4241526 0.46758264 0.057060786 -0.23159385 0.27649692 0.39871278 0.41878644 -0.5721543 -0.21627665 0.40413877 0.4146172 0.72768825 0.26011434 -0.46419126 -0.42633376 0.30206874 0.70739526 0.10039141 0.089967296 -0.46814755 0.40945232 -0.33162826 0.30780324 0.41206872 0.4566421 -0.15483867 -0.13910133 -0.42429048 0.11153376 -0.102882564 -0.17433201 -0.58041364 -0.29784724 -0.16782701 -0.9981522 -0.30043915 -0.35198343 0.5254148 -0.19200057 0.5124803 0.37442407 0.21359654 -0.64033246 0.0015741506 0.0076745707 0.20128821 0.2131684 -0.303017 0.10282998 0.47829986 0.0846668 0.018168146 -0.8479943 0.13716531 0.09342852 -0.05505654 -0.34623432 -0.16968983 0.124080166 0.21691537 0.08330905 0.19159946 0.7673469 0.16964789 -0.5615759 -0.035469532 -0.06737696 0.026145456 0.13081102 0.37817508 -0.08393673 -0.20871241 0.2773922 0.30881187 0.33591592 0.36383897 0.13800107 -0.31402487 -0.4465846 0.30312034
29 0.10139509 0.18152292 0.20364897 -0.37344363 -0.41286296 0.9762533 -0.18797982 -0.28809938 0.19147602 0.24728361 -0.2408494 -0.59875387 0.17855395 0.38487443 0.89973384 0.58596 0.164557 -0.45064044 0.18392296 -0.46845838 -0.6552426 -0.18992063 -0.0066950787 0.12009298 -0.030118689 0.5944556 -0.993296 0.25082722 -0.21284334 0.8271035 0.07942542 0.045004636 -0.30335322 0.21839891 0.7611646 0.059574794 -0.4809465 0.40882593 -0.014660888 -0.044302326 0.3917916 0.0734321 -0.4478013 -0.28486434 -0.59298885 0.9761301 0.39269856 -0.52195007 -0.5155176 -0.42067257 0.31163138 -0.4254892 -0.037775084 0.39442047 0.3955402 0.448957 0.030435776 -0.45554757 -0.07277304 0.38804352 -0.5562837 0.21761867 -0.9930556 -0.78383 -0.0901641 -0.19516176 0.19138025 0.06525498 -0.42096183 0.542971 -0.36379513 -0.044333294 0.09768271 0.25731626 -0.4257308 -0.38256523 0.6505273 -0.1937965 0.7024843 0.078588046 0.15247823 -0.38328326 -0.20694003 -0.33044136 -0.17432547 -0.06421844 0.17245999 0.30355906 0.36921078 0.5219486 -0.34192526 0.08386508 -0.33298376 0.4186994 0.22150928 -0.20987947 -0.4021296 0.2217956 0.3036192 0.17429191 -0.37400115 0.33058307 0.062786035 0.20376283 0.031027958 0.022016417 -0.30048528 -0.08418591 -0.3875599 0.6946341 0.23862405 0.37273178 -0.5757354 -0.3994817 0.2183337 -0.07198692 0.095301956 0.43290937 0.4476338 0.23946935 0.07627411 -0.26867762 -0.3253261 0.3962288 -0.2193982 0.38566127 -0.399048 -0.6348816
30 0.23272318 0.33122835 0.17729744 0.22793268 -0.74447167 0.7653529 -0.5785822 0.04686612 0.23547527 0.15569672 0.17312045 -0.12817736 0.850421 -0.6975313 0.5096063 0.5278952 0.66262984 -0.6609574 -0.06335304 -0.14241578 -0.40007007 -0.15174033 0.81079847 0.33027357 0.57870716 1.1640475 -0.5660577 -0.22517589 -0.29143944 0.5631742 0.24484503 -0.31392288 -0.54829025 0.16818756 0.27574015 0.006598929 -0.71166897 0.06273423 0.298255 0.35591885 -0.23642275 0.6073701 -0.41416755 -0.029935023 -0.19910367 0.751802 0.44877747 0.17343143 -0.642721 -0.21450225 -0.1471272 -0.3225881 0.24910882 0.52681595 0.80130786 0.27083373 0.25358784 -0.19208643 0.19409283 0.196859 -0.091480225 0.860549 -0.09023916 -0.89438367 -0.0901641 -0.19516176 0.19138025 0.06525498 -0.42096183 0.542971 -0.36379513 -0.044333294 0.09768271 0.25731626 -0.4257308 -0.38256523 0.6505273 -0.1937965 0.7024843 0.078588046 0.15247823 -0.38328326 -0.20694003 -0.33044136 -0.17432547 -0.06421844 0.17245999 0.30355906 0.36921078 0.5219486 -0.34192526 0.08386508 -0.33298376 0.4186994 0.22150928 -0.20987947 -0.4021296 0.2217956 0.3036192 0.17429191 -0.37400115 0.33058307 0.062786035 0.20376283 0.031027958 0.022016417 -0.30048528 -0.08418591 -0.3875599 0.6946341 0.23862405 0.37273178 -0.5757354 -0.3994817 0.2183337 -0.07198692 0.095301956 0.43290937 0.4476338 0.23946935 0.07627411 -0.26867762 -0.3253261 0.3962288 -0.2193982 0.38566127 -0.399048 -0.6348816
31 0.37767985 -0.22231582 0.6479832 0.17424068 -0.15226206 0.4734997 -0.1559352 -0.23009317 0.34234968 0.4818862 0.3742263 0.05027441 -0.19138394 -0.1886818 -0.9214634 -0.32452145 0.7809485 -0.21299429 -0.13714172 -0.4550404 0.43186495 -0.13167278 0.25311643 -0.3928455 -0.16977742 0.4223269 -0.23574695 -0.47263727 -0.36843726 -0.058141053 0.45007116 0.2732342 -0.41826814 -0.44908592 -0.27343258 0.6815948 -0.4007168 -0.04289648 0.19751765 0.1512293 -0.6060507 -0.4940406 0.11425878 -0.08370534 -0.19223203 -0.14052255 -0.10842213 0.6227641 0.15167291 -0.28625563 0.04091395 -0.2865414 -0.38141793 0.17117544 0.26382113 -0.23598625 -0.6390481 -0.038980678 0.19688064 -0.0757092 0.80324614 -0.6120535 0.1356519 0.54052806 0.11024967 -0.24221246 0.32981163 0.15086189 0.0150298625 0.34490854 -0.11625669 -0.13118167 0.47800538 0.001619385 0.5032148 0.010441157 0.13262768 -0.20515193 -0.5826951 -0.3631616 0.3047066 0.11673954 -0.2060304 -0.30872956 0.24738367 0.18066639 -0.11864223 -0.26094612 0.13641469 -0.14563769 -0.19331926 -0.01873719 -0.18175104 -0.13839124 0.4594685 0.22280705 -0.17100224 -0.25779822 0.1256274 0.18493249 -0.4107054 -0.06432885 0.21225728 -0.09895203 -0.4568511 0.05311777 0.16654061 -0.2574313 -0.16229089 -0.14131323 0.0204151 0.40165144 -0.105661295 -0.37137616 -0.08966105 -0.3578305 -0.46104205 0.1825716 0.14656551 0.3144865 -0.27201644 -0.19939083 0.28025126 -0.21244398 0.17715128 -0.110460654 -0.43758637 0.09095897
32 0.8519646 0.47473726 -0.35548723 0.39000514 -0.63929266 0.47118112 0.043830603 -0.022753436 0.5002273 1.1519166 -0.010018591 -0.3046091 0.30619758 0.6554414 0.05277091 0.043543156 0.35652342 -0.3745741 -0.27062285 0.0682826 -0.21866995 -0.5836791 0.26157942 0.22116688 0.022194631 0.13992046 -0.33546194 0.40109563 -0.4203001 0.19621214 -0.014914153 0.018249782 -0.10495467 0.6957663 0.3463698 0.7193989 0.16823702 0.42891997 -0.16060148 -0.6338298 0.23257442 0.21175227 -0.21641015 0.044174396 0.61764354 -0.3886336 0.2792599 1.0023468 -0.30577728 -0.59693474 0.46644506 0.043645985 -1.0322316 -0.58640546 0.06401134 0.5578281 0.97308046 -0.7615669 0.35164693 -0.24799721 0.066774294 -0.67145056 -0.46073395 0.11547653 0.53643167 0.3705864 -0.2887485 0.27558908 -0.055594895 0.46720427 -0.39431697 0.027138658 0.4338085 1.0454203 0.17736539 -0.16040744 0.5412975 0.48392153 0.04168544 0.16690435 0.3777292 -0.0314458 -0.25801376 0.1511842 -0.021186545 -0.22153834 -0.18904276 -0.024147784 0.21058172 0.1921116 -0.15264878 0.14898762 -0.447814 -0.23895189 -0.11552071 -0.107028656 0.0998152 0.53513855 -0.38596866 0.1993113 -0.13218603 0.050308887 0.17624989 -0.3379194 0.1168133 -0.29220688 0.014019337 -0.16525249 0.35939416 -0.34880456 -0.04896254 0.5070075 -0.07367547 -0.21557204 -0.11052471 -0.3103346 -0.90302557 -0.21506481 -0.16594067 0.5878082 0.49508473 -0.14922771 0.15317301 0.0058584334 0.23321588 -0.22221376 -0.5261167 -0.2059664
33 0.83157134 0.2598431 -0.064446956 -0.01568341 -0.82786405 0.6583089 -0.2278068 0.06837182 0.3281464 1.2600332 -0.34461632 -0.43119007 -0.013733925 0.61394966 0.18208799 0.12301043 0.06685832 -0.44462228 -0.23497482 -0.00685533 -0.18546139 -0.5394989 0.2364609 0.51049054 0.02025837 0.05202318 -0.053000584 0.4267059 -0.70604086 0.36269766 -0.16752723 0.12837134 -0.41030374 0.39077082 0.1372514 0.8889557 0.5012525 0.66766745 0.082837544 -0.6052882 0.1086685 -0.19131345 -0.40145025 0.2134826 0.7042443 -0.42588496 0.45077285 0.71100557 -0.2783226 -0.6675472 0.4733015 -0.40123367 -0.8816461 -0.1613462 0.17133307 0.48321858 0.5119807 -0.5243036 0.22209097 -0.3561305 -0.16980575 -0.8334188 -0.7673522 -0.04725454 0.53643167 0.3705864 -0.2887485 0.27558908 -0.055594895 0.46720427 -0.39431697 0.027138658 0.4338085 1.0454203 0.17736539 -0.16040744 0.5412975 0.48392153 0.04168544 0.16690435 0.3777292 -0.0314458 -0.25801376 0.1511842 -0.021186545 -0.22153834 -0.18904276 -0.024147784 0.21058172 0.1921116 -0.15264878 0.14898762 -0.447814 -0.23895189 -0.11552071 -0.107028656 0.0998152 0.53513855 -0.38596866 0.1993113 -0.13218603 0.050308887 0.17624989 -0.3379194 0.1168133 -0.29220688 0.014019337 -0.16525249 0.35939416 -0.34880456 -0.04896254 0.5070075 -0.07367547 -0.21557204 -0.11052471 -0.3103346 -0.90302557 -0.21506481 -0.16594067 0.5878082 0.49508473 -0.14922771 0.15317301 0.0058584334 0.23321588 -0.22221376 -0.5261167 -0.2059664
34 -0.041128326 -0.1176632 0.83508277 0.11280223 -0.044091184 0.4063367 0.06718186 0.28178865 0.35440823 0.5132302 0.47987443 0.13046898 -0.02220398 -0.06059624 -0.6177312 -0.27327073 0.34596363 0.05122406 -0.33168074 -0.037931554 0.45936888 -0.08259697 0.004594808 -0.32144573 -0.14785682 -0.09352723 -0.44425273 -0.16324688 0.14919567 0.00332619 -0.24757892 0.23149654 -0.44113424 -0.29985243 -0.12726349 0.45847213 -0.11237468 -0.044212975 0.59994984 0.1088779 -0.53077924 -0.12756385 0.050011374 -0.05687582 -0.3739408 0.1843737 -0.18680792 0.3415818 0.19737215 -0.55406374 -0.21595174 -0.4493711 -0.25157735 -0.0132930335 0.36777046 -0.17766288 -0.33139148 -0.11849226 0.24441664 -0.31892255 0.48708084 -0.061570194 -0.15902087 0.12734783 0.008444373 -0.16790348 0.36685 -0.042640258 -0.03328046 0.29061496 -0.012945894 0.020851564 0.3301738 0.14598589 0.32652768 0.05530285 0.0903625 -0.14876592 -0.37202132 -0.3223133 0.35216713 0.103332534 -0.22742863 -0.30407688 0.33487892 0.20813179 -0.1815925 -0.06576653 0.19123891 -0.19514485 -0.3015391 0.09281644 -0.010817434 -0.047861986 0.25457454 0.048756287 -0.21735518 -0.07200013 -0.14082773 0.25969854 -0.3519401 -0.06817111 0.15378952 0.06409608 -0.37160245 0.07092168 0.21470739 -0.21920557 -0.27769044 -0.037048806 0.008390624 0.30078858 -0.12677443 -0.28892043 -0.050403737 -0.30554044 -0.1935034 0.08425895 0.05648803 0.22989905 -0.21138024 -0.26905867 0.30386057 -0.19237743 0.060181648 -0.12733908 -0.41413006 0.074853666
35 0.06644109 -0.34443787 0.2020607 -0.044689864 -0.4574196 0.9438145 -0.28369093 0.40129218 0.2801645 0.18554999 0.18852763 0.4085229 0.8962286 -0.02505979 -0.03513082 -0.39860895 0.32027942 0.09374277 -0.0512175 -0.008644275 -0.72791886 0.36273378 0.726135 -0.8942696 0.14967816 0.19631158 -0.93443215 -0.05810917 -0.6453867 0.37281033 -0.5059841 0.5496865 0.0022416546 -0.060457587 0.1854458 -0.38752538 0.2934747 -0.05851025 0.42287928 -0.694405 0.21048066 0.21607734 0.5877289 0.2274369 -0.40308216 0.752852 -0.23150982 -0.9064858 0.05853129 0.48493925 0.46985516 -0.40496463 0.0035029354 0.008499754 -0.008184378 -0.07419455 -0.04888564 -0.42001256 -0.4232972 -0.14598106 0.032911185 -0.2829359 -0.7460247 -0.07064332 -0.20782939 -0.2986004 -0.19190848 0.22518216 -0.16290411 0.19859657 -0.36124387 0.3029927 0.17653988 0.18943387 -0.310211 0.18879297 0.3697079 -0.29672536 -0.0015323579 -0.3734558 0.21139926 0.088984385 -0.19241224 0.020546978 -0.11047216 0.48265433 0.39184248 -0.2863632 0.46302515 0.06194432 -0.23363349 -0.26324922 -0.2857495 0.18267475 0.07936573 0.10859027 0.21192057 0.3856547 0.09454292 0.013117652 -0.056397103 -0.022009425 -0.074381314 -0.5946806 -0.025975851 0.3437592 0.34919825 -0.06112551 -0.33215585 0.38412365 0.0034143357 -0.36655334 -0.46765718 0.0927276 0.15598083 -0.08406654 0.047700074 -0.12112269 -0.07080292 0.12366739 -0.0131052565 -0.34048653 -0.40744653 0.21885942 -0.0995513 -0.22590506 -0.373146 -0.22858179
36 -0.1616302 -0.24597219 0.38278148 0.11288262 -0.18591096 0.88198507 -0.23424158 0.45529014 0.23284602 0.16397305 0.10623409 0.49262646 0.80134493 0.20607692 -0.1580479 -0.4379185 0.32026634 0.10287945 -0.117547885 0.070526525 -0.5336078 0.48375544 0.385539 -0.99076694 0.28250822 0.25608858 -0.9816585 -0.37561768 -0.5373573 0.48615357 -0.7105662 0.3228624 -0.0053006215 -0.018691035 0.24537936 -0.27659294 0.49899155 -0.16270268 0.19219969 -0.5774043 0.27534035 -0.014862532 0.38087445 0.15699339 -0.4460527 0.8688802 -0.41602775 -0.90557617 -0.07412872 0.33031875 0.50337666 -0.23509511 0.051554095 0.07910065 0.09893077 0.17341365 0.020337306 -0.5866994 -0.59825265 -0.053798046 0.04451695 -0.089974396 -0.8816558 -0.11394419 -0.20782939 -0.2986004 -0.19190848 0.22518216 -0.16290411 0.19859657 -0.36124387 0.3029927 0.17653988 0.18943387 -0.310211 0.18879297 0.3697079 -0.29672536 -0.0015323579 -0.3734558 0.21139926 0.088984385 -0.19241224 0.020546978 -0.11047216 0.48265433 0.39184248 -0.2863632 0.46302515 0.06194432 -0.23363349 -0.26324922 -0.2857495 0.18267475 0.07936573 0.10859027 0.21192057 0.3856547 0.09454292 0.013117652 -0.056397103 -0.022009425 -0.074381314 -0.5946806 -0.025975851 0.3437592 0.34919825 -0.06112551 -0.33215585 0.38412365 0.0034143357 -0.36655334 -0.46765718 0.0927276 0.15598083 -0.08406654 0.047700074 -0.12112269 -0.07080292 0.12366739 -0.0131052565 -0.34048653 -0.40744653 0.21885942 -0.0995513 -0.22590506 -0.373146 -0.22858179
37 0.2299144 0.23616639 0.10417291 0.23146883 0.2671738 0.093493834 0.1348827 -0.13068388 -0.19380403 -0.19428079 -0.2230936 -0.485423 -0.036523364 0.34136835 -0.33807078 -0.31499472 -0.3142708 -0.46986452 -0.8502712 -0.43222347 0.28533074 0.62756723 -0.141743 0.375814 -0.02979071 0.0033870495 -0.43534127 -0.3616797 -0.33583277 -0.023337934 -0.58741665 0.16077666 -0.2969714 0.47799486 0.024141617 0.046512835 0.028656185 -0.08208845 0.23007897 -0.29863974 0.07105188 -0.10031777 0.17849807 0.18325107 -0.62508005 0.24596189 0.5891908 0.048714314 -0.15421565 -0.62762856 0.26095125 -0.038380593 0.24346273 0.40346852 0.057279125 0.17513335 -0.08387416 -0.033251457 0.7043146 -0.17868587 0.7936752 -0.31121877 -0.62256074 0.4464283 0.047464196 0.06606962 0.099889226 -0.17858239 0.12387445 0.15971354 0.042382896 -0.016225258 0.20809464 0.105677284 0.04870471 -0.48219812 0.24829379 -0.11032124 -0.28496096 -0.44333857 -0.030867364 -0.32866862 -0.4407894 -0.32828593 0.09366118 0.67113364 0.0330466 0.21857958 -0.0375947 0.08414755 -0.39071372 -0.099177286 -0.10588621 -0.104554914 0.07032506 -0.08607094 0.10109172 0.11225978 0.045606192 0.0060713766 -0.27497572 -0.08728417 0.27001828 -0.037461035 -0.04369425 0.19912408 0.038292438 -0.013052335 -0.30919737 0.13441557 0.41875044 0.066341825 -0.26168022 -0.34726986 0.062394243 0.10841282 0.07428647 0.23278409 0.09656842 0.09642992 0.076406926 0.04560965 0.37519804 0.085971534 0.12851493 -0.16268732 -0.38842377 0.32777482
38 0.061833367 -0.080421105 -0.57932854 0.33249134 -1.0793914 -0.05130528 -0.3381472 -0.029842123 0.5252947 -0.33162352 -0.3300041 0.34119827 0.75590074 -0.0092859985 0.17591383 -0.0065183514 -0.8419537 0.03771412 -0.56471455 -0.30171362 -0.12770212 0.42426372 0.2979995 -1.1416136 0.11704222 0.26930627 -0.6985333 -0.63521326 0.0651477 -0.37798098 0.17010762 -0.20519674 0.25360754 0.2752015 -0.6058904 -0.2683261 -0.21035124 -0.020387648 -0.06754861 -0.65296465 0.8147969 -0.019094974 0.8663778 -0.44934264 -0.6736621 0.4986558 -0.41920587 -0.341379 -0.0062699714 -0.22369528 0.23853084 -0.2971547 0.19907457 -0.4847502 0.6189021 0.03602374 -0.070537135 -0.35595763 -0.13923477 -0.09591543 0.15629798 -0.4733587 -0.6075803 -0.111867025 -0.20782939 -0.2986004 -0.19190848 0.22518216 -0.16290411 0.19859657 -0.36124387 0.3029927 0.17653988 0.18943387 -0.310211 0.18879297 0.3697079 -0.29672536 -0.0015323579 -0.3734558 0.21139926 0.088984385 -0.19241224 0.020546978 -0.11047216 0.48265433 0.39184248 -0.2863632 0.46302515 0.06194432 -0.23363349 -0.26324922 -0.2857495 0.18267475 0.07936573 0.10859027 0.21192057 0.3856547 0.09454292 0.013117652 -0.056397103 -0.022009425 -0.074381314 -0.5946806 -0.025975851 0.3437592 0.34919825 -0.06112551 -0.33215585 0.38412365 0.0034143357 -0.36655334 -0.46765718 0.0927276 0.15598083 -0.08406654 0.047700074 -0.12112269 -0.07080292 0.12366739 -0.0131052565 -0.34048653 -0.40744653 0.21885942 -0.0995513 -0.22590506 -0.373146 -0.22858179
39 0.3663772 0.25752595 -0.025048388 -0.036165018 -0.04183546 1.0379908 -0.2770898 0.37740794 0.9676292 1.0197673 0.4421618 -0.61216587 0.29734635 -0.48481277 -0.21568768 0.17149498 0.53945935 0.33153972 -0.40144673 0.13831851 0.3311961 -0.2285624 -0.092144154 -0.2992584 0.45824417 0.47394696 0.46613038 0.16791695 -0.0024394996 -0.50749254 -0.5792309 -0.3765618 -0.4767833 0.36887306 -0.042493146 0.23751704 -0.007843198 0.25851852 -0.24541683 -0.7260632 -0.21209192 -0.6080171 -0.5004887 -0.6450596 0.70351666 -0.5100149 -0.11885803 0.27726418 -0.20126097 -0.58152366 0.44164374 -0.62459403 -0.7765873 0.31237906 0.45872217 0.9686644 0.2370315 -0.4259203 0.6170379 0.119429946 0.06366406 0.33940756 -0.69207734 0.1786547 0.53643167 0.3705864 -0.2887485 0.27558908 -0.055594895 0.46720427 -0.39431697 0.027138658 0.4338085 1.0454203 0.17736539 -0.16040744 0.5412975 0.48392153 0.04168544 0.16690435 0.3777292 -0.0314458 -0.25801376 0.1511842 -0.021186545 -0.22153834 -0.18904276 -0.024147784 0.21058172 0.1921116 -0.15264878 0.14898762 -0.447814 -0.23895189 -0.11552071 -0.107028656 0.0998152 0.53513855 -0.38596866 0.1993113 -0.13218603 0.050308887 0.17624989 -0.3379194 0.1168133 -0.29220688 0.014019337 -0.16525249 0.35939416 -0.34880456 -0.04896254 0.5070075 -0.07367547 -0.21557204 -0.11052471 -0.3103346 -0.90302557 -0.21506481 -0.16594067 0.5878082 0.49508473 -0.14922771 0.15317301 0.0058584334 0.23321588 -0.22221376 -0.5261167 -0.2059664
40 0.48614505 0.28036013 -0.14133842 0.0795636 -0.18374303 0.72773844 -0.12167998 0.17535783 0.51927197 0.92980736 0.20838614 -0.3309196 0.23252665 -0.55263823 -0.24830277 -0.11211106 0.36445662 0.1443049 -0.22363468 0.42264605 0.19429646 -0.40394193 0.051582087 -0.53849417 0.030169493 0.37414792 0.11539337 0.2880619 -0.029041028 -0.58508444 -0.36012352 -0.4165243 -0.15649159 0.46545425 0.0728081 0.20519592 -0.12077713 0.38147247 -0.0340506 -0.5157663 0.01330799 -0.31457567 -0.49715114 -0.48707238 1.1671474 -0.23033771 -0.173316 0.4290819 0.030158587 -0.4324202 0.5131476 -0.636406 -0.8562506 0.27194285 0.4951154 1.1544371 0.3582358 -0.516593 0.4228438 -0.10431893 0.38400906 -0.07467 -0.7815053 0.22749579 0.53643167 0.3705864 -0.2887485 0.27558908 -0.055594895 0.46720427 -0.39431697 0.027138658 0.4338085 1.0454203 0.17736539 -0.16040744 0.5412975 0.48392153 0.04168544 0.16690435 0.3777292 -0.0314458 -0.25801376 0.1511842 -0.021186545 -0.22153834 -0.18904276 -0.024147784 0.21058172 0.1921116 -0.15264878 0.14898762 -0.447814 -0.23895189 -0.11552071 -0.107028656 0.0998152 0.53513855 -0.38596866 0.1993113 -0.13218603 0.050308887 0.17624989 -0.3379194 0.1168133 -0.29220688 0.014019337 -0.16525249 0.35939416 -0.34880456 -0.04896254 0.5070075 -0.07367547 -0.21557204 -0.11052471 -0.3103346 -0.90302557 -0.21506481 -0.16594067 0.5878082 0.49508473 -0.14922771 0.15317301 0.0058584334 0.23321588 -0.22221376 -0.5261167 -0.2059664
41 0.017634988 0.16858871 -0.073824085 0.25621566 -0.09196782 0.42526484 0.099921435 -0.28323156 0.1519659 0.77582717 -0.4219748 -0.12675305 0.47787902 0.32191542 -0.13426396 -0.423229 0.24171565 -0.22271895 -0.028829731 0.13509381 -0.27990997 -0.30472824 -0.50986326 -0.5427878 0.0943453 0.3934866 -0.23349556 0.26920965 -0.20840363 -0.08157309 0.51111317 -0.54865706 -0.09899958 0.42790103 -0.23532416 0.007575646 -0.2959343 -0.022352653 0.12510674 -0.67954 0.29392236 -0.36553553 -0.079346456 -0.7599147 -0.04610712 -0.29956388 -0.2894614 0.70137227 0.06217934 -0.043467205 0.17375444 -0.05205174 -0.43572932 -0.36257696 -0.10479475 0.67313534 0.5068252 0.055344302 0.3215378 -0.26481652 0.0705523 -0.31660387 -0.275219 -0.41520053 0.12476543 0.27553877 -0.2190248 0.05611852 0.19729468 0.5606811 -0.12883319 -0.0075209006 0.15263842 0.87075496 -0.010010367 -0.04441029 0.40804762 0.28831702 -0.13799435 -0.42972985 0.22474128 -0.060445037 -0.17644663 0.32082194 -0.07157306 -0.3103796 -0.3769826 -0.1927707 0.12828468 0.3287125 -0.4423677 -0.003776168 -0.2091805 0.071463935 0.33396927 -0.3036643 0.05755071 0.20127937 -0.16808167 0.013350689 -0.17550646 0.04256808 0.19802509 -0.31867844 0.0055706133 -0.37914124 0.030191582 -0.39431998 0.110694766 -0.24871163 0.00411976 0.25998276 0.10781469 -0.31376123 0.17754346 -0.09647869 -0.51041234 -0.07770145 -0.10061575 0.34656313 0.50041723 0.15099818 0.21776134 -0.2462618 -0.02394597 -0.13766618 -0.29635116 -0.10773991
42 0.15000153 0.025789602 -0.65904015 0.22433446 -0.5028489 -0.029946506 -0.5315466 -0.5086935 1.1047717 1.1817842 0.69207263 -0.3713607 0.90243953 0.43369958 -0.24927604 0.253779 0.81041527 0.15362586 -0.65241647 0.36720017 0.008090238 -0.12144036 -0.15069585 0.09668439 0.3041977 0.17160362 -0.10165621 0.28879365 -0.44761983 -0.5195263 -0.027719101 -0.48386693 -0.43746608 0.82621616 0.04401496 0.08546662 0.038818903 0.09717682 0.2268966 -0.086267576 0.34265003 -0.077058874 -0.26035225 -0.6917032 0.59342414 -0.55017567 0.11775379 0.6664351 0.19505805 -0.2333434 -0.016575048 -0.11425075 -0.9271394 -0.4347797 -0.21291187 0.25079706 0.25993213 -0.13886303 0.002854307 0.21515833 -0.2930798 -0.29176354 -0.6400527 -0.3687649 0.53643167 0.3705864 -0.2887485 0.27558908 -0.055594895 0.46720427 -0.39431697 0.027138658 0.4338085 1.0454203 0.17736539 -0.16040744 0.5412975 0.48392153 0.04168544 0.16690435 0.3777292 -0.0314458 -0.25801376 0.1511842 -0.021186545 -0.22153834 -0.18904276 -0.024147784 0.21058172 0.1921116 -0.15264878 0.14898762 -0.447814 -0.23895189 -0.11552071 -0.107028656 0.0998152 0.53513855 -0.38596866 0.1993113 -0.13218603 0.050308887 0.17624989 -0.3379194 0.1168133 -0.29220688 0.014019337 -0.16525249 0.35939416 -0.34880456 -0.04896254 0.5070075 -0.07367547 -0.21557204 -0.11052471 -0.3103346 -0.90302557 -0.21506481 -0.16594067 0.5878082 0.49508473 -0.14922771 0.15317301 0.0058584334 0.23321588 -0.22221376 -0.5261167 -0.2059664
43 -0.27847326 0.5036941 -0.8440971 0.32950324 0.005296503 -0.036798116 -0.04844232 -0.11240023 -0.47754005 0.35654643 -0.031347632 -1.0364609 0.23476066 -0.46357387 -0.46971905 -1.1468037 0.58292544 0.055496942 -0.2200638 0.17909028 -0.016766412 0.17312486 0.19998357 -0.4468468 -0.31129473 0.24888125 -0.031290267 0.24290739 -0.108842745 0.09542928 0.32410696 -0.021999931 -0.64182705 0.41683176 -0.12685524 0.3018579 -0.34331703 -0.020605268 -0.12903225 -0.6615026 0.5876584 0.35523626 0.71279 -0.2523348 -0.06486732 -0.074875236 0.051654544 -0.24405475 0.13688256 -0.50022435 0.052682634 0.27107087 0.39615422 0.6481527 -0.10139297 -0.16244122 0.46005714 -0.61133903 -0.091409825 0.14640751 -0.7709566 0.34777862 -0.54795104 0.5579217 -0.20222643 0.4853726 -0.58790857 0.25270548 -0.11928543 0.10119598 0.0060881907 0.12776403 0.055512857 0.62159383 -0.16710196 -0.5685881 0.19347705 0.07026037 -0.1962539 -0.69006824 0.30068785 -0.3241872 -0.054253317 0.13037662 -0.099258065 0.45708087 -0.19996144 -0.42779544 -0.14784159 0.37459007 -0.41865736 0.09320279 -0.19686921 0.049203623 0.51630884 -0.47894517 -0.46716827 0.17086306 -0.20827152 0.21629536 -0.16019824 0.41536385 0.13571356 -0.5623383 0.3530895 0.16243178 0.12211262 -0.38432062 -0.24162677 -0.20234203 0.007338877 -0.42745972 0.23737882 -0.951427 0.14795065 -0.016641624 -0.011294844 0.103598885 -0.08405796 0.119648755 0.37476432 0.19089277 0.08692151 -0.3001167 -0.28771842 0.03599994 -0.49927488 0.5701976
44 0.47314915 -0.33728597 -0.47676542 -0.019915646 -0.61868614 0.4526379 -0.019327478 0.44343382 0.113388665 0.40093237 0.0071910652 -0.32638088 -0.9802403 -0.14983007 -0.51679856 -0.2584755 -0.04677599 0.26258558 0.44045427 -0.65143144 0.27200106 0.22043839 0.02989447 -0.15483238 -0.22656557 0.98925966 -0.5318545 -0.011875209 -0.52363515 0.31672242 -0.30390307 -0.42326275 0.01656852 -0.63036287 -0.43949822 -0.05754452 -0.76790017 0.15674709 0.70934635 -0.38763252 0.0069451923 0.31826597 -0.252126 -0.3219012 0.110840425 -0.30065596 -0.1981564 0.5343009 -0.27334163 -0.29337838 0.27131683 0.42064124 0.005993986 -0.14034978 -0.4053466 -0.3238556 -0.59292024 -0.4384831 -0.13105127 -0.6430342 0.080638126 -0.5955777 -0.3642316 -0.4141232 0.24955589 -0.095461816 -0.45561758 -0.16453503 -0.16108881 0.6232719 -0.37743682 0.31230778 -0.04630104 -0.10926971 0.24075094 -0.22052935 -0.11902955 -0.23312534 -0.21483873 -0.44661868 -0.093167566 -0.055178955 -0.009761809 -0.16123258 0.21145521 0.1947188 0.004354206 0.03486051 0.08722712 0.65506864 -0.23048346 0.2178343 -0.13611604 0.18802579 -0.13157947 -0.465867 0.0068600774 -0.1549931 0.2178667 -0.28053302 -0.3880515 0.18316975 0.073931135 -0.10694973 0.060276203 0.41502646 -0.04997258 -0.2988096 -0.11054148 0.16124924 0.05765743 0.48449713 0.024544217 -0.020278929 -0.16669801 0.3043303 -0.23190817 -0.45888153 -0.32204062 -0.39745274 -0.37888986 -0.063603245 -0.09119897 -0.40033418 -0.13960975 -0.2205934 -0.6868621 -0.24640164
45 0.13899742 -0.19449393 0.15158859 0.0934411 0.179775 -0.15475588 -0.09240556 0.016017422 -0.14750166 0.17215039 -0.059000734 -0.29398748 0.25107396 -0.17663963 -0.031981893 -0.26146066 0.1843734 -0.98353493 -0.11311778 0.21737349 0.10748998 0.729186 0.17879671 0.36206302 -0.5788533 -0.07367779 -0.32705846 0.059135288 -0.3864239 -0.37523285 0.20927304 0.16850553 -0.037285734 0.6573976 0.040276174 -0.062127527 -0.5480685 -0.1371298 0.4456021 -0.6469986 -0.07728222 0.4171707 0.14398225 -0.08159696 -0.7371129 0.666868 0.39321354 -0.049098607 -0.2444259 -0.34660488 0.16928004 0.15362264 0.40141734 -0.08654333 0.08045359 0.5469824 -0.14951636 -0.086026855 0.32242 0.15056753 -0.0030031211 0.22687128 -0.5330336 0.8966005 -0.037323035 0.20232582 0.012860503 -0.20112742 -0.00150411 0.19887266 -0.09707669 -0.22287083 -0.094481386 0.19565213 0.10785135 -0.36305618 0.06239559 -0.014988667 0.059545446 -0.336526 0.029800946 -0.5790967 -0.10511047 -0.10246375 0.032127544 0.5881096 0.38747436 -0.01030558 -0.12523879 0.029933855 -0.38287914 0.05743141 -0.24323912 -0.22650196 -0.04731158 -0.023983596 -0.06535881 0.40179345 -0.058988225 -0.02779156 -0.5580052 -0.00149424 0.2742451 -0.45833692 -0.00107027 0.1880946 0.13751732 -0.013754475 -0.4143003 0.32276303 0.29496777 -0.160477 -0.22910205 -0.523188 0.04367479 -0.023544446 0.22113918 -0.01513239 0.04109442 0.30189654 -0.23970707 -0.05188845 -0.031946853 0.17806613 -0.12877089 -0.05223074 -0.58251315 0.6420843
46 -0.18948035 0.33082387 -0.43258923 0.18359031 -0.7003136 0.6920541 0.75407684 0.28598976 -0.11320835 0.38462603 0.49054748 0.6695833 -0.33431116 0.0966016 -0.502438 -0.45202535 -0.12777676 0.43783173 -0.528882 -0.18816377 0.1701866 -0.045770507 0.8574449 0.13060519 -0.14914452 0.69484943 0.061693065 -0.12644024 -0.79964316 0.03376965 -0.26565588 0.24152555 0.08604196 -0.12301397 -0.21485357 0.16935642 -0.07284887 0.36665162 -0.030923128 0.99523497 -0.15552573 0.4583958 1.0577049 -0.42458332 -0.9977361 -0.13909884 0.21445212 -0.0243151 -0.067937694 0.18860483 0.23373815 0.67853343 -0.2084033 0.2713125 0.7416619 0.49389222 1.1157886 -0.19233213 -0.01928986 0.23163114 0.02850074 -0.56870395 -1.0316747 0.17042659 0.1758241 0.18187134 -0.35764104 0.056925353 -0.7922818 0.41800818 0.8258487 0.290617 -0.017738584 0.4278913 0.67017245 0.08673597 -0.056026585 -0.48757315 -0.37665185 -0.43815035 -0.307505 0.40269884 -0.25067285 0.061059605 0.2011933 -0.10882295 0.74338555 0.06683418 -0.04606109 0.37615177 0.18800884 -0.257248 -0.74189246 -0.14329508 -0.024403637 -0.15798712 0.05621391 -0.20987277 -0.39417586 -0.13622364 -0.1028662 0.4253376 0.17060868 0.72566444 -0.282969 0.19365332 0.84898007 -0.4916101 -1.0496154 -0.2803422 0.09034952 -0.15551564 0.1517103 0.17700465 0.047262773 0.6269221 0.06230916 0.42574328 0.77865803 0.28860077 0.71141547 -0.09916064 -0.34514096 0.47170117 -0.07813832 -0.5539395 -1.10817 0.25271702
47 0.069141544 0.28097242 -0.036423832 -0.27086878 -0.25548106 0.43893752 -0.343359 0.06573361 -0.31730422 0.13721305 -0.06096424 0.21418506 0.56200564 0.19287652 0.2294133 -0.6286283 0.18294527 0.1842944 -0.20385554 0.69488174 -0.017885711 -0.35736963 -0.4962323 0.36480957 0.029383574 0.37739456 -0.5600138 -0.25588503 -0.19081603 0.25178632 0.5438468 0.33868092 0.12563276 0.20751773 -0.6558194 -0.1255991 -0.2681984 -0.28817698 0.68770945 -0.6532814 0.7196975 -0.11025994 -0.18919556 -0.28052175 -0.29144216 -0.701639 0.46559498 0.3526705 -0.387576 0.35963517 -0.08882707 -0.27755338 -0.8868714 -0.22901897 -0.03921028 1.1537666 0.36063176 0.17867818 -0.23467267 -0.36840495 -0.28190622 0.14930755 -0.2200135 0.39263508 0.014268205 0.2040598 0.103191875 -0.47728482 -0.19667083 0.36585265 -0.290585 0.00909058 -0.34045208 0.5503586 -0.16104771 0.16406833 0.43123305 0.34461513 0.15882774 -0.4884748 0.38266554 0.2526675 -0.5546234 0.4241136 -0.03004074 -0.10476527 -0.5213533 0.08222593 0.13204448 0.21630737 -0.5519449 0.004607545 -0.29954055 0.19163604 0.5512605 -0.01809837 0.061785 -0.02709244 -0.24967498 -0.4580649 -0.27185634 -0.037430268 0.33212453 -0.1041038 0.10095819 0.06473782 -0.09421351 -0.26231822 -0.28121424 -0.21007842 0.19986296 0.12610605 -0.05406747 -0.062197 -0.13545306 0.026676396 -0.4228653 -0.12843142 0.26157752 0.68653595 0.3243331 0.0624331 0.10338651 -0.29355696 -0.19735776 0.009235235 -0.13235222 0.4034304
48 -0.14285895 0.16925359 -0.53580815 0.010083302 -0.3033172 -0.022788173 -0.4731639 -0.5216719 1.5987691 1.3063314 0.62128794 -0.3305851 0.8571322 0.77858305 -0.19877188 0.5821104 1.0193609 0.039948788 -0.26237682 0.4520148 0.13233998 0.038225334 -0.2616354 0.5484154 0.37959492 0.035222825 -0.09066986 -0.20738381 -0.25123066 -0.5727727 0.0659602 -0.61034334 -0.39528176 0.7820563 0.19496672 0.016079726 -0.10910485 -0.10045813 0.026916075 -0.03130534 0.3404894 -0.25908262 -0.31194067 -0.84949017 0.39675745 -0.43028858 0.20935173 0.788213 -0.029637136 -0.18141523 -0.0806421 0.07001611 -0.8659568 -0.3704368 0.110751614 0.06452255 0.33429444 -0.4096907 -0.115820296 0.20392592 -0.23355566 -0.6392847 -0.7649173 -0.2874475 0.53643167 0.3705864 -0.2887485 0.27558908 -0.055594895 0.46720427 -0.39431697 0.027138658 0.4338085 1.0454203 0.17736539 -0.16040744 0.5412975 0.48392153 0.04168544 0.16690435 0.3777292 -0.0314458 -0.25801376 0.1511842 -0.021186545 -0.22153834 -0.18904276 -0.024147784 0.21058172 0.1921116 -0.15264878 0.14898762 -0.447814 -0.23895189 -0.11552071 -0.107028656 0.0998152 0.53513855 -0.38596866 0.1993113 -0.13218603 0.050308887 0.17624989 -0.3379194 0.1168133 -0.29220688 0.014019337 -0.16525249 0.35939416 -0.34880456 -0.04896254 0.5070075 -0.07367547 -0.21557204 -0.11052471 -0.3103346 -0.90302557 -0.21506481 -0.16594067 0.5878082 0.49508473 -0.14922771 0.15317301 0.0058584334 0.23321588 -0.22221376 -0.5261167 -0.2059664
49 0.40473697 0.46474 -0.22474264 0.07072452 -0.19009611 0.7319938 -0.084765896 0.16477872 0.5499003 0.83705604 0.3953241 -0.33836934 0.25889432 -0.30820093 -0.3606165 -0.1547164 0.44435272 -0.028892819 -0.12573326 0.24754122 0.26356062 -0.49087974 -0.030131865 -0.42946056 0.2851805 0.3750032 -0.27712443 0.14784558 0.12151117 -0.058290098 -0.20224845 -0.5876263 0.13552497 0.32211334 -0.23597303 0.19718185 -0.2769637 0.1326014 -0.14484435 -0.42872512 0.21543993 -0.74481195 -0.34478584 -0.6115062 0.8605738 -0.45448455 0.20008637 0.5400098 0.11140185 -0.38848892 0.83065236 -0.2256993 -0.4278322 0.4271521 0.15288271 0.7178451 0.3287164 -0.46537682 0.33249885 -0.08019664 -0.06535373 0.32311067 -0.4237413 -0.021576585 0.294729 0.23406337 -0.35376334 0.13505058 0.15854897 0.53402466 -0.047394887 -0.031776123 0.37547305 0.94702184 0.10458954 -0.21057682 0.3408704 0.29406542 -0.2839588 -0.31348798 0.3826986 -0.10356921 -0.079278804 0.19170445 -0.07472338 -0.29017198 -0.2561581 -0.22543259 0.1782751 0.3424582 -0.4379496 0.05137662 -0.1116237 0.18560551 0.22875646 -0.24147807 0.09066666 0.3773761 -0.13690008 0.1413796 -0.03396894 0.004237987 0.16146332 -0.3543981 -0.04056196 -0.45818943 -0.010337269 -0.44573483 0.3449981 -0.23884316 0.08482329 0.363544 0.09553058 -0.22983755 0.23245901 -0.0365781 -0.40696707 0.031288747 -0.12562075 0.39074484 0.5020447 -0.000562495 0.25283295 -0.14492807 0.12752403 -0.06008344 -0.36207643 -0.02655642
50 -0.07132999 -0.06655944 0.17818065 -0.30243483 0.09603324 0.35174915 -0.36200398 -0.30987936 -0.08800442 -0.048632752 0.6433984 0.18356852 0.20834282 0.21864949 -1.3341755 -0.1446576 0.570048 -0.75138986 -0.21620467 -0.5884382 0.20661083 0.1782144 -0.023325251 -0.18099092 -0.011234708 -0.1308249 -0.07532697 -1.0340564 -0.22918683 -0.09159804 0.40677583 0.61702436 -0.05586697 -0.14776073 0.20478104 0.24820459 -0.31018275 -0.006553939 0.12652947 0.6308633 -0.031689323 -0.3466485 -0.24796933 0.31075358 -0.14762035 -0.31355032 -0.5307704 0.2633846 -1.0194982 -0.08188197 -0.73764277 0.30711126 -0.20909704 -0.3269464 0.085514784 -0.27890992 -0.061153166 -0.54817677 0.49487758 -0.7766999 0.5938046 0.2387926 -1.4023964 0.19186196 -0.010189136 -0.12742753 0.2720714 -0.23313826 -0.1884925 0.12371064 -0.22420049 -0.3211412 0.08415643 0.14291468 0.43065277 -0.044881746 0.2798105 -0.067599416 -0.8294743 -0.16771433 0.37829402 -0.2308764 -0.085109666 -0.29798937 0.13715963 0.1964269 -0.07459196 -0.19211863 -0.037035417 0.047369406 -0.2970374 -0.5896551 -0.19130652 0.01234675 0.026445625 0.05499026 -0.21790417 -0.17806503 0.44165626 0.22400619 -0.27500343 0.02390075 0.22995819 0.6023296 -0.10548371 -0.27042863 0.026603242 -0.17457895 -0.20634004 -0.34476793 -0.329302 0.08314671 -0.40532887 -0.08848727 -0.3955383 0.14571974 -0.3275851 -0.20521565 0.10739845 -0.001415693 0.1071675 -0.3190906 0.1452694 -0.7090668 0.43661138 0.31292936 -0.93208426 0.06092616
51 0.5850777 -0.1096475 0.11195097 0.26776996 0.22967938 -0.45641828 0.19923998 0.6765388 0.37615055 0.06271139 -0.2865255 -0.667535 0.09795024 -0.20176291 -0.16721085 -0.3273829 0.104774006 -0.74832696 -0.1255194 -0.23706162 -0.44441012 0.6347152 0.23869148 0.4068889 -0.1400023 0.4316719 -0.72011566 -0.25916034 -0.093400374 -0.23069169 -0.1407153 -0.040235154 -0.02283502 0.52372766 0.00097535405 -0.16168499 -0.63578 -0.35100877 0.31324762 -0.45519513 -0.24065867 0.45713556 0.21618758 -0.23124431 -0.8105814 0.3612489 0.5662764 0.04584733 -0.14874811 -0.12250348 0.18220572 0.123141505 0.26856962 0.37794623 0.027578665 0.03158571 0.12529804 0.36012784 0.63580465 0.24157847 0.2495013 0.0750876 -0.5118623 0.6494255 0.26092446 0.2683406 0.002293438 -0.27821216 0.2721623 -0.044062257 0.16102561 0.32692948 0.2825623 -0.05232778 -0.2530519 -0.65277493 0.08697859 -0.022439424 -0.31718987 -0.5388255 -0.189592 -0.34586775 -0.4693028 -0.2658587 -0.2869268 0.638945 0.17368814 0.2609974 0.059706803 0.3233958 -0.5437343 0.01045137 -0.115282856 -0.26198983 0.05288679 -0.26997384 0.01191434 0.44084316 0.05216876 0.04878174 -0.53247863 -0.05043269 -0.03454991 -0.2935157 -0.04128171 0.16117969 -0.037752353 0.06804503 -0.32122603 0.13074706 0.6322164 -0.06869637 -0.25102696 -0.5919743 0.08104827 0.08756745 0.14179893 0.28248635 0.015522017 -0.055052146 0.033947237 0.2288413 0.2033065 0.23220518 0.003147475 -0.16329786 -0.52920467 0.46953848
52 0.5236333 0.018625086 -0.014884996 -0.67935544 -0.19706754 0.23275508 -0.08076176 0.57315797 0.08281381 0.6580252 -0.04987314 -0.21242735 0.55219865 0.07342805 0.11081866 0.13157243 0.45269802 0.17385305 -0.6148585 -0.12009658 0.14624906 0.17284307 -0.6063482 -0.2973585 0.17650147 -0.009968265 -0.15191269 -0.24538593 -0.65777946 0.20276877 0.1896748 0.01514077 -0.019984258 0.2690174 -0.27746272 -0.07489489 -0.2835697 0.22334172 -0.07926436 0.018948233 0.20365496 0.2131866 -0.37008944 0.23982695 0.4686111 -0.45754185 0.37115747 0.55650216 0.100067504 0.11159761 -0.15205088 -0.0801654 -0.7660467 -0.009734378 0.13828869 0.9566348 -0.037773803 -0.109922804 -0.1963862 0.25901264 0.11977095 0.107416645 -0.10144603 0.6295007 0.36145175 0.14086632 -0.13016482 -0.26446298 -0.2525913 0.23194519 -0.18697718 0.26172784 -0.079234935 0.6235921 0.069917664 0.03017745 0.29225138 0.345532 0.09855265 -0.16036656 0.5361882 0.182935 -0.5369365 -0.07510557 0.09580069 0.17615621 -0.3090219 -0.066869214 0.18401894 0.23219737 -0.40392247 -0.030715326 -0.55568796 0.31902236 0.2524821 0.019590762 0.02457373 0.25948596 -0.1274587 -0.078696884 -0.26129162 -0.019506915 0.036897838 -0.09017482 0.22330837 0.03137526 -0.34718716 -0.0866898 -0.040424984 -0.21414094 0.32416445 0.371725 -0.07982206 0.14752027 -0.24723287 -0.11172392 -0.4869478 -0.15957066 0.31131727 0.5709162 0.17451556 -0.17907818 0.04978745 0.43012312 0.100971855 0.01493682 -0.27698755 0.40322584
53 -0.30631682 -0.36785078 0.17154223 0.17995954 -0.1640198 -0.20107599 -0.16274706 0.50824416 0.52477854 0.7673026 0.020142132 0.23830621 0.00979769 -0.47037697 0.32209784 -0.3326039 -0.0033100096 0.32890403 -0.5762568 0.05910997 -0.06334384 0.7188116 0.40362626 -0.48529902 0.047006838 -0.28154433 -0.20474193 -0.7232268 -0.45452166 0.3061328 0.38242725 0.05104702 -0.21650362 -0.15460284 0.37671402 -0.48594752 -0.54433393 -0.2321314 0.11721209 -0.57644993 -0.17881721 -0.30156675 0.42291856 -0.14635225 0.22122541 0.3024121 0.53915805 -0.15158814 -0.59549016 -0.69537634 0.3076403 0.034111634 0.20519891 -0.3073009 -0.4288751 0.32014817 -0.3917544 -0.47877845 -0.7503645 0.08244999 -0.023481673 -0.2468543 -0.16898908 -0.08166487 -0.20782939 -0.2986004 -0.19190848 0.22518216 -0.16290411 0.19859657 -0.36124387 0.3029927 0.17653988 0.18943387 -0.310211 0.18879297 0.3697079 -0.29672536 -0.0015323579 -0.3734558 0.21139926 0.088984385 -0.19241224 0.020546978 -0.11047216 0.48265433 0.39184248 -0.2863632 0.46302515 0.06194432 -0.23363349 -0.26324922 -0.2857495 0.18267475 0.07936573 0.10859027 0.21192057 0.3856547 0.09454292 0.013117652 -0.056397103 -0.022009425 -0.074381314 -0.5946806 -0.025975851 0.3437592 0.34919825 -0.06112551 -0.33215585 0.38412365 0.0034143357 -0.36655334 -0.46765718 0.0927276 0.15598083 -0.08406654 0.047700074 -0.12112269 -0.07080292 0.12366739 -0.0131052565 -0.34048653 -0.40744653 0.21885942 -0.0995513 -0.22590506 -0.373146 -0.22858179
54 0.50335807 0.25767615 -0.22153306 0.086604714 -0.87383455 0.2546473 0.65016544 -0.08481921 0.27667037 -0.07380011 1.1836798 -0.082480535 0.3444268 0.046216574 -0.89555985 -0.43326446 -0.39727035 0.111703865 -0.27755627 -0.30551904 0.35411197 -0.046387706 0.43049154 0.2528978 0.07901407 -0.21240321 0.30879864 -0.15696004 -0.3287488 0.6110997 0.44433233 0.032241717 0.046361662 -0.54128283 0.12977299 0.1590233 0.0011547661 0.27627787 0.32843718 0.15873593 -0.62703985 0.31482008 1.2606969 -0.2030187 -0.8774872 -0.045616202 -0.23774195 0.75480634 0.41078216 -0.31509173 0.5001258 0.68359464 -0.36056295 -0.31697366 0.8864072 0.30051142 -0.024790203 -0.8613047 0.115846545 0.35431254 -0.55752796 -0.54235 -0.5667333 0.27763638 0.1758241 0.18187134 -0.35764104 0.056925353 -0.7922818 0.41800818 0.8258487 0.290617 -0.017738584 0.4278913 0.67017245 0.08673597 -0.056026585 -0.48757315 -0.37665185 -0.43815035 -0.307505 0.40269884 -0.25067285 0.061059605 0.2011933 -0.10882295 0.74338555 0.06683418 -0.04606109 0.37615177 0.18800884 -0.257248 -0.74189246 -0.14329508 -0.024403637 -0.15798712 0.05621391 -0.20987277 -0.39417586 -0.13622364 -0.1028662 0.4253376 0.17060868 0.72566444 -0.282969 0.19365332 0.84898007 -0.4916101 -1.0496154 -0.2803422 0.09034952 -0.15551564 0.1517103 0.17700465 0.047262773 0.6269221 0.06230916 0.42574328 0.77865803 0.28860077 0.71141547 -0.09916064 -0.34514096 0.47170117 -0.07813832 -0.5539395 -1.10817 0.25271702
55 0.6032388 -0.73460805 -0.2727203 -0.2669338 0.34654835 0.137823 -0.29686493 0.0037753833 0.06817454 0.34136286 -0.40423134 -0.010738095 -0.17796926 -0.5646068 0.15025772 -0.39691868 -0.36857897 -0.085544504 0.24075277 -0.16679399 0.052052874 0.3960062 0.052332032 -0.12616542 0.36783415 0.79098743 -0.31785908 -0.13877596 -0.02405452 0.1702549 -0.0900403 -0.18197134 -0.0017109659 -0.38295868 -0.25763276 -0.02011921 -0.04645398 -0.71039766 0.2921054 -0.5519275 0.22866707 0.57495964 0.3183951 -0.33091104 -0.301751 0.16326319 0.102902405 -0.042173777 -0.05254603 -0.15078408 -0.052221842 0.11066124 -0.50879467 -0.45325255 0.20881198 -0.2673541 -0.36615098 -0.23958361 -0.6789466 -0.2566312 -0.19973747 -0.16090712 -0.8536065 -0.20621186 0.02086325 -0.19703111 -0.32376304 0.030323565 -0.16199645 0.41093424 -0.36934033 0.30765024 0.06511942 0.04008208 -0.03473003 -0.01586819 0.12533918 -0.26492536 -0.108185545 -0.41003725 0.059115846 0.016902715 -0.10108703 -0.0703428 0.050491527 0.33868656 0.19809835 -0.12575135 0.27512613 0.35850647 -0.23205848 -0.02270746 -0.21093278 0.18535027 -0.02610687 -0.17863837 0.109390326 0.1153308 0.1562048 -0.13370769 -0.2222243 0.08058016 -0.0002250895 -0.35081518 0.017150177 0.37939283 0.14961283 -0.17996755 -0.22134866 0.27268645 0.030535882 0.058971897 -0.22155648 0.036224335 -0.00535859 0.11013188 -0.09210405 -0.2900021 -0.19642177 -0.13689268 -0.19599755 -0.20204489 -0.24932276 -0.09073738 -0.11958052 -0.22324923 -0.530004 -0.23749171
56 -0.6130448 0.39577854 0.09385454 -0.3517913 -0.92011523 -0.15803126 -0.20058447 0.266406 0.568931 0.16458827 -0.26249832 -0.38409308 0.48593655 -0.5598314 -0.2632463 -0.45683885 -0.49931806 -0.017974995 0.024701545 -0.10552748 0.34219366 -0.69899106 -1.1248686 -0.49170545 0.016932134 -0.12631465 -0.5956286 -0.8116923 0.1716913 -0.020725915 0.4979969 -0.093935095 -0.26631403 0.9894643 0.23008198 -0.6432554 -0.71754676 -0.64561373 -0.20594935 0.5744951 -0.14071713 0.74182665 0.9719701 -0.8629168 0.11904905 -0.4805754 -0.09450676 0.05705112 -0.14820495 -0.47018966 -0.039160114 -0.4017652 0.0986643 0.009623889 0.52608305 -0.781009 -0.46586183 -0.9619991 0.682185 0.4367004 0.31887695 -0.4166361 -0.51240337 0.13820383 -0.5371136 0.6007495 0.34422183 -0.40671661 -0.80242544 0.36785823 -0.21146783 0.3315122 0.9238046 0.2395308 -0.07464966 -0.23441444 0.2441672 -0.58209175 0.08117524 -0.38955858 -0.7416862 -0.17857483 -0.304609 0.04324054 0.09270117 -0.39275718 -0.7456908 -0.22316858 -0.05099183 -0.1779107 -0.49261665 -0.5025244 0.38986108 -0.03559754 0.5105844 -0.04859813 -0.30639318 0.8710057 -0.112175435 -0.33983034 -0.55509627 -0.49068984 -0.26535946 0.29145882 -0.17378066 0.6398764 0.80305135 -0.6870578 -0.22603236 -0.59472114 -0.34272575 0.24559496 0.06753949 -0.0099959895 -0.11228561 -0.06861575 0.13511817 -0.043962903 0.42066157 -0.43420374 -0.5526385 -0.5750488 0.5578474 -0.06375858 0.16902012 -0.26100484 -0.44093743 -0.113461055
57 0.66036457 0.43581852 -0.36063382 0.39246875 -0.39401954 0.39138663 -0.9295154 0.33907232 0.21594296 -0.54083264 0.044276983 -0.133711 0.36258945 0.06190933 0.19363382 -0.581115 0.07794592 0.28855333 0.42178842 -0.1790489 0.55199534 0.004517932 -0.1460284 -0.4836985 0.05310178 0.9258063 -0.106069736 0.26092532 -0.0152558535 -0.032098066 0.06281533 -0.5562757 0.36903688 -0.08254433 0.68883395 -0.25272143 -0.33819172 0.5538024 0.6039068 -0.14669211 -0.0883775 0.76787096 -0.09969749 -0.27208403 -0.19266614 1.023471 0.6861048 0.2542909 -0.23728445 0.023011032 0.29110026 -0.0133686 -0.061286528 -0.73671013 0.021387063 -0.20976387 -0.041009035 -0.34437415 -0.24061176 -0.31651413 0.38711175 -0.43919915 -0.702613 0.15709189 0.24955589 -0.095461816 -0.45561758 -0.16453503 -0.16108881 0.6232719 -0.37743682 0.31230778 -0.04630104 -0.10926971 0.24075094 -0.22052935 -0.11902955 -0.23312534 -0.21483873 -0.44661868 -0.093167566 -0.055178955 -0.009761809 -0.16123258 0.21145521 0.1947188 0.004354206 0.03486051 0.08722712 0.65506864 -0.23048346 0.2178343 -0.13611604 0.18802579 -0.13157947 -0.465867 0.0068600774 -0.1549931 0.2178667 -0.28053302 -0.3880515 0.18316975 0.073931135 -0.10694973 0.060276203 0.41502646 -0.04997258 -0.2988096 -0.11054148 0.16124924 0.05765743 0.48449713 0.024544217 -0.020278929 -0.16669801 0.3043303 -0.23190817 -0.45888153 -0.32204062 -0.39745274 -0.37888986 -0.063603245 -0.09119897 -0.40033418 -0.13960975 -0.2205934 -0.6868621 -0.24640164
58 0.22655754 -0.4506648 -0.31957322 0.33038735 -0.15896243 0.5815245 -0.41929293 0.31485978 0.19281003 -0.036892332 0.1564413 0.20261714 0.074729495 -0.3969852 -0.13839415 -0.6439379 0.15482496 0.16940482 -0.13810858 0.17524281 0.00237365 0.18454754 -0.34445983 0.11088276 -0.39864188 1.2157555 -0.029677074 0.29154044 0.10557164 0.27825496 -0.39297363 -0.5029449 -0.069761455 0.12723735 0.39379564 -0.32462344 -0.36471725 0.2830799 0.27934545 0.17028208 -0.15211965 0.19112052 -0.22727571 -0.08880487 0.24461278 -0.17957759 -0.025093844 0.34597597 -0.027210869 -0.16391979 0.21144316 0.26691285 -0.35009977 -0.683578 -0.093313135 -0.22505388 -0.7573521 0.5768353 0.01069288 -0.18505384 0.17948228 -0.2991623 -1.2137642 0.2904612 0.24955589 -0.095461816 -0.45561758 -0.16453503 -0.16108881 0.6232719 -0.37743682 0.31230778 -0.04630104 -0.10926971 0.24075094 -0.22052935 -0.11902955 -0.23312534 -0.21483873 -0.44661868 -0.093167566 -0.055178955 -0.009761809 -0.16123258 0.21145521 0.1947188 0.004354206 0.03486051 0.08722712 0.65506864 -0.23048346 0.2178343 -0.13611604 0.18802579 -0.13157947 -0.465867 0.0068600774 -0.1549931 0.2178667 -0.28053302 -0.3880515 0.18316975 0.073931135 -0.10694973 0.060276203 0.41502646 -0.04997258 -0.2988096 -0.11054148 0.16124924 0.05765743 0.48449713 0.024544217 -0.020278929 -0.16669801 0.3043303 -0.23190817 -0.45888153 -0.32204062 -0.39745274 -0.37888986 -0.063603245 -0.09119897 -0.40033418 -0.13960975 -0.2205934 -0.6868621 -0.24640164
59 -0.21216652 -0.39124987 0.6966231 -0.09291384 0.59691536 0.5407184 -0.012808524 0.2580721 0.7715183 0.14488481 0.30191183 0.2222967 -0.740025 -0.28398162 -0.22757256 -0.32191938 0.786781 0.27762938 -0.21495126 -0.02114787 0.029236486 0.25274357 -0.10217392 -0.27381095 0.06300074 0.023173533 -0.6244884 0.21951343 -0.5494765 -0.14151917 0.13925445 -0.09917318 -0.13926417 0.08087589 -0.5289985 0.41799214 -0.79866093 -0.1755849 0.14234442 0.1951591 -0.54563886 0.4320528 0.061717816 -0.14771 -0.060746036 -0.38746864 0.34944603 0.41448945 0.032477356 -0.18865637 -0.21838321 -1.0785813 0.16973853 0.1680029 0.3642165 0.54123104 0.17359126 -0.380073 0.37288687 -0.61229384 0.06954259 -0.4188453 -0.14864878 -0.2418494 0.03110837 -0.28791332 0.4625232 -0.0583515 0.001787765 0.33396652 -0.020521514 0.3622191 0.3851514 0.28725958 0.23445 0.13671474 -0.0017728421 -0.20368594 -0.32175237 -0.30005565 0.45046642 0.22556996 -0.22896247 -0.32852045 0.39872664 -0.010641975 -0.22510184 -0.00958468 0.2566968 -0.20640378 -0.33722478 0.3423393 0.105615705 0.033432607 0.2302276 -0.10122823 -0.37869796 0.13541032 -0.23613037 0.25391096 -0.4676672 -0.030932585 0.017912451 -0.09979193 -0.3141909 0.117495686 0.23418319 -0.1203737 -0.22195294 -0.00303288 0.13156858 0.19546549 -0.034242567 -0.30477607 -0.15798894 -0.4711709 -0.02866112 0.051666755 0.010520475 0.3671604 -0.16951597 -0.24041727 0.20595685 -0.1834492 0.081098445 -0.1982509 -0.31792584 0.062389493
60 -0.35973462 0.45960918 0.01135629 0.3552469 0.24936432 0.07299983 -0.54293805 0.2704424 0.2573076 -0.10604623 0.06183969 -1.0847355 0.17623489 0.41691276 -0.36541507 -0.6611547 0.083055474 0.020988429 -0.13454469 -0.2910373 -0.08463776 0.4195147 0.39983 0.18094258 -0.43427017 0.15678899 -0.29094267 0.18160398 -0.8055879 -0.6374455 -0.23115769 0.14784695 -0.30126292 0.4015711 -0.17550161 0.36118934 -0.90343624 -0.11103163 -0.2139546 -0.8025681 -0.064645045 0.44136202 -0.095807195 0.1263291 -0.93691254 0.15728481 0.5383132 -0.1701457 0.52869153 -1.3462067 -0.08684101 0.0450031 0.21128167 0.22351335 0.6643663 0.1989834 -0.3466336 0.12508664 0.046110645 -0.19916776 -0.07934625 0.12241205 -0.5424954 0.7925362 -0.18554632 0.43628976 -0.08538042 -0.08827677 0.13487224 0.24350375 0.014247992 0.24179025 0.108482495 0.050183117 -0.3670025 -0.8812594 0.062423427 0.058003716 -0.46004775 -0.49723738 -0.08133678 -0.5239085 0.059546567 -0.23127829 -0.22187021 0.7524752 0.53937685 0.009514551 -0.25501046 0.43319505 -0.44713622 0.01932859 -0.23824029 -0.7252679 -0.107394814 -0.23693068 -0.0790013 0.40338647 0.019670723 0.07939534 -0.21696302 -0.23803069 -0.16252834 -0.5319749 0.2636709 0.49204922 -0.19958487 -0.08082531 -0.7257611 0.06989466 0.49708584 -0.30704063 0.059521973 -1.1484791 0.2294735 0.14898944 0.15278685 0.18679763 0.114980765 0.098608114 -0.20949773 0.14887074 0.070697084 0.10057138 -0.13170612 -0.012570853 -0.6118247 0.6359566
61 -0.25524533 0.7252555 0.066957384 -0.10096313 0.20574634 -0.19138564 -0.4089713 0.16819865 0.21981746 0.9829248 0.020923108 0.28302947 0.34966916 -0.047722317 -0.05340571 -0.60946035 -0.09585538 0.104612514 -0.5604362 0.19114274 -0.3104955 -0.12111066 -1.0756042 -0.20096187 -0.22899508 0.42844245 0.46459144 -0.2828995 -0.26152068 0.4684402 0.79059976 -0.8667975 -0.5253349 0.33022025 -0.4064321 0.8395523 -0.095339954 0.9593896 0.3015878 -0.07849133 0.23796543 0.3074334 0.41821826 -0.21691006 -0.68641603 -0.103388995 -0.021815384 -0.4605993 -0.28503156 -0.64063114 -0.06059151 -0.0116186235 -0.6484012 -0.4289848 -0.06721403 0.2215171 0.2037823 0.5911105 0.35063198 -1.0099843 -0.7148963 -0.30091745 -0.12545013 0.53171796 -0.12634227 0.5108314 -0.3884611 0.31448823 0.07979679 0.21154112 -0.3097567 -0.031486794 -0.20571701 0.86015546 -0.01244203 -0.08072457 0.39133477 0.21522388 0.0684894 -0.74395984 0.18730584 0.07148718 -0.22048135 0.2950148 -0.16553062 -0.03180663 -0.6431145 -0.48660475 -0.07277652 0.19940418 -0.2504197 -0.16089621 -0.32078478 0.23457074 0.5807921 -0.68850374 -0.4257997 0.00276086 -0.3537972 0.030079115 -0.28916657 0.49021006 0.28394294 -0.23995535 0.2711182 -0.0604244 0.21342081 -0.30622867 -0.30917433 -0.23583703 -0.19332728 -0.2663113 0.006771412 -0.6188322 0.16813616 -0.12064542 -0.46048817 -0.14794365 -0.08274224 0.34036615 0.4891732 0.4315181 0.1457785 -0.5527931 -0.2681673 -0.25127238 -0.23187818 0.017799815
62 0.019667238 -0.121221654 0.5347584 -0.2135469 -0.04571463 0.3199258 0.052219413 0.07694988 0.063335575 0.14602064 0.54970556 -0.20161267 0.45040956 -0.044057608 -0.8956102 -0.3576617 0.13874885 -0.0042008674 -0.24268527 -0.31326458 0.62494916 -0.19802038 0.3238171 -0.52521557 -0.018718595 -0.11059597 -0.31213894 -0.43924224 0.056635864 0.0018688568 -0.04387079 0.02496207 -0.5542245 -0.5199574 0.007928776 -0.13055827 -0.11405151 -0.2530456 1.0045637 0.36514157 -0.25293192 -0.37869826 -0.07535694 0.1652509 -0.6335368 -0.22458412 -0.39739367 0.38867417 -0.2602338 -0.92424357 -0.525929 -0.8082606 -0.34406725 0.1541167 -0.26545334 -0.14319189 -0.026689982 -0.12890774 0.4721556 -0.54473954 0.15976553 -0.60560143 -0.14713086 0.264191 -0.036883622 0.07211619 0.17550358 -0.011217771 -0.103416905 0.20391186 0.0022053476 -0.6618835 0.2202186 -0.1365615 0.51068306 -0.107520916 0.27463317 -0.038925905 -0.47255927 -0.36682868 0.15556857 -0.14114231 -0.22436099 -0.25518975 0.20718347 0.6456793 -0.0945738 -0.17813022 0.060323127 -0.17262699 -0.23016773 -0.4062293 -0.24368371 -0.21045117 0.3032684 0.34872532 0.10533037 -0.48682103 0.049777534 0.27127376 -0.12048585 -0.14264816 0.42554364 0.3918721 -0.48642558 -0.022226332 0.17575578 -0.4168693 -0.38916543 -0.10508066 -0.2379653 0.5114348 -0.31183818 -0.25720912 0.16476667 0.025720464 -0.52318794 0.14944334 0.14842314 -0.044623666 -0.2951088 -0.3263415 0.499668 -0.21023391 0.018348055 0.014484559 -0.6065385 0.09978201
63 0.2971418 -0.5777871 0.76259935 0.2957582 -0.16101883 -0.1621341 -1.022357 0.92481315 0.8444659 0.7257063 0.2256293 -0.15564717 -0.41025013 -0.7176184 -0.4210145 -0.76434064 0.26447713 0.51401144 -0.1280287 -0.094058044 -0.13658579 -0.027812587 0.5119885 -0.35236245 -0.10255893 -0.3796989 -0.42959523 -0.1817304 -0.58744556 -0.037607983 0.92757714 0.1705916 -0.13050443 -0.49250257 0.21578446 -0.18277225 -0.3526535 -0.04138644 0.033977304 -0.7375902 -0.8200542 0.6072739 0.15599073 0.020296013 0.15270148 0.0738793 -0.20021994 0.2195525 0.05420632 -0.92512363 0.09910751 -0.48331252 0.2999404 0.06128039 -0.33221355 0.6231751 0.03351664 0.03431957 -0.43619674 0.079735525 0.32709923 -0.2857238 -0.07716843 0.50988543 0.25738296 -0.5565411 0.4841197 0.31294155 0.13347663 0.48590523 -0.23471873 0.39952016 0.73579216 0.13980027 0.49574652 0.12840323 -0.0093778 -0.37137797 -0.692831 -0.35949448 0.45384464 0.3746214 -0.18769982 -0.36226934 0.28758386 -0.28434652 -0.14271067 -0.34376204 0.21250626 -0.1186484 -0.15647079 0.36875492 -0.11981839 -0.06633132 0.6156686 0.09688879 -0.44733486 -0.028775431 0.20147727 0.098591216 -0.7009249 0.013990461 -0.0010290827 -0.58977616 -0.4272766 0.12846187 0.15732545 -0.09799328 0.06458365 -0.1775458 0.2787955 0.2918681 0.10051559 -0.48554322 -0.34408876 -0.74138147 -0.39889616 0.21569987 0.14470789 0.6735967 -0.24892409 -0.07244015 0.06083452 -0.21465404 0.3359545 -0.23540586 -0.26863426 0.08213592
64 -0.07774546 0.8023942 0.13750695 -0.17457251 0.19979022 -0.42089778 -0.19035013 0.3432788 0.21706009 0.8599683 0.21815312 0.33533654 0.0021736424 -0.11889494 -0.07454292 -0.06851422 0.14185145 -0.06723093 -0.63352597 0.032221712 0.10451776 0.14464681 -1.1348352 -0.10281652 -0.341394 0.37744558 0.16478011 -0.09359089 -0.057492226 0.48720515 0.47979409 -0.8517764 -0.41281292 0.21653335 -0.6798146 0.7553483 -0.30571496 0.68600667 0.13304675 0.34737924 0.19686146 0.6585955 0.66282344 -0.44348088 -0.6947638 -0.012477436 0.0005897649 -0.48456973 -0.46118835 -0.6500816 -0.07918238 -0.08255763 -0.14808552 -0.15285914 -0.1605259 0.21245624 0.36939782 0.19155297 0.42472142 -0.98583484 -0.7126665 -0.10772139 0.033696476 0.39884058 -0.19516622 -0.019285558 0.4409267 -0.42964455 -0.1299011 0.1820278 0.1936757 0.32491803 0.034510583 0.4347189 -0.026846528 0.14502624 0.0058321157 -0.035993896 0.04932629 -0.24061681 0.4470882 0.07651852 -0.2702251 -0.29477155 0.5098694 0.26306257 -0.30749303 0.32459268 0.30088735 -0.29415914 -0.5179788 0.3159237 0.3310498 0.13319653 -0.15521339 -0.29934525 -0.31006104 0.29959607 -0.673738 0.40923068 -0.23440951 -0.07585563 0.036853984 0.3901923 -0.2011052 0.106529504 0.31104094 -0.14275412 -0.50848955 0.17148004 -0.015658328 0.09906287 -0.16900072 -0.12400893 0.028110879 -0.20096035 0.34157392 -0.11236636 -0.12366694 0.06072411 -0.09010785 -0.4083944 0.35107917 -0.15224436 -0.17375761 -0.16109595 -0.36721745 0.042643066
65 -0.37289128 0.4048673 0.5299845 0.06937961 0.10815705 0.28821608 0.06745381 0.34359664 -0.46610603 0.948111 0.08159815 0.08167825 0.51924795 0.018752888 0.26860178 -0.25900003 0.6365663 0.32283393 0.17645697 0.68555874 0.32064456 -0.30690894 -0.6932977 0.38045046 0.5305989 0.5316635 -0.087203935 -0.39158228 0.43028775 0.0038872398 0.5858785 -0.6116122 0.2925479 0.027517758 -0.20321651 0.03737259 -0.70585483 -0.011016207 0.65239567 -0.575985 0.0066470597 -0.15860331 0.16397402 0.016127363 -0.74193764 -0.39561388 -0.2762877 0.3214101 0.26015073 -0.14096126 0.22777805 -0.76662594 0.14504191 -0.35181165 -0.0564262 -0.232797 0.5730454 0.566496 0.13940299 -0.107718095 -0.38854563 -0.5243704 -0.4162798 -0.3711047 -0.21516171 0.35848957 0.050452296 -0.10174559 0.27478614 0.61399394 -0.29170978 0.04098954 -0.29303086 0.7182212 -0.23921017 0.28792277 0.54240197 0.2768202 0.15393451 -0.66221356 -0.09117334 0.025803309 -0.3707823 0.5790569 -0.065272406 -0.35079482 -0.6186316 -0.12744695 0.028303836 0.30122107 -0.45120394 -0.11408174 -0.4042941 -0.15681921 0.5443949 -0.42803678 -0.008681196 -0.15091413 -0.23044486 -0.24270713 -0.4585815 0.119228266 0.27114862 -0.24723913 0.09783576 -0.22104482 0.11124928 -0.2914903 -0.35791188 -0.26844856 -0.1572873 0.05286036 0.13238293 -0.4816086 0.067712374 -0.21627988 -0.7173029 -0.29568183 -0.050605733 0.25819972 0.49716234 0.4541195 0.1476181 -0.4489293 -0.32688597 -0.29283166 -0.16490066 -0.2701069
66 0.7497032 -0.17262603 -0.43758816 0.14913413 -1.0564678 0.71930856 -0.4044256 0.5841286 0.3175342 0.11579172 -0.88378423 0.165953 0.7992727 -0.50290513 0.2513291 -0.7488964 0.24654536 -0.30079046 -0.5513929 0.38519713 0.014250293 0.27179384 -0.3634325 -0.4478946 -0.09865182 -0.20467803 -0.08506007 -0.40654573 -0.5406198 0.69725174 -0.64940196 0.62625736 -0.27038026 -0.13439769 -0.38843966 0.7280249 -0.5869261 -0.61562747 -0.04109393 -0.26663888 -0.61883676 -0.26317137 -0.6787022 -0.34438458 -0.48061806 0.49244595 0.41516182 -1.0212758 0.58610547 -0.11774381 -0.1551676 0.65533066 0.008862663 -0.5804166 -0.19476542 0.32741094 0.07928406 -0.41602868 0.52522475 0.78481925 -0.5530551 -0.503998 -0.60283375 0.0073682703 0.9261537 -0.37252676 -0.07213711 -0.001422945 -0.62434053 0.5326715 -0.36164007 0.7212547 0.19337095 0.31617415 -0.5806657 -0.13881193 0.60638934 -0.2616645 -0.13375235 -0.31917474 0.25196338 -0.41345024 -0.3202267 -0.07058516 0.312037 0.4412834 -0.25341183 -0.78315824 -0.4612742 -0.162503 -0.37998992 -0.48335493 -0.7047653 0.6992868 -0.078231215 0.382816 -0.08838838 0.10373759 -0.32364914 0.41512978 -1.0650524 -0.7918125 0.062118653 0.22023302 -0.3756597 -0.025864761 -1.0892229 -0.086948015 -0.14435877 0.12913178 0.697847 -0.37744227 0.102765106 -0.1707759 -0.22542737 0.5962807 0.060045335 -0.3072777 0.035660446 -0.0530287 0.58235115 -0.09949729 0.40658054 0.838146 -0.43038204 -0.34812185 -0.57604307 0.1833833
67 0.56126136 -0.006838742 -0.44936836 0.08747645 -0.60685563 0.61455774 -0.5663529 0.5000609 0.23186469 0.16737983 -0.63709825 0.0929973 0.7531995 -0.4478731 0.5251696 -0.66464347 0.44815758 -0.346 -0.4991844 0.20127751 0.21119362 0.69096637 -0.20262164 -0.47090995 0.26566398 0.03877256 0.10139706 -0.60391957 -0.37187135 0.56379896 -0.26964492 0.47603735 -0.1464601 0.22726345 -0.34372452 0.41926098 -0.07301501 -0.5009659 -0.26887104 -0.4151466 -0.66890925 -0.20394534 -0.19005735 -0.21365117 -0.27935278 0.26014808 -0.014973617 -0.5969154 0.6678275 -0.12069314 -0.028016804 0.48445398 0.06988713 -0.27150074 -0.13630381 0.2880066 0.25686297 -0.83790284 -0.027629958 0.66351223 -0.69371915 -0.6080798 -0.2673039 -0.18863417 0.34070927 -0.33799264 -0.12270343 -0.00313622 -0.33821052 0.32480904 -0.5142252 0.6059704 0.13879699 0.23821078 -0.47795793 0.13779832 0.5319922 -0.14651081 0.08097608 -0.32819563 0.32262042 -0.2089575 -0.122247 0.09255444 0.18283547 0.64196956 0.30596715 -0.53463614 0.036656626 -0.045105167 -0.23925683 -0.41695103 -0.39717323 0.49769217 0.025540091 0.285139 -0.12395381 0.35857654 -0.013876045 0.34014916 -0.35960266 -0.32417357 -0.1345827 -0.10892308 -0.20099488 0.112743415 -0.31945422 -0.1421977 -0.18397768 0.13925152 0.38421857 -0.27950254 -0.09077458 -0.062276445 0.008426475 0.15011781 0.038383197 -0.1197364 -0.009644363 0.18922049 0.32326147 -0.37049523 0.08775239 0.41663992 -0.28346765 -0.39596304 -0.43488938 -0.10257151
