2708 64
1937 -0.37703705 1.2088903 1.2280468 -1.5964003 0.63115704 -0.031387903 1.8421066 -1.7533073 0.045595076 -0.2921501 0.533211 -1.0564932 0.30016938 -1.205131 0.49231482 3.0153992 1.703255 -0.91442144 0.14102228 -1.7953523 1.222094 -0.4304014 -0.44546258 -1.4088495 0.36020914 1.701265 -1.6105212 -1.1109179 -1.5850683 -0.36579347 -0.34928337 -0.517295 -0.24256107 1.0722914 -0.21425456 -0.5140994 -0.103941 0.5046178 0.05944706 -0.15848313 -1.1436129 1.5137635 -3.6072726 -0.46637157 3.690037 0.02669711 -0.044441704 1.3863848 1.517607 -1.3784744 1.5761799 -0.12048936 0.012456694 -2.0409904 -0.72582597 -0.50406075 1.5820123 0.96657395 0.47271547 2.3665583 -0.016231157 -1.5507026 1.8389992 0.8428532
1064 -0.91356516 1.3710383 2.390032 -0.2569224 1.4995828 0.4940236 2.0725906 -0.6414956 0.80268496 0.51676315 0.92831856 -1.6269456 0.46737915 -0.7024322 -0.8573501 2.581774 2.2548265 -0.905011 -0.32798812 -1.568732 1.4327849 -0.5491308 0.20808098 -1.6333528 0.81656325 1.882098 -1.1825829 -1.144504 -1.2375455 -0.29069358 -0.47816756 -0.4575786 -0.44052532 1.2404841 -1.0422517 -0.41052258 -0.5513879 1.4128748 1.0594479 -0.37764016 -0.3670935 0.86006975 -3.3001678 -0.6127641 3.110175 -0.21485066 0.45367572 1.2032129 2.4412796 -1.3403258 2.329267 -0.83833826 0.188795 -0.68543494 -0.8991251 -0.58739245 2.25709 0.7366673 0.8254968 2.0300255 -0.5119973 -2.393059 1.6070994 1.1732777
1701 0.60764617 0.25003242 0.3447201 2.2139156 -0.12566972 -0.065422095 1.0912551 -0.6737989 0.017921805 0.19724849 2.1406007 -0.25103652 2.288047 -0.73708 -0.47332856 1.6081498 1.6320732 -1.1454277 0.02546685 -1.4836174 -1.2772928 0.3261968 -0.8775758 -2.032913 -0.36212385 -0.3907393 0.14004561 2.1755075 1.1065749 -1.5616173 -0.1542281 -1.1398563 -2.2214096 0.8366605 -0.61477375 0.791269 -1.7417811 -1.0890894 -0.90285075 1.1311913 0.20197034 -0.81597704 -0.13461246 2.6621644 1.7178628 -1.4717273 0.105598316 2.475081 1.9807199 -1.2548343 2.177747 0.323471 0.3001302 -4.0683436 -1.2177727 -0.6135612 1.4905106 -0.7117991 -0.14804058 3.8650837 2.6347044 0.19040982 -0.27757984 -0.100180686
2053 1.6311419 0.93253595 0.89564824 2.2511728 -0.12314842 0.21794508 -0.7531436 0.96708983 3.342816 -0.3932076 -1.6337517 -1.6599804 0.2713546 -0.9371427 -2.030912 -0.27030858 2.7465594 0.014774118 -3.3234704 -1.0592655 -0.33331612 -0.7388132 0.12301652 -0.053694163 0.17929272 0.27867216 0.34588805 0.6550219 1.0910292 1.0616571 -0.64753187 -0.28374732 -0.02518107 0.7326867 0.5655436 0.1848745 0.18688598 1.8567189 0.45503488 -1.5431074 0.7824717 0.9643722 -1.2080817 0.7679519 0.44176674 1.3760576 1.8193015 1.1452622 1.5724646 0.15728556 0.8341794 -0.9217785 -0.14023885 -2.0873609 -1.0501238 0.9018383 1.4738176 -2.3243728 -0.3317377 0.22513708 1.9665498 0.1298416 2.20355 -0.3049446
1921 1.2351078 0.9378801 -1.1433758 -0.18880248 -1.2572162 0.8252138 -1.320232 -1.5639219 2.8049629 -0.47018993 0.37491256 0.07337418 1.770032 -2.6726353 1.6419196 -0.05140423 -0.81794393 -2.4706128 -2.9153855 1.2831326 -1.835247 0.5162679 -1.7534542 -0.036767248 -1.5576148 1.5693666 -0.3162956 0.17576014 0.8740922 2.5755768 0.5596623 -0.7385414 -1.6096429 1.4990954 -0.34657416 -0.48862216 0.21993655 1.3820294 0.35399714 -1.6284204 0.23848002 -0.7409471 -1.531268 -1.1190622 2.264654 -0.73303 0.5683079 1.5800471 2.692723 -0.82883805 -2.4492915 2.383372 -0.3456014 -2.8640063 -0.07063189 -0.460797 -0.8065575 1.793593 -1.14914 2.236089 -0.030606857 2.262016 1.6513704 -1.9382557
2685 1.6061436 0.8336338 1.0472962 2.8403418 -0.32155022 0.09044127 -0.69993967 1.3086879 3.1891236 -0.35147202 -1.6617297 -2.306383 -0.033226673 -1.4163605 -2.2228367 -0.5554471 2.6475954 0.012678698 -2.8114126 -0.6833562 -1.4114705 -1.464485 -0.17371489 -0.19985314 -0.110975124 -0.09602162 -0.05070946 1.355897 1.250164 1.0019662 -0.24541505 -1.1046399 -0.040088575 1.0999088 0.27553186 0.64544094 0.19955689 2.1708822 0.61509097 -1.6585591 1.0658768 1.2896999 -0.8895558 0.85928965 0.3866262 1.0561464 1.6654692 1.1148609 0.98543656 -0.2172652 0.9503335 -0.7233113 -0.4447823 -1.9563595 -1.1309644 0.43658274 1.7856762 -2.221781 0.078127176 -0.2153513 1.68675 0.648997 2.4601579 -0.4236043
2402 1.7007465 1.005914 -1.0825477 -0.37841251 -1.8881083 0.88075733 -0.736865 -1.8301541 2.507738 -0.1525128 -0.24847339 -0.06490934 1.4909247 -3.1741717 2.0546076 -0.11898555 -0.89085007 -2.116708 -2.9090035 -0.060898326 -1.6987358 0.3192394 -2.190961 0.50940216 -1.1049145 1.5810066 -0.43979064 0.3467524 0.42944422 1.5216593 0.51433593 -0.78722066 -1.1002893 1.4144471 -0.43758318 -0.056099314 -0.118753955 1.3137076 0.14844878 -0.79336715 -0.29193202 1.0086591 -1.630382 -0.9737201 2.930383 -1.1024625 0.475179 1.7760881 1.2567978 -0.39873797 -2.6313312 2.8912308 -1.034806 -2.5822573 0.33417594 -0.5970465 -1.6186174 1.4654496 -0.645357 1.9502592 -0.37856552 2.2951453 2.387691 -2.4156346
1814 0.33230639 -0.6295878 -0.33122328 0.29429778 1.2917694 0.81223685 -0.33543763 -0.47319335 2.3205028 -1.0994904 -0.9218796 -1.2861463 0.1635592 -1.391294 0.31949636 0.7032796 -0.0365771 -1.5682538 -0.3371454 -0.09623058 -1.5415789 -0.30768183 -0.11669699 -1.6019838 -1.7965258 -1.1113724 -0.42059886 0.8401355 0.67238265 0.87677634 0.76548266 -1.0822649 -0.24589802 0.5312004 2.3224647 2.2726762 0.3192468 1.7797824 -1.7030861 -2.0670195 1.1754686 -1.1948546 -3.7045934 -1.4423865 3.4592028 -1.0309731 -1.2075943 0.28932443 2.73763 -1.8752598 1.1778299 -0.92789793 0.13776594 -0.09781718 -0.9907206 -1.5834943 0.7056733 -0.18841875 0.09228148 0.41108432 1.6273775 0.7984376 1.1095128 0.061554193
834 0.9207987 -1.3695031 -0.96140033 0.083945915 0.61684084 0.5164395 -0.5828512 -0.82172626 2.014655 -1.3940942 -0.6084211 -1.1450714 -0.6946451 -1.7962439 0.077715755 0.72477686 -0.006855135 -1.3120219 -1.3915894 0.34510818 -0.6020492 -0.9623298 -0.14526303 -1.1297855 -1.2001686 -1.5200238 -0.5137666 1.3002545 1.8114185 1.430072 1.9369863 -2.0514948 0.74063504 1.4324172 2.4628751 2.6416256 0.5273828 1.3963479 -0.7838484 -2.5153196 1.2859058 -0.90652955 -3.4050212 -0.69191813 2.5357137 -0.021906499 -1.1300944 -0.049141064 1.9188181 -1.42741 0.86669266 -0.51796734 0.26031768 -0.6038782 -0.94338894 -0.7870383 0.0040579494 -0.75019646 0.12167476 0.1633756 2.0118368 0.3618698 0.6343652 -0.7663968
2203 0.2980934 -0.91212416 -0.5037922 0.28418738 1.4258624 0.92784923 -0.15174875 1.2381896 2.7183135 -0.27374005 -0.75813085 -0.74096507 -0.7476586 -0.6670801 0.5243616 0.6084853 1.3943217 -0.7418139 -2.6137896 -1.0178087 0.7493608 0.43740606 1.0992852 -1.2720503 0.67246974 -0.87328076 1.2835054 -0.3475802 0.941892 1.3281748 0.7419477 -1.0869687 -1.466754 -0.009254994 1.4024284 1.3371491 -0.44963762 -0.20117253 0.6790425 -1.696164 0.9632071 -0.60200566 -3.3995821 -0.4088804 1.3244519 -0.04194046 -0.70466673 -0.9213766 1.7827755 -1.7860264 1.780043 -1.4870585 1.0632406 0.37493634 -1.1744214 -0.64088136 1.665645 -1.4125894 0.8394392 1.5982407 1.5491853 -0.907832 0.29053247 -0.93288
2397 0.55491865 -0.10692272 -0.01495702 0.049557008 0.9515153 1.7358092 -0.59814477 1.0532027 2.3946695 -0.29808763 -1.0705335 -0.09117682 -0.10610406 -1.1647432 0.43914905 0.32206392 1.0345337 -0.90062815 -2.595311 -0.17209224 0.64774793 0.86006933 1.4276729 -0.64317644 -0.7819429 -1.0648708 0.9957745 -0.54352844 -0.4677 0.62573695 0.5772043 0.107679956 -0.95220274 -0.014949106 0.8298105 0.35126966 -0.12786262 -0.25154677 -0.31440255 -0.68368345 0.4183988 -0.09515069 -3.1200182 0.41502023 1.5573035 -0.5208268 1.4111505 -0.48739666 2.1272233 -0.84841985 1.3284285 -0.48096454 2.1126733 -0.99470204 -0.59697723 -0.3412469 2.1018693 -0.29919556 0.31019464 2.3302183 1.4206645 -0.47531682 -0.24306302 0.19598089
990 1.6345258 -0.2422277 -1.9949481 0.8593004 0.20000546 -0.58077055 -0.9453322 -0.31725642 3.415783 -0.20924717 -0.59803385 -0.55393016 -0.52487355 -0.25611344 0.24038899 1.5990407 0.2844885 -1.0534543 -2.0869522 0.6736803 1.5362878 -1.9913234 0.11177637 -1.8243961 2.3137639 1.6504261 -0.12535974 -0.12967849 2.1006255 1.9713852 0.59819657 -0.16960007 -1.0115293 1.1093206 -0.048953593 1.1959283 -0.98086256 0.04668385 0.81212974 -2.7285805 -0.789872 -0.70081174 -1.7519002 1.5198758 2.4599862 -0.08251691 -0.44841686 0.9391328 0.903005 -1.8049121 1.1046599 -1.3859096 1.8332437 -0.29723388 0.0144550605 0.5040616 1.5464817 -0.5387657 0.32064807 0.83162445 1.844863 -0.62696004 1.1278003 -0.496779
1774 2.5140517 -0.51826644 -2.287856 0.60780513 -0.17925118 -0.8173053 -0.76521957 -0.29351354 3.0512416 -0.8803419 -0.844045 -0.9417004 -0.053989362 -0.71967053 -0.027033135 1.6187967 0.6381676 -0.98660505 -2.405504 0.7807885 1.5077819 -1.6130534 0.3256416 -1.9499098 2.2629333 1.8182262 -0.38908333 0.00024024998 2.5432324 1.4160477 0.42978013 -0.006979131 -1.0853962 0.49582788 -0.8509314 1.3774941 -2.0469384 0.13924578 1.1701348 -2.2518167 -0.96119684 -0.75456446 -1.4583267 1.7532324 1.8220556 -0.0930125 0.31640857 1.7088494 0.8341922 -1.1676365 1.2581578 -1.4104232 2.013522 -0.16344662 0.5488658 0.895195 1.2806079 -0.54622203 0.27752468 0.559772 1.8057328 -0.80777097 1.4260681 -1.0272516
2532 2.79876 -0.69962305 -1.3787782 1.5687914 -1.0656692 1.5256153 1.3536785 0.09938342 0.5403685 -0.8893927 -1.8274916 -2.272587 -0.7046582 -2.276957 0.78571403 0.026610488 -0.0325187 -2.0480936 -1.57739 -0.9045693 -0.31778324 0.43762112 -0.572273 -1.403632 0.50573397 1.6187238 -0.41446254 1.5125542 1.6942968 0.29610652 -0.054103896 -1.631531 -0.92779833 -1.4509879 -1.5571986 2.187953 -0.8956645 0.9442497 -0.12671219 -0.6128148 0.3765162 2.6718583 -2.5660062 0.50010175 2.1742315 -2.1935103 0.012784349 1.0243188 -0.19836155 0.33431536 -0.6191482 -0.708434 2.5157976 -0.2837958 0.70896256 -0.62446904 0.8066996 0.10679224 0.45050016 1.0445043 0.82347476 0.9010705 2.1170151 -1.6565841
2417 2.5790832 -0.74300945 -0.7024353 1.6626796 -0.81566614 1.3908557 1.7188581 -0.19965754 0.12899017 -1.1856542 -1.3702066 -2.7912831 -1.1361574 -1.8492559 0.34720337 -0.048703894 0.6821603 -1.8738536 -1.2516719 -1.1620247 -0.5543114 0.3902468 -0.46773195 -1.5700632 0.36214712 1.2472205 0.07404244 1.5678489 1.9876635 0.25455123 0.16995011 -1.8766851 -0.3986912 -1.4972984 -1.1115344 2.5324092 -0.89900845 0.9318551 -0.38246143 -1.1676643 1.1207778 2.1096408 -2.84141 0.42124486 1.5931826 -1.961284 -0.024603507 1.1152749 -0.5511107 0.26267508 0.08696724 -0.91458386 2.170902 0.2761967 0.27902347 -1.0653954 1.2971301 0.03545805 1.044567 0.7651567 1.1996045 0.5233655 2.302977 -1.3233035
1890 3.398942 0.5389127 0.6677424 -0.15076648 -2.1055496 -1.1059117 -1.0454953 -2.8340201 2.5541472 -1.7897884 0.49680215 -0.4504064 0.54739416 -0.0079544205 -0.03766969 0.99397475 1.0562949 -1.3781077 -2.434422 -0.33740854 1.589101 -0.04157696 -0.79071796 -1.3304571 0.6907105 0.54443765 0.5608067 1.0525475 -0.48363766 0.851003 1.0327958 -1.6876463 0.97102433 2.4774275 0.034473974 1.3101622 -1.0621543 0.19686896 0.68321097 -2.886152 1.6376752 1.2832178 -2.0347235 1.3503152 0.3402748 -0.100120254 2.1024365 1.6691413 1.0306902 -1.3960831 1.3618933 -0.040502645 -0.431596 -1.5400907 0.94468147 -0.9694363 0.68044585 -1.6232964 1.2134808 0.35595065 0.92401075 -0.72330666 2.254602 -1.1997433
2039 3.6785448 0.4681938 -0.01632794 0.066684574 -2.681313 -0.86787146 -0.8285652 -2.6761975 2.197632 -1.3392786 -0.020414306 -0.37768516 0.42205608 -0.11293579 -0.15838541 0.78907967 0.6848468 -1.7033504 -2.444825 -0.5670922 1.5959476 -0.3000045 -0.9364222 -0.8895258 0.2767841 1.1942241 0.6135503 1.1896644 -0.2142388 0.71559775 0.84889877 -1.7635199 1.1154342 1.9003384 0.12548517 1.4049206 -0.8668298 0.065744996 0.35710067 -2.5571363 1.4594462 1.8327024 -1.9549412 1.4065211 0.30379876 -0.48039117 1.7919734 1.4093689 1.0559907 -1.0901449 0.60989314 -0.16884325 -0.2239977 -1.2482706 1.46733 -0.57336545 -0.121798426 -1.34643 1.0495185 0.255071 0.44661397 -0.48959082 2.3256273 -1.249538
2590 2.4382339 -1.0600002 0.96738976 1.0490857 0.09927596 -2.30083 -0.692538 -0.30702034 3.0930822 0.36102962 2.4101415 -0.56920815 0.75329655 -1.8045048 1.1504568 0.9768733 1.2044364 -1.4255112 0.3083755 -2.0474346 -1.2739491 0.5310514 -1.3431826 -1.9162476 0.8570495 -1.7013079 -0.6492916 2.082769 -1.335189 0.13242492 0.6314694 -1.8929919 -2.0518718 1.6419141 -2.1757743 2.0492756 0.655761 -0.9931641 1.5965788 -1.697635 -1.1851463 -1.0376422 -1.2113005 0.9620897 2.1246145 -1.1877826 -1.0381345 -0.049072508 1.2199014 -1.6337647 0.3186651 0.6025778 -1.2348415 -2.6103218 -0.780357 -1.8334585 1.5632337 -1.8805004 0.20309748 1.2457939 1.5817792 0.09459212 1.9252594 -1.6503164
388 2.3270657 -1.1973399 1.332722 1.4625243 0.19396162 -2.5154645 -0.3948889 -0.38264543 2.768719 0.17534056 2.1192343 -0.877865 0.9198842 -1.1828748 1.3010857 1.124005 1.6808128 -1.5657389 0.18289495 -2.0351627 -1.4701215 0.16606596 -1.2888694 -2.2288604 1.1893134 -1.7759901 -0.737371 2.1536794 -1.2855552 0.06876545 0.37576756 -2.1331913 -1.8818306 1.3648849 -2.2110815 2.3274248 0.23638466 -0.47145253 1.3568386 -1.8711859 -1.1067818 -0.9894982 -1.2865713 1.4518626 2.2020316 -0.62941295 -0.98798555 0.37056252 1.1221802 -1.6278044 0.80358547 0.520735 -0.836224 -2.4769492 -1.1847242 -1.7178015 1.5327204 -2.479851 -0.10033034 0.74643904 2.4741056 0.198699 1.9992678 -1.465814
1832 1.5175323 0.6785714 -1.1925402 1.8098165 -1.5610566 1.6847061 -0.05289967 0.641127 2.550045 1.7133772 -1.1046058 -0.22404051 -0.65112686 -0.19738282 -0.17962573 0.9596164 3.1487484 -2.1775627 0.46081084 0.3745157 1.4749959 0.3874278 0.3258875 -1.5461161 -1.2415045 0.46255422 -1.6702985 1.7360965 0.42210722 -0.94425017 0.60166025 -1.3816286 0.17407581 1.3780878 0.9795558 2.6758578 -0.044578098 1.1468624 -1.2863768 0.014096627 1.4753398 1.8106799 -3.188732 -1.3608732 1.7859638 -0.49644756 1.6007754 0.6209639 3.023511 -2.560869 1.2823099 -2.6015935 -0.82422763 -0.5614058 0.9551538 0.32841694 1.7673918 0.17177565 0.055736188 0.18625318 -0.122790806 -1.6804041 2.5638583 0.86355484
1836 1.467482 0.870206 -1.1664239 1.6050519 -1.9719391 1.6785529 0.04029383 0.28780705 2.452055 1.8194422 -0.95041215 0.32013634 -0.4279031 -0.13066721 0.06941161 0.9941937 2.9224598 -2.238685 0.40766484 0.29038742 1.9309366 0.640912 0.035897706 -1.5078386 -1.159832 0.38194546 -1.77256 1.9087371 0.39819628 -0.89334106 0.40500963 -1.4244387 0.028395507 1.548343 1.2869391 2.3592014 -0.2521784 1.0401777 -1.3156708 0.3001376 1.5885135 2.2655623 -2.9432125 -1.414043 1.7983534 -0.4600797 1.6452249 0.5851687 2.8212125 -2.6522205 1.1953707 -2.38937 -0.8980202 -1.2856028 0.86265796 0.5875726 1.3728173 -0.050992914 0.054136626 0.3860629 -0.22250248 -1.7654967 2.028022 0.987815
1607 0.9466668 0.2312925 -0.51048774 0.9600024 -0.851576 1.3406489 0.68496436 0.15289594 3.6740663 0.5423778 -1.2388376 0.17913714 0.9595576 -0.8365968 -1.2150273 0.7538899 -0.19305623 -1.2149174 -1.6679143 -1.891938 0.8146427 0.49903655 -0.85966814 -0.15268774 0.5342825 1.5737942 0.9310558 0.15970913 -0.50879586 0.79838806 -2.3196533 -0.3478072 -1.7254272 0.35715827 0.633689 2.0873368 0.9627876 1.2778527 -1.7848521 -1.3666093 -0.047640335 1.610126 -3.0699759 0.14198156 2.3304884 -2.874946 -0.54881024 0.7250053 1.0786827 -1.7452817 -1.1017253 -0.9638816 1.0983557 0.12210137 1.0897781 -0.8668428 0.32570598 -0.74190724 0.6426159 2.289907 0.57611257 0.8038279 1.7027476 -0.27711856
1223 1.2365766 0.58449966 -0.6053982 0.85668874 -1.0869251 1.1625017 0.8074142 -0.17825283 4.117216 0.52077115 -0.8556677 0.16988061 1.0129342 -1.1141238 -1.5133253 1.0331932 -0.05630173 -1.0707766 -1.4928236 -1.9879559 1.2725444 0.85271466 -1.2882681 -0.232813 0.5842777 1.9999112 1.0363765 0.21678136 -0.42125508 1.2425026 -2.5256417 -0.19824138 -1.9252814 0.52895933 0.6476957 1.5453916 0.8311955 0.7315401 -1.5856643 -1.1793151 -0.1295422 1.5223113 -2.8910346 -0.32504722 1.9604533 -2.6853871 -0.5827724 0.83661383 1.4641372 -1.9207188 -1.1675005 -0.91209173 0.6374974 -0.4579335 1.4518874 -0.5252133 0.39082593 -0.64593285 0.60719824 2.7378755 0.244234 0.7745219 1.7614865 -0.389392
267 3.650415 0.5869702 -1.6517353 -0.034909297 -1.78481 0.14152399 -1.0554123 -1.6938988 2.444807 -0.26385093 -1.8643017 -1.8488097 -0.86290944 -2.585708 0.06495198 1.0812091 0.08838462 -2.4057956 -0.24810411 -1.4740715 1.2891616 0.4626426 -1.5698751 -2.3794613 -0.17050149 -0.4688869 -1.6874114 1.7549442 0.6390898 1.2682941 -1.9390864 -0.80775356 0.5814082 -1.6949356 0.13033392 1.3530157 -0.09872855 0.913506 -1.5423254 0.58121043 0.35008892 1.8333559 -1.7953049 0.057653032 2.3088877 -0.33043015 1.0206198 0.47295296 0.46477395 -1.1629958 1.8130049 0.61269397 0.09882223 -3.1871514 0.19537938 -1.1271554 1.1923126 -2.123334 0.82971954 1.2757567 1.8387362 1.3613234 3.2209637 -0.59053105
20 3.7132893 0.57951576 -1.3455714 0.14245032 -1.5134648 0.01922056 -1.3036872 -1.5537231 2.600862 -0.27078795 -1.8831719 -1.7854332 -0.4800995 -2.5399683 -0.0037605 1.011362 -0.073712885 -2.2379708 -0.5902595 -1.6848752 1.0870594 0.69259256 -1.543016 -2.5625734 0.0027888913 -0.8699095 -1.7569901 1.9612889 0.5979326 1.0415117 -1.9789611 -0.73543024 0.28884593 -1.6743101 -0.05585387 1.131976 0.16275766 0.8042664 -1.3843056 0.6923756 0.06211662 1.6788843 -1.7295147 0.16488095 2.5996904 -0.20242903 1.1015979 0.4358769 0.69556755 -0.6434299 1.9134483 0.7097605 0.027254587 -3.9000204 0.036601428 -1.3160496 1.3682307 -2.6849635 0.57646304 1.4794183 1.9414955 1.6817704 3.4058802 -0.9760316
2018 1.589466 0.21175714 -1.8521552 0.2603774 -1.3334557 2.1179147 -1.232238 -0.5487095 3.6304204 -0.84691006 -1.3556986 -1.217453 0.51723754 -2.750372 -0.55973953 0.58778363 1.8179532 -1.2922176 -2.143755 1.080675 -0.27437785 0.09237806 0.11235636 0.8714179 0.45896664 1.2299356 -0.20169938 0.5742184 2.1487198 2.2948024 1.4266824 -0.8171257 -1.2939258 1.8368257 -0.6132244 1.0969917 -1.1347891 1.363412 -1.0319052 -1.8207169 -0.30636472 1.5426954 -3.7010057 -0.00429137 2.09169 -1.3924499 3.4079764 1.0143296 3.0970314 -1.4378729 -0.37555715 -0.42939764 2.2535214 -1.8511816 -0.0882912 0.021283822 2.7536266 1.0686507 0.823116 3.1318736 0.471595 -0.5133478 2.9297197 0.92331094
1828 1.4307016 0.24289784 -2.114501 0.1684059 -1.3223112 2.1116443 -1.5017861 -0.59097415 3.6175745 -0.65917766 -1.2706207 -0.94727254 0.40651035 -2.735389 -0.53066397 0.63542503 1.6987189 -1.0964876 -1.8417245 1.3092897 -0.18939719 -0.10610394 0.124358244 1.0811901 0.49565157 1.2368257 -0.1555656 0.5962151 2.1533954 2.252761 1.6445324 -0.7375117 -1.442656 2.097249 -0.66233295 0.9791095 -1.027978 1.0558679 -1.2074704 -1.734751 -0.47508436 1.4011517 -3.5043967 0.16791637 2.066497 -1.601683 3.6024642 0.85323745 3.1068947 -1.4441391 -0.5627095 -0.4671817 2.5140553 -1.7810671 -0.11188418 0.053648997 2.84016 1.327845 0.8102464 3.2757704 0.3456477 -0.68786865 2.6767614 1.2105598
2022 2.6017156 1.5077493 -0.0069279107 1.4255463 -0.5423875 1.1017653 -0.28944275 -1.5917559 2.2226205 -0.25396213 -1.3297552 -1.4590839 0.28491995 -0.5368967 0.7844123 1.6044655 2.86609 -2.6519372 -2.5403907 -0.6467296 0.46483368 2.4656556 0.30658445 -2.1395674 0.46936792 2.5044858 1.2007396 0.62400866 0.9678372 1.6378045 0.0038771469 0.81887054 1.0117079 -1.2379601 -1.0545398 0.15571114 -1.5392051 0.2694091 -0.50932896 -0.37113014 0.26531777 0.6015795 -2.7962139 0.06492726 2.363885 2.0352287 1.773324 2.2768419 3.7310727 0.39346313 2.2641246 -0.40661576 0.74126446 -1.7758441 0.33667734 0.834254 0.971593 -1.7172698 -1.458289 1.1506003 2.2242026 -0.5544873 4.064199 -1.1531141
2008 2.8292818 1.3427615 -0.23827294 1.4682246 -0.83677447 0.9289946 -0.36873817 -1.757904 2.6123703 -0.502702 -1.201568 -1.5889748 0.44903484 -0.8065803 0.40939188 1.6706698 2.415837 -2.53592 -2.6068366 -0.835046 0.38495523 2.198352 -0.096385375 -2.193879 0.66232073 2.7014537 0.9518046 0.8868058 0.91618073 1.7973294 -0.35245866 0.4389928 0.64129305 -0.9563046 -1.3622291 0.12788573 -1.3222238 0.3741274 -0.3138273 -0.7338661 -0.019618757 0.74195105 -2.6203732 0.31159198 2.5484226 1.4098043 1.4661819 2.1585264 3.49069 0.2650516 1.7847083 -0.34408495 0.79975927 -1.9021795 0.41324452 0.6483964 0.985236 -1.7005436 -1.1468321 1.2856815 2.036381 -0.08889054 4.2157097 -1.3756769
33 0.42741567 0.2613315 0.5758648 2.0405636 0.5451353 0.23343477 1.2922313 -0.15446497 0.8495165 0.8059988 1.3257941 0.38951328 1.774627 0.10118634 0.29091364 1.0084001 1.2798017 -0.7486533 -0.20044261 -1.5522263 -0.8684915 0.3044687 -0.96017313 -1.6977379 -0.69533426 -0.7281056 0.68905026 1.9379982 0.44005486 -0.856895 -0.9703481 -0.8720123 -2.6580827 -0.018976256 0.6301739 1.0558864 -1.3197988 -1.4851044 -1.5550892 0.40585494 0.19910355 -0.24186826 -0.4537337 1.8400407 1.5126542 -1.1968874 -0.4117383 1.3479228 2.4230552 -1.5804857 1.6947132 -0.51670176 0.6670767 -3.4530303 -1.2734127 -0.54079396 1.3332406 -1.0909113 -0.5660844 3.0669398 2.2765384 0.758011 -0.3883446 0.685044
2204 1.6909955 -0.5284188 1.4454474 1.8021089 -0.14418007 1.0237054 0.65896046 -0.38523352 3.8867624 -0.5753181 -0.73917747 -0.70530677 -0.43397322 -1.1649489 1.5457894 0.27286103 -1.0819318 -1.0270474 -2.350456 1.1152751 1.5151587 0.46026123 -1.6896256 -2.2425234 0.6330449 -0.63862926 -1.600768 2.4123833 -0.48409116 1.7292657 0.19126269 -1.3270528 -0.8422704 1.4249421 -0.07928537 1.6621124 0.7031828 1.5441155 -0.473605 -2.0109193 -0.77447355 2.4331214 -1.80649 0.567535 3.9541025 -0.67518705 0.008051957 -0.72060317 0.8625245 0.27051517 0.38476342 -0.94394785 2.022132 -2.3133488 0.2948949 -1.7184972 1.6714972 -1.4525657 -0.19449548 -0.3880889 1.2147393 2.3329 1.8268203 0.008429011
2173 1.8874921 -0.15701427 1.4424219 1.8431941 -0.41195717 1.0438131 0.7990486 -0.68967736 3.9095678 -0.6787909 -0.9253267 -0.76192975 -0.061173473 -1.2000735 1.4910985 0.41650686 -0.9715781 -0.9842698 -2.6124713 1.2544026 1.3820602 0.692633 -1.802324 -2.1725874 0.6166259 -0.16637942 -1.4369173 2.465838 -0.3985138 1.8649256 0.27720484 -1.2229501 -0.7556705 1.6853493 -0.2024374 1.4142407 0.30119762 1.5283523 -0.29227996 -1.9297996 -0.8464054 2.7548814 -1.868515 0.44396347 3.8984256 -0.4001001 0.18872657 -0.16081078 1.0357572 0.3985522 0.27510133 -0.6792399 1.7490059 -2.5231886 0.7079789 -1.4571841 1.4607614 -1.4522346 -0.3696266 -0.3180765 0.9901991 2.335529 2.3017607 -0.25171137
399 2.0128412 0.84298587 -1.0906017 0.91733444 -1.8048725 1.5670197 0.77586186 -0.65305203 2.7449532 -1.6844777 -2.5181394 -0.35560572 1.1777655 -1.1459076 -0.56547457 1.2034154 0.79849845 -0.32416606 -2.7384257 -1.4122345 1.839263 2.4043438 -0.4986251 -1.7758268 -0.55088407 0.16065098 -0.46364215 1.4238418 1.1190151 -0.76626897 -0.1925898 -0.67709124 -1.4296905 1.2555432 2.5493064 1.6355516 -0.5352535 0.190053 -0.8059321 0.6535764 0.19076961 3.2031617 -4.236381 -0.790027 2.671677 -0.8926553 -0.3072269 0.6015458 2.1500182 -0.16471691 0.34680766 -1.8081002 0.26843235 -3.4216456 1.9614677 0.43402976 0.50009257 -2.0791974 -0.4213488 2.7626915 0.897002 -0.016919417 1.3356287 -1.6459492
832 0.49420345 0.3634738 0.54503495 1.9781064 0.3723485 0.2630603 1.2212014 -0.21408543 0.8090969 0.8207764 1.299241 0.49991915 1.8117981 0.06528406 0.5445502 0.98648554 1.2994403 -0.74267507 -0.337099 -1.6256201 -0.82570404 0.4712149 -0.98338103 -1.5960162 -0.6604957 -0.686626 0.7140159 1.9071292 0.47830775 -0.89409786 -0.96256 -0.81283844 -2.5822687 -0.07529387 0.66832256 0.97228914 -1.3083315 -1.5400666 -1.5439343 0.5767056 0.21963696 -0.11389379 -0.4086516 1.7662292 1.5846597 -1.1922392 -0.3839552 1.2239008 2.3745098 -1.4904579 1.6094561 -0.43250203 0.5733822 -3.48948 -1.3295366 -0.49088836 1.1055901 -1.1669755 -0.67720073 3.0412726 2.2202923 0.7096029 -0.49233317 0.52694345
790 1.4651687 -0.18146506 1.8163098 0.3043727 -0.45423472 1.7480178 0.79825234 0.46211538 0.6597586 -1.3641353 -1.9705445 -1.7511306 1.1132495 -1.6253694 0.27398452 0.83748025 1.8256136 -1.9368476 -2.2809618 0.009124174 0.3274159 1.3674467 1.239607 -1.5422629 -0.09062113 -1.2050345 -1.1357248 0.63771534 -0.718271 -0.3701467 0.52979916 -0.22379957 0.33247277 -0.33430582 -1.7528746 1.2733932 -3.0863035 1.8072886 -0.47566456 0.69026834 -0.4211969 2.9817026 -2.6582825 1.2830005 2.8058517 -0.0058538555 2.869884 2.1184592 0.91929066 -0.2880974 3.6013436 0.31052887 2.1859605 -2.4629405 0.6181324 -0.8226706 2.8907917 -0.98952055 1.3665162 1.5108728 1.7635392 -0.6219559 2.43722 1.0493753
1510 1.7308381 -0.028237723 1.8280007 0.5164394 -0.55568427 1.9414475 0.80280685 0.33342296 1.0045985 -1.3236336 -2.2666543 -1.8748294 1.1291598 -1.8590964 0.20733212 0.83903515 1.8635604 -2.4058003 -2.629717 -0.113181144 0.3041961 1.450588 1.1512128 -1.5647409 -0.12338675 -1.1626827 -1.0906447 0.83897775 -0.7521597 0.10717867 0.46233004 -0.34765142 0.5431554 -0.3001343 -1.6102346 1.4616199 -3.206643 1.9855248 -0.45169783 0.5971015 -0.26211956 3.3065639 -2.885082 1.2057347 3.0926163 0.09334051 2.6794913 2.2828658 1.0297598 -0.5187312 3.6330714 0.52758557 1.9882132 -2.809646 0.70325017 -0.8019022 2.665024 -1.1673647 1.2385175 1.5454462 1.8951584 -0.3295881 2.7577202 0.97326
64 0.8623641 -1.9852115 0.45183402 -0.27191398 -0.07467376 0.7305548 1.1987892 0.037392944 1.3610672 0.30071405 1.5272945 -0.53360945 0.81450266 -1.6801112 -0.042462945 0.63446 0.02481448 -2.3596425 -1.9862609 -1.1123047 -1.4401474 1.0211346 -0.23124433 -1.083541 -1.3669095 -0.26846808 -1.1364112 2.7816415 1.9701008 0.42368832 0.7715619 -2.5849836 -1.6138084 -0.9175181 1.1692982 1.1512218 -0.61395144 -0.0686508 1.1173931 -1.872234 1.865102 1.3394628 -3.3161392 -2.025488 1.0292675 -0.28451893 0.20617768 -0.10365823 4.0734606 -1.1833522 1.854116 -1.5618241 -0.77832013 -3.7821867 -1.5176101 0.3810149 1.1652863 -0.8508047 0.69258875 1.7757347 -0.6130249 0.8214654 2.5021336 -1.0229387
284 1.1643502 -1.7023755 0.2515005 -0.44037452 -0.36150855 0.8194087 1.0347567 -0.3006176 1.3944997 0.047599357 1.0642196 -0.6107708 0.7719735 -1.7290012 0.03785333 0.77771693 0.07692124 -2.4206336 -2.3156433 -1.1306679 -1.1341014 0.96919185 -0.18038239 -0.909247 -1.1301217 0.09124278 -1.1253456 2.5254579 2.1352391 0.6485325 0.7961872 -2.5948148 -1.1229606 -0.6750808 1.2876539 1.3027867 -0.6848851 0.26655492 0.8690166 -2.0952482 1.9464465 1.8361628 -3.6490557 -1.8657385 1.2314259 -0.33716875 0.49210584 0.17503113 3.711289 -1.2116802 1.79064 -1.3448526 -0.74057555 -3.6944902 -1.3855127 0.24149533 1.2450216 -0.9220038 0.8492705 1.660597 -0.38680226 0.5123102 2.8493342 -1.0210491
2643 0.70950806 -0.06438568 -1.3814096 0.6635498 -1.7079308 1.6370384 0.045102917 0.93713224 0.77287704 -1.2313136 -1.2409669 -3.0385673 1.0858366 -1.4389348 -3.115718 0.9644874 -1.025692 -1.9561276 -2.0824459 1.3041403 -0.37151736 1.0750692 1.1744984 -3.3676488 -0.30360556 0.8140995 -1.5940171 1.2361627 1.4915407 -0.4580926 1.5279229 -2.0139654 -0.12190553 0.9871292 -0.9059356 1.0369442 1.1190034 1.0086334 1.6640034 -0.49559224 1.7527285 1.9964579 -3.9748619 0.038719464 1.0846177 0.35137847 -0.9572997 0.22201718 2.45887 -0.60120606 2.2782834 -0.795521 0.27751154 -1.9180208 2.5208435 -0.8423338 3.3887537 -0.82424647 2.3278043 2.9804466 -0.3860511 0.2675233 3.148567 -2.6796756
2646 0.9043203 -0.03389993 -1.292803 0.7223031 -1.6285319 1.568722 0.048600942 0.7261384 1.2096683 -1.0536095 -1.2983024 -2.9174337 1.0560775 -1.6403573 -2.6797893 0.89999855 -0.7896938 -2.0226665 -2.2308607 1.1505474 -0.46211308 0.8927956 0.9394987 -3.0497785 -0.36454582 0.7090923 -1.3070104 1.2470065 1.4400406 -0.09880377 1.5016447 -1.9682586 -0.12949339 0.94056296 -0.7776334 1.212134 0.78089875 1.0571301 1.4136037 -0.66954744 1.6351705 1.9521374 -4.0096354 0.04351402 1.3360717 0.3290165 -0.61953837 0.39838946 2.5540674 -0.6791664 2.154344 -0.502329 0.43231142 -2.0041277 2.2763999 -0.910918 3.120248 -0.8488939 2.0369205 2.93067 -0.1481212 0.479894 3.138762 -2.4321592
1018 1.5943321 -1.0724335 -0.35362712 1.5314013 -1.4542191 2.3884962 1.4981047 0.630205 1.6415874 1.6635189 -0.5396314 -1.3167837 -1.50031 -2.6381333 -0.15517256 0.7907511 1.2949637 -3.4015563 -1.9947561 -1.3216057 1.3261122 -0.80676454 -0.8995761 -0.24371794 -0.3527481 -0.32738966 -1.0644215 1.2774755 1.3112028 2.1774108 2.0406108 -2.171252 1.6487926 1.5626246 0.73071516 2.558953 0.76647145 1.0373302 -0.5035399 0.101843014 -1.0082451 2.2157907 -3.3731186 0.2162955 3.7431934 1.7309543 -0.7479419 0.014553746 1.6441684 -0.36199665 -0.22852789 0.80689156 0.87448883 -4.078059 0.021498105 0.25123674 -0.073307954 0.037458178 0.22489412 2.3540127 1.3850545 0.6818108 2.6654003 0.22824797
1142 1.221906 -0.9207813 -0.38353583 1.5250994 -1.5769266 2.4565666 1.7512295 0.65737206 1.4701991 1.7499831 -0.70843905 -1.5194591 -1.3086689 -2.570734 -0.34224528 0.7835917 1.1455853 -3.3387625 -1.6746223 -1.3140696 1.1662507 -0.6024671 -0.984557 -0.37989834 -0.57695246 -0.29246992 -1.2641903 1.3751167 1.4032757 1.9509342 1.7799839 -2.1838388 1.5628797 1.3881285 0.79227954 2.4180534 0.86308086 1.2535045 -0.7409285 0.41326225 -0.9168731 2.2534783 -3.2600148 -0.066337235 3.787853 1.641772 -0.80101734 0.022012092 1.6543591 -0.39746216 -0.24220005 0.82833934 0.7531897 -4.0673265 0.144682 0.09556034 -0.15240355 0.06853729 0.24599603 2.378507 1.0223008 0.7892499 2.6946692 0.44743332
2405 0.6704271 -0.09936925 -0.92440534 0.6486048 0.63677746 1.3367783 -0.48173177 1.2010975 2.2493813 0.3684253 -1.1179007 -0.189364 -0.14037518 -0.7992565 0.3671408 0.20454182 1.4030325 -0.7753536 -2.4193535 -0.84079504 -0.17405522 0.28427726 1.1733022 -0.4277359 0.23891416 -0.27400294 1.6958562 0.044148926 0.33357623 0.89325315 0.18878813 -0.67079294 -1.2069976 -0.6815716 0.81484026 0.7128041 -0.4544998 -0.32618827 0.03270586 -0.938473 0.91953075 0.17284352 -2.5562027 0.1551943 0.81663704 -0.39387366 0.6098803 -0.7047674 1.7657195 -1.3266591 0.93252474 -0.78920984 1.734652 0.051898412 -1.1799523 0.1338587 1.0691495 -1.3418392 -0.14016472 1.7877114 1.4999804 -0.023114894 -0.043001384 -0.7210284
1076 1.6787182 -0.5644161 1.9090164 1.4445417 -0.9082995 1.7886901 1.7107487 -0.8173894 3.3175108 -1.4076573 1.1980362 -1.2875762 0.33432406 -1.390194 -0.42077458 -0.08610493 0.6737896 -2.085458 -2.3176045 0.8292074 2.0711308 2.485019 -1.6457825 -1.5541562 1.3641609 0.16700174 -0.25173652 1.0707599 2.8568113 2.6279678 -0.0937323 -0.6802394 -0.017836893 1.0698049 0.744072 1.2045336 -1.6501117 1.7731487 0.16192137 -2.3622084 2.5113058 1.0982454 -2.432824 -1.9909862 0.45554927 -0.03889978 1.4906228 1.6215835 0.020216653 -1.465762 1.1365389 0.09618309 -1.2572105 -2.370333 -0.0059650512 -1.8742865 2.6119947 -1.1111357 2.7682052 1.61683 0.34664544 0.32501134 2.671224 -0.15435673
1078 1.9007877 -0.5226085 1.6377913 1.3466696 -1.0445471 1.7555258 1.5189025 -0.7742514 3.515546 -1.394261 0.83318245 -1.3510889 0.4124584 -1.6327431 -0.32134444 -0.019399296 0.77766937 -2.252149 -2.5420842 0.6163333 1.7722836 2.4226382 -1.5114329 -1.5453292 1.0252581 0.015792448 -0.32737458 1.2570562 2.5705492 2.5308304 0.038110852 -0.9427423 -0.14572851 1.0069093 0.70695406 1.374688 -1.704153 1.693573 0.14553858 -2.35463 2.3563457 1.4030547 -2.7811403 -1.9018364 0.8137357 -0.13389908 1.5275667 1.512118 0.61442405 -1.5741786 1.2420871 0.025171403 -1.0047555 -2.5875058 0.10500553 -1.7448777 2.5577986 -1.1325715 2.4916677 1.7628392 0.3693777 0.476578 2.8549173 -0.21626654
2665 3.1149933 -1.8254985 -0.57361305 -0.08164697 0.48934862 0.74987674 0.7891652 0.2582123 3.0945814 -1.5157666 -0.43053964 -0.8748137 -0.7576988 -2.267395 -2.821789 0.9071898 0.5973607 -1.679319 -1.6985395 -0.0133864675 2.1206045 0.7637785 0.12166844 -0.3950742 -1.1401504 -3.284341 -0.43017986 2.0076988 -0.7870573 1.2699972 -0.1039052 -1.9155214 1.195142 0.15022191 1.6520643 4.0320306 -1.6418263 -0.22298668 -0.93758297 -1.3983572 -0.49645936 -0.3603763 -3.6654427 -0.15859567 -0.59844255 -0.085429974 0.857614 1.3806024 4.1682987 -1.2950747 0.9833042 -0.77069867 2.6044276 -0.8985267 2.800013 1.6302383 0.13003331 -0.88287854 -0.9551822 1.8336821 1.9785262 3.0871804 0.38057318 0.34994054
2395 3.20511 -1.5131365 -0.6687473 0.34410968 0.1466803 1.1417934 0.7750834 0.108252056 3.4374697 -1.3667035 -0.8135555 -1.2871753 -0.48418722 -2.5661259 -2.5095506 1.0229732 0.84269315 -2.2027745 -2.2143564 -0.2600901 1.6141164 0.93478465 0.06837562 -0.76161724 -0.9653239 -2.5451913 -0.44026616 2.1790519 -0.255385 1.5724655 -0.021879308 -2.1980178 0.72849053 0.2391575 1.4540637 3.946273 -1.7825402 0.2006269 -0.73722136 -1.5692743 -0.12727688 0.35285723 -4.2260423 -0.3277338 0.23617241 -0.22641003 0.81421596 1.5446327 4.393777 -1.5455717 1.1843005 -0.8197018 2.3603792 -1.4698166 2.4272032 1.3362548 0.4582065 -1.0936688 -0.699077 2.230035 1.9208549 2.8670347 1.2076409 -0.042858675
1681 0.9522381 1.2590088 -0.76379126 0.07741447 -1.9138602 1.6169119 0.543823 -2.081465 1.9658573 -0.72989625 -2.897481 -2.351569 0.56815314 -1.6972684 -0.29231545 0.8034099 1.5479115 -2.0891123 -1.9925712 -0.8470212 0.13813595 1.2167633 -0.10342444 -0.9564311 2.0106328 0.119292505 0.20151277 1.6161412 0.107051104 4.28568 -1.3457319 -3.7100205 -1.1660116 -0.044550482 0.6129816 1.1358365 -3.0350125 2.3240702 0.31890824 -0.55002093 1.8512125 3.408096 -3.9471934 -1.7942406 1.6844476 -0.0736866 0.10753744 -0.09147452 2.8702502 -3.8337097 1.1445193 0.59286684 2.5880816 -1.1461334 -0.6490463 0.58749926 -0.8228765 -2.5924444 -0.11266958 2.657344 1.1369268 1.6896299 0.5069795 -0.50495875
1682 0.47537535 1.341922 -0.84358317 -0.39557126 -1.8414627 1.3518815 0.6041355 -2.341581 1.3235726 -0.7371219 -2.9304812 -2.277266 0.4628615 -1.446384 -0.15533035 0.7446777 1.4436243 -1.7279257 -1.4948373 -0.81235915 0.18179993 1.1639019 -0.08929576 -0.71918553 2.47194 -0.1186455 0.18901518 1.4327496 -0.09091526 4.563786 -1.6639929 -3.828181 -1.1589012 -0.26621005 0.50970304 0.6930797 -3.3132439 2.302557 0.52939993 -0.10704991 1.7617148 3.2029107 -3.447264 -2.0567648 1.1919776 0.14639446 -0.09735659 -0.47841296 2.502968 -3.991982 0.98199785 0.92218274 2.8250623 -0.63498455 -0.93270475 0.8381023 -1.4242527 -2.6179738 -0.3240255 2.472139 0.98219746 1.7404165 -0.33677092 -0.4557454
2148 1.6361624 0.36724925 0.48604962 2.1095045 0.2275192 0.57650197 0.18777125 -2.473316 3.2766285 0.7072098 -1.9520494 -2.2729013 -1.4244659 -2.9858317 -0.62309694 1.1387306 -0.7895453 -1.8319238 -2.3004653 -1.4527249 -0.33107528 -0.82626253 -0.79143584 -1.2631452 -0.38203534 0.805519 0.91537285 2.287985 1.0888938 2.543973 1.1289778 -2.2183056 -0.44744328 1.7043388 0.5202304 1.7108314 -1.4430348 0.22031051 -0.37254265 -1.5988141 1.7646343 1.147516 -2.8866057 -0.52254343 3.5077422 -2.1927829 1.2558879 2.0202467 2.7709439 -0.667007 2.0011642 0.034901705 2.2860708 -2.1520085 0.6790517 -1.6754385 0.082377456 -0.46368304 0.942359 1.7320546 -0.5422321 0.12277947 1.7953928 -0.027949378
2136 1.4166992 0.25209716 0.50513875 2.389388 0.55461806 0.24937402 0.29623038 -2.6767957 3.1428936 1.056093 -1.8504615 -2.278996 -1.7830611 -3.0343764 -0.737691 1.0025662 -1.2580197 -1.4455757 -2.156876 -1.4571941 -0.46690217 -1.2084973 -0.910574 -1.0418893 -0.28050077 0.82654154 1.2970859 2.5038056 1.3455522 2.5966914 1.2945898 -2.3213446 -0.57914156 1.8359997 0.5354979 1.6040282 -1.5819677 -0.09351019 -0.3266668 -1.5822815 1.9454575 0.747949 -2.386433 -0.607569 3.2579868 -2.521646 1.345057 2.0704362 2.6228397 -0.36474404 1.8707621 0.14090024 2.629324 -1.8428936 0.66707957 -1.8200119 -0.32280734 -0.30477822 0.9537318 1.5657316 -0.9278047 0.12902273 1.2802151 0.026834268
939 3.3733397 -1.0974926 1.6986367 1.0984688 -1.0772271 0.43448132 -1.0826094 -0.636597 3.035844 -2.9281895 -0.5108919 -2.126981 -0.5087619 -1.4630408 -0.7700957 0.39131182 2.081289 -2.5633843 -1.2578712 -0.7524639 0.557989 1.9792411 -0.9382367 -2.3098128 -1.5651962 -0.3663536 -0.23890682 1.0439872 0.21158217 3.4673505 -0.36666057 0.009023662 -2.348231 0.62998605 -1.3528956 0.7063168 -1.5815846 -0.3530497 0.56609887 -2.3987906 -0.56045794 -0.95639414 0.14276557 0.5756914 1.4062129 -1.9481494 -0.8033402 -0.27937326 2.929479 -2.4623892 2.1112654 -1.3020277 -0.20559369 -2.6854143 1.231809 -0.6631451 2.497198 0.6837122 2.2349162 1.2198946 0.20294276 -0.6535701 1.8668557 1.4373026
1242 3.4974897 -0.8958444 1.3713093 1.1049658 -1.1467717 0.7741364 -0.8583223 -0.7747292 3.397824 -2.7444422 -0.8635044 -2.3043363 -0.43117023 -1.9247371 -0.6335427 0.6841644 2.1478603 -2.8406444 -1.7920015 -0.82883984 0.5073581 1.8451273 -0.89087445 -2.3094633 -1.4249271 -0.18745779 -0.21598963 1.2129731 0.40695307 3.5530005 -0.065848604 -0.4553264 -2.1792943 0.7920087 -1.0379436 1.1197491 -1.7874496 -0.12151318 0.4643135 -2.473553 -0.3833628 -0.27977255 -0.9044938 0.4255108 2.0123718 -1.7600892 -0.6090549 0.14873207 3.2520597 -2.5864317 2.2632456 -1.1882298 0.017361734 -2.9914196 1.2021642 -0.61529 2.4866176 0.39758012 2.0619268 1.6557995 0.44687405 -0.44186693 2.3619814 1.0726014
1927 1.600657 1.397931 -1.0597063 0.25059316 -0.90586376 0.11692345 1.5068583 0.29617745 2.8442073 0.606857 -2.6014009 -2.5883474 -0.01455597 -2.3084204 0.5536153 1.4685298 2.1336844 0.06983272 -2.1318028 -1.0542217 -1.8878354 -1.5590402 -1.0197735 -0.43962228 -0.22284728 1.2992874 2.0567143 1.7336959 0.9276576 1.820734 1.4777447 -1.8999127 -0.15381889 -0.015598106 1.5110737 1.6469789 -4.1776905 -0.9982388 -0.5184033 -1.0194733 -0.38760418 3.7052295 -1.7126212 0.33444303 1.5690099 1.3283954 -0.98325855 1.1153953 0.8721599 -3.1270776 3.6078005 0.90923935 -1.1270069 -0.74967587 0.8768703 -0.09881153 0.8914552 -2.4758422 1.2880157 0.4717129 -0.34008864 0.953801 4.513902 -0.7005724
1846 2.0154905 1.2798451 -1.0591741 0.52300715 -1.0878445 0.45079142 1.2327884 0.13128737 3.2770731 0.29854548 -2.6320553 -2.6495535 0.06256491 -2.5443523 0.3232529 1.5171742 2.1017783 -0.517689 -2.5140321 -1.0879642 -1.5031945 -1.1730026 -0.93793476 -0.82350755 -0.23407453 1.2415566 1.6666831 1.8565286 0.980318 1.9690244 1.3159926 -2.0229354 -0.343818 0.15211415 1.3539644 1.8550533 -3.758694 -0.6087196 -0.45665732 -1.2602459 -0.14964399 3.7050283 -2.3660934 0.332378 1.9965109 0.98564166 -0.67641306 1.2022241 1.4041598 -3.0238063 3.4359748 0.6190684 -0.700339 -1.3692671 0.91346437 -0.12587695 1.1791986 -2.4664943 1.2236264 1.0224456 0.094028026 0.9866793 4.535779 -0.7953676
265 2.0618274 1.3979025 -1.1176527 1.9234701 -0.57300496 2.8501396 -1.9876757 -0.2584406 2.5123143 -0.5353652 -1.1206156 -0.57373965 -0.18934828 -3.101879 -0.3096425 1.5309889 0.5683989 -3.3532557 -1.9413162 -1.1163471 -1.2984731 0.49707544 0.21745895 -0.6915897 0.7346235 1.7632589 0.8028219 1.9503403 0.3269497 2.5344362 0.10239342 -1.0591125 0.14941244 0.7249572 0.37549213 1.8335716 -0.33295566 0.8961997 -0.55681425 -2.1916358 1.167902 3.1317098 -2.0034056 0.5460338 3.0122654 -1.6350363 -0.76289314 2.0662987 -0.18910486 -2.5165217 0.8232612 -0.024602374 -1.3082751 -1.8356094 -0.8294007 0.41518986 1.333888 -1.7599608 0.7610957 2.2295358 2.154833 1.1505653 3.1113625 -1.5307126
758 1.8963338 1.5637758 -1.2170758 2.0896964 -0.39245355 2.9625852 -2.3269844 -0.19398841 2.2057269 -0.44505718 -1.1019849 -0.24947698 -0.3049663 -2.9651659 -0.16755746 1.631338 0.4793722 -3.3341699 -1.7920583 -1.1354041 -1.4492624 0.39160553 0.37884596 -0.5092115 0.97621053 2.0316195 0.98486227 1.8937477 0.2917631 2.4877641 0.10666215 -0.8231781 0.2381165 0.748505 0.3006544 1.6537735 -0.13712756 0.7854071 -0.5856563 -2.1869597 1.1523408 3.1683044 -1.5695853 0.811258 3.026855 -1.743937 -0.9713833 2.125118 -0.7142903 -2.4022427 0.5782761 -0.014104233 -1.4766649 -1.6356766 -1.0929798 0.6226844 1.2295015 -1.8331643 0.6435093 2.0814655 2.3107822 0.9907477 2.949918 -1.6527297
1251 1.8762836 0.7447652 -0.84750736 0.7824067 -1.7079077 1.407943 0.90597045 -0.7760149 2.1908753 -1.1899432 -2.0901248 -0.20180947 0.6504097 -0.999733 -0.0042702043 1.0010717 0.7848887 -0.32999492 -2.1497097 -1.0925903 2.0133426 1.9802748 -0.71669304 -1.3393177 -0.32413822 0.3395321 -0.5551232 1.1959121 0.9983847 -0.36225605 -0.1977977 -0.591238 -0.83382684 1.1590414 2.0731199 1.29604 -0.50535583 0.29053023 -0.8206686 0.7401002 -0.02114802 2.98688 -3.364681 -0.7841521 2.3169522 -0.4355217 -0.04485255 0.545537 1.5959119 -0.07235797 -0.0005316324 -1.360941 0.19334935 -2.9177148 1.6603507 0.5195475 0.19927275 -1.5022687 -0.4799945 1.9830831 0.6662668 -0.0792508 1.2414418 -1.168874
1250 1.6516228 0.64180815 -0.8459583 0.6473114 -1.5408646 1.2277821 0.8117318 -0.750915 1.8869442 -1.1276901 -1.9239095 -0.13786097 0.58799404 -0.89155996 0.019409712 0.95760435 0.733324 -0.25794968 -1.9002749 -1.0757347 1.781604 1.857111 -0.60344046 -1.2059894 -0.2561561 0.18369393 -0.47513688 1.1232527 0.9141884 -0.44498968 -0.14351213 -0.564408 -0.78044343 1.0249001 1.9047824 1.2465274 -0.5130741 0.15720849 -0.77566594 0.78408647 -0.0740438 2.6864834 -3.121687 -0.6912185 2.1436625 -0.44729388 -0.0899981 0.44065112 1.4429699 -0.019535463 0.0138173755 -1.2661262 0.28222537 -2.6169448 1.4850698 0.50093555 0.08024388 -1.4324077 -0.50525796 1.8449115 0.6878929 -0.08826409 1.0293663 -1.1126229
138 1.5466292 -1.3738024 0.8145457 0.27040982 -0.55140793 -1.6711706 1.0570902 -1.1824139 2.1973913 -0.17499343 3.979011 0.5289365 2.7675939 -1.1887933 -0.414793 1.6786988 -0.30727017 -0.32498124 -0.4845156 -3.827963 -0.95979965 -0.1270215 -2.5415344 -2.0345056 0.5153568 -1.4329078 -0.9524203 2.3394432 -1.0310372 -0.33669218 -0.9913726 -2.321808 -2.663657 1.4243308 -1.3379241 0.79550433 -0.63809085 -1.6871709 0.084379345 -0.17637761 -2.414323 -1.2499567 0.46262568 3.1677356 3.0911117 -1.8205616 -2.5209012 0.1470325 1.5091026 -2.3760774 0.91693425 1.5455315 -0.41577172 -4.5897255 -0.9121076 -2.100052 0.8858418 -1.8015482 0.42012236 3.265398 1.6201376 2.7597048 0.24944451 -1.582343
1661 -0.10700439 1.8289989 -1.6590284 0.04512587 -2.5599434 1.2596726 0.84039557 -2.0344694 2.6083925 0.36848393 -1.0311342 -2.8047042 0.6226172 -1.7178546 -3.26556 1.6537068 2.0445426 -0.6571907 -0.4825148 -0.14805672 0.43872637 0.09648379 -0.2475994 0.45436662 -0.3460792 3.5294487 0.1943984 1.345967 0.93739986 1.4973717 -0.40611923 -1.5823509 -0.024758989 1.3759052 0.73802954 0.15379551 -0.72827834 0.5090044 -0.63345593 -1.1630961 1.8253803 2.849574 -4.1660795 -1.3453761 0.11473397 -0.23304258 2.3846066 0.7114732 3.6477582 -2.4638946 0.87560636 -1.3426094 0.47596204 -0.34919032 1.8682983 1.8235132 1.1831224 1.5344545 1.3764191 3.2979364 -1.5454262 -1.280315 3.1098633 1.9379559
1613 1.241305 1.259621 0.6413799 1.4760536 -1.5380867 1.1922115 -0.6346516 -1.1877947 1.9539576 -0.1148451 1.2683403 -1.7199763 1.3685342 -1.502697 -0.014446533 0.8207647 0.34258705 -1.6993053 -1.0547143 0.7455671 0.011981582 1.31206 -0.084973454 -2.5159974 -0.93543404 -0.9053179 -2.0421069 0.98096204 -0.0067525 0.5185907 1.0095757 -1.102021 -1.2378446 2.3505912 0.7349548 0.6958353 -0.51969314 0.22396407 0.12733012 0.24434109 2.4792647 -0.42517328 -3.1064074 -1.9747905 1.3722066 1.1539652 2.2485495 1.7812984 4.077708 -2.8747876 4.1571517 -0.2615772 -1.799279 -3.1738315 1.4937521 -0.110754736 2.4852552 0.43941495 0.56676173 2.8443372 -0.90543467 0.49904186 1.4609536 -0.30025423
748 1.3152229 -0.40471613 -0.5406869 0.5850396 -0.738522 -0.68780017 0.88956726 -0.29803246 1.5303842 0.16294418 2.2802908 -0.028199749 1.9162016 -1.0859678 -0.75044286 1.5921043 0.80016744 -0.65956885 0.3564642 -2.7567956 -0.90216035 -0.58876 -1.7039955 -1.9705942 -0.024255438 -0.5312312 0.09757059 1.712683 -0.52542573 -0.69202095 -0.85305834 -1.9384521 -2.6965647 0.5378453 -0.7790586 0.71767163 -0.6927596 -1.0987644 -0.41935155 0.07651532 -1.5791962 -1.1240233 -0.22134957 2.595139 2.4049826 -2.1739824 -1.6785574 -0.11885079 1.4687091 -2.2965548 0.80699277 0.32660466 0.87666625 -2.6870506 -0.9038804 -1.3446661 1.4323016 -0.9605631 0.28648892 3.1876671 1.4835346 1.3333511 -0.3712555 -0.5742941
1358 0.10480313 1.6267544 -1.6426866 -0.90153587 -2.5117946 1.1820891 1.0047201 -1.2711058 1.3582765 0.0032170361 -0.33011284 -2.1665106 1.2387818 -1.595397 -1.6404222 1.4023503 2.5966253 -1.2375654 0.19646783 -0.6287102 0.052381825 0.54015166 -0.2022446 0.50618064 -0.8429142 2.5235786 0.03168436 0.39868766 0.32672578 0.5546198 -0.4099061 -1.4695772 -0.12587962 -0.045886595 0.5454053 0.33576757 -1.3487861 0.49707633 -0.46340534 -0.52529323 1.4286256 2.2143695 -3.6197355 -1.6103098 -0.08801564 -0.24687505 1.450865 0.6724954 2.354703 -2.6994648 0.5003588 -0.85780627 -0.66511244 0.14655189 1.1279384 1.3811386 0.61987865 1.7078859 0.9795579 2.677615 -1.1164457 -0.9770645 2.2631207 1.087108
1469 -0.3019161 0.629362 -2.6609142 -0.6551234 -2.2413855 0.4637768 0.7688627 -1.4286203 1.7371399 0.42678246 0.03976792 -1.5787288 0.8759625 -1.8198417 -1.3643293 1.5485417 1.4625063 -0.54356295 0.24107897 -0.08109652 0.2856014 -0.26016402 -0.5150911 0.2012359 -0.3080645 2.7944229 -0.79595214 1.439879 1.3121976 0.44499037 -0.4825922 -1.9406872 -0.96173793 0.7458896 0.39351806 0.88346726 -0.79408246 0.27712283 -0.48725018 -0.48806456 1.3616678 2.2544866 -2.9919057 -1.1907673 0.2990952 -0.9694681 1.0476148 0.18241252 2.3825343 -2.309557 -0.45855135 -0.9840426 0.42215723 -0.13277847 1.2182688 1.1902847 0.39054245 1.7141885 0.8806647 2.1419878 -0.766695 -0.86181 1.3593775 1.4364483
416 1.1340414 -0.6979068 -0.6027199 0.38503844 -1.23258 -0.02592488 0.30851167 0.15037963 1.3142769 0.0611569 2.626968 -0.40141556 1.6690578 -0.85451895 -0.23669578 1.6328137 0.98736805 -0.6600898 -0.06310349 -1.880398 -0.29523367 -0.43209943 -1.2091242 -1.6267393 0.1415103 -0.35889697 -1.3759674 0.95582896 -0.41420764 -0.6347407 -0.23576087 -1.6757303 -1.8296419 1.0991926 -0.73311377 0.6813381 -0.2934722 -0.35308766 -0.26324943 0.3540634 -1.929353 -1.1995767 -0.8641391 1.434879 2.2915685 -0.7110153 -0.8285623 -0.07274923 1.7424009 -2.5951312 1.4309235 0.039709125 -0.3374828 -1.9040879 -0.097773395 -0.8660566 1.3852733 -0.119689554 0.42995024 2.3325958 0.5627421 1.31108 0.5752274 -0.6724212
276 2.7469902 0.6818803 0.004857333 0.2636964 -1.8198525 2.6878946 -0.038266443 0.67574006 3.1219575 -1.8906982 -1.6283816 -1.2163154 -0.44488624 -1.0611727 1.2663187 -0.92543083 2.264796 -1.291672 -2.5778298 -0.008748759 1.9981925 2.6924157 -0.47167903 -1.4572884 1.6958476 0.1516501 0.827847 -0.93840694 0.40285996 2.1370447 0.4862829 0.22348726 -0.32566485 0.22757562 -1.1842582 1.9882339 -1.2257358 1.8689177 0.16259556 -0.70113695 -0.1643736 2.0209363 -2.8168278 -0.4721085 2.2941208 -0.2039318 -0.30314898 -0.84249794 0.093484856 -1.185667 0.5371758 -0.90106523 1.1170477 0.20376398 1.3312639 -0.9852171 1.6172919 -1.2060746 0.63688123 1.5911397 1.7464105 0.49102876 2.0484176 -1.4516997
2062 0.889413 -0.5599705 0.1756778 -2.8667638 0.33484215 0.8261193 -0.31820637 -1.0926876 0.13786262 -0.97742844 0.16693893 -0.8811086 0.48519504 -1.425677 1.2960373 0.44268426 0.27107847 -1.9446423 -2.5217102 0.7936634 0.6711663 1.810775 1.0863873 0.58129257 0.4534417 0.2979584 -0.9641235 -1.7806815 1.7440169 1.7689878 0.056410983 -1.3242593 1.1036539 -0.2840919 1.2204736 0.3444178 -1.3215312 2.487646 0.46520528 -2.8139608 1.6176302 0.5236659 -3.8449438 -0.91031307 1.497301 0.6282385 2.01881 1.3853033 1.5193336 -0.48464933 1.3350878 1.1176896 1.0630945 -1.478831 -0.4956414 -1.2284566 1.784073 0.4121966 -0.28894973 1.5496237 1.4460171 -0.09987754 1.1650379 -0.5620736
1323 -0.24849333 -1.7151448 0.7233213 -0.03932028 0.7000642 2.3495576 2.1327455 1.1167358 1.5883058 -0.685081 -0.10632168 0.34154364 0.74348104 -1.6925246 0.33910096 1.4529805 0.7493295 -0.6126085 -2.17831 1.511518 1.5210174 0.6436693 -0.4383091 -0.63970554 -0.043303754 -0.024680406 -1.7095197 1.1785336 1.746595 1.2976749 0.28664303 -2.0870385 -1.589328 2.3868055 0.8812719 1.7748177 -1.983138 2.8357117 0.21483819 -0.7012682 -1.2540182 1.7709818 -1.846726 -0.57699114 1.5727962 0.76296806 -0.99614984 0.9626463 1.4554099 -0.936473 -0.085050575 -0.82726204 -0.42636913 -1.9117358 -0.3862704 -0.20039114 1.3163193 -1.1458353 0.52990466 0.8650103 0.26640058 -0.3358592 1.6231987 -0.44665015
46 2.8732288 -0.661337 0.010545938 0.0715838 0.34952855 0.21696703 -0.91313654 -1.2637995 1.4013121 -1.1562036 -0.59489214 -2.9964962 -1.2996762 -3.0380177 -1.4224768 1.7348315 0.6413133 -2.8189642 -3.266562 -2.3166616 0.83647275 0.011385437 0.82643384 -0.9458989 -0.007413422 1.9563081 -0.96741694 0.79312646 0.72368103 1.6737782 1.2933848 -0.73065645 1.6649412 0.110356994 -0.48818666 1.3384483 0.33532524 0.42639804 1.3934761 -1.8648943 0.65722245 0.18779118 -2.4533179 -0.4182823 2.0867436 0.53712726 0.23070556 1.1032963 2.412953 1.0544438 1.683948 -0.25280213 0.06252159 -1.8817674 0.14602517 0.507713 -0.37098092 -0.08277825 1.0607902 1.7158461 0.5509982 -0.6193163 2.3207316 -1.1859334
268 1.0884655 -1.0569885 1.5297503 1.3966058 -0.484175 1.7250844 1.6617625 1.8119618 2.9891384 1.398018 -0.12084674 -0.009940838 -0.2072186 -1.0929514 -0.18438889 0.066355385 1.1596878 -1.6229086 -0.36308253 -1.1106707 1.9942309 0.12446847 -0.48265684 -0.5422866 0.5489037 -2.0319054 0.14602251 1.881317 0.003231383 -0.29472548 0.92692924 -1.2050576 -1.6066539 0.04297427 0.2008907 2.2339568 -1.8791372 0.15171796 -1.861388 -0.4097346 0.19308627 2.5502532 -1.8785512 0.7951135 2.7575018 -0.9335161 2.2858028 -0.05858308 2.0356796 -2.050777 2.4748433 -2.2483628 1.5995169 -1.7847058 -0.5532581 -0.8819143 1.8771089 -2.156461 0.71927404 1.4709752 0.3882918 -1.4105437 1.4911345 2.5342302
389 -0.055788636 1.8088326 2.8410165 -0.7682586 0.94328713 0.21212605 1.9764476 -1.026301 0.53016186 -0.3066062 0.16462266 -2.0668807 -0.23669037 -1.5769614 -0.32877883 1.650361 2.2631166 0.34238353 -0.8370365 -1.9635686 1.6429021 -0.124529555 -0.5081866 -0.49289235 -0.19011201 1.3324304 -0.9817032 -1.114805 -2.165674 0.29087093 0.43993488 -0.093131244 0.44978303 1.6366249 -0.69613713 -1.0493333 -0.095677 0.22967052 0.7961184 0.04350726 -1.1408585 1.6076316 -2.836782 -0.7399459 2.447702 1.0548792 1.0308992 1.1603931 1.7045023 -0.067251146 1.722745 0.01194421 0.008147232 -1.6189749 0.5171933 -0.15575472 1.7740356 1.301931 0.61461437 1.5615981 -1.1177889 -1.6148876 2.004656 1.1334302
1614 0.7337496 1.1047957 0.9995333 1.4050454 -1.0255948 1.1183908 -0.28338778 -0.58484024 1.6028831 -0.22109693 0.5971024 -1.7450581 0.99443185 -1.4014219 0.057370313 0.39794558 0.4498633 -1.0588824 -1.2227297 1.0034893 0.099067666 1.2444078 0.07124206 -2.0011182 -0.7142218 -1.0446271 -1.8277905 0.67840916 0.1416571 0.7590889 1.024427 -0.61395687 -0.8225805 2.0225987 0.61065525 0.31589702 -0.6457418 0.38381445 0.31515795 0.45745543 1.895637 -0.24324301 -2.3355339 -1.7759718 1.0949457 1.6658884 1.8816704 1.4833373 3.2175856 -1.9847231 3.467329 -0.1629341 -1.4009538 -2.656428 1.298932 0.16073723 2.0970685 0.31356055 0.16477025 1.9539541 -0.69427365 0.5051515 1.1833957 -0.17313486
2546 1.3521194 0.2540897 -0.08538806 0.23864539 -0.76613045 2.3162756 0.43337932 0.74213946 1.9949958 -0.90120214 -0.93450445 -1.1023959 -0.4785421 -1.0343719 0.6770469 -0.41259345 1.4463633 -0.8956076 -1.6415013 0.31259987 1.41727 1.750683 -0.078875355 -0.898226 1.1651405 0.18429853 0.478909 -0.8726795 0.53269017 1.5271786 0.71664613 0.008008796 -0.38349754 0.46879905 -0.8738762 1.3591074 -0.79598206 1.5732468 0.42536473 -0.2821533 -0.1726692 1.0960903 -2.504418 -0.83971065 1.7177955 0.07909389 -0.2879524 -0.39378858 0.2704743 -0.87820554 0.1674608 -0.60622615 1.136514 0.4921097 0.8544965 -0.70007974 1.2832092 -0.23213735 0.36625606 1.4496325 0.96376085 0.21490288 1.1898257 -1.004632
1456 0.77435666 0.3640744 -0.56278586 0.1402672 -2.03489 0.7268484 0.7834937 -0.6305846 1.5493058 -0.33856815 -0.36439803 -1.7533166 -0.21436742 -1.3916204 -1.4406171 0.14935757 1.1767024 -1.263508 -0.76598406 -0.46238756 0.8397257 0.4920619 -0.31396133 -0.009588841 -0.32238054 1.7774564 -0.10516358 0.84467715 0.47240815 1.4398319 -0.7272041 -0.43587565 0.8290339 -0.47263688 -0.088080436 0.770826 -0.88713866 0.69640124 -0.05057709 -0.5478139 1.7233518 1.7585353 -1.5332215 -0.21675839 -0.46377182 -0.3106673 0.838354 0.47998407 0.8138965 -1.4375695 0.685893 -0.17364815 -0.13061954 -0.12942669 1.3692873 1.2670323 0.45235828 0.91583186 1.4911575 1.2560176 0.41583064 -0.7507547 1.5125512 1.2436515
2330 1.7752277 0.21438603 2.0081582 2.245413 -1.1064285 2.4500427 0.8689499 0.6648724 1.4463147 -0.0093286615 -1.3463238 -4.134522 0.5518494 -2.1127217 -1.5081794 -1.361356 1.9925008 -1.3792552 -0.3114081 -0.19591404 -1.2804675 1.0057843 -0.8979736 -1.036618 -1.0776366 0.05077641 -1.2869799 1.1577065 1.080992 0.91827357 -0.3070326 -1.2204176 -0.10830713 -1.4321804 -0.06041725 0.6646918 -0.28975335 3.6176915 -0.31182927 -0.8075169 2.126066 1.9087752 -1.0812961 -0.59284145 1.2783916 -0.42176083 1.6666251 -0.14262402 0.74773985 -1.2130706 1.1436449 -0.28301084 -1.317373 -1.4691772 -0.5999042 -1.2614155 2.8122528 0.054408222 1.2369589 0.08508043 0.42616618 0.1267547 3.0108418 1.0270488
2327 2.6057575 -1.2786806 0.31841245 -0.09493214 -2.30324 0.3776931 1.6746442 -0.18998943 2.2456408 -1.1905843 -0.4870728 -1.2935686 0.7392646 -1.3134384 -1.2497325 0.9267047 -0.051926073 -0.28153843 -2.1614037 -1.1235809 3.0526762 -0.76516443 -1.4561379 -0.9597574 0.84172094 -0.2585318 -1.0063815 -0.006834078 -0.8539055 1.6029812 0.3075564 -2.0803905 0.52366525 1.9035525 0.88033915 2.0411465 -1.0328848 1.017875 -0.9347819 -1.122271 -2.019709 1.6339197 -1.7680085 1.8299282 2.2058568 -0.35901114 -1.2945324 0.6839697 -0.20254718 -2.329212 0.27456298 1.1367054 0.71026796 -0.20506157 2.483345 -1.5920027 0.39617893 -0.51878697 1.7287368 0.95326024 0.33968446 1.9295897 1.4058794 0.049050353
1705 0.9437793 0.51099104 -0.88092864 0.0010298155 -2.0779054 0.6995047 0.7403082 -0.7549887 1.3149997 -0.034261115 -0.48410136 -1.9323223 -0.36087722 -1.4804362 -1.3775498 0.28383732 1.2392815 -1.2876881 -0.28852147 -0.7867504 0.67118603 0.45934886 -0.43354627 -0.11824219 -0.5161746 1.5595757 -0.3362185 0.8847277 0.54379547 1.0517431 -0.90842795 -0.4833287 0.91274375 -0.93170816 -0.06226319 0.6637429 -0.54698956 0.5477895 -0.31273246 -0.09687874 1.4993216 1.7297204 -1.5698538 -0.36923674 -0.27844796 -0.06880967 1.0986648 0.2356789 0.87515885 -1.2757194 0.7330687 -0.25446153 -0.11383468 -0.33364138 1.101473 1.1823318 0.46429205 0.7523183 1.2932578 1.3086336 0.3004282 -0.6190292 1.7292317 1.1375604
525 0.2318195 0.88794506 0.6435467 0.91444016 0.6295832 0.8961772 1.5173751 1.0194921 1.5339048 0.95591587 -0.10725137 -1.8369362 0.7004072 -1.7399328 0.19882023 0.17296343 0.02962904 -0.5279392 -1.2662789 -0.42552337 -1.3681917 0.32803732 -0.9197018 -0.6172456 0.08849767 1.1710205 0.7730934 0.41409484 0.24394779 1.4240218 0.48415017 -0.046628 -1.396168 -0.85081196 -0.67104733 -0.47206253 -0.24911523 0.18836233 0.6450724 -0.23893698 0.19301787 0.9589384 -1.6587639 -0.33085567 2.0605083 0.068328075 0.32145494 1.2904005 1.9036921 0.3712482 0.4080125 0.10356761 0.45341137 -1.0750564 -0.73401225 -0.9048776 1.0195667 -0.10297751 -0.055847522 1.5735871 -0.44917923 0.8072246 2.0987082 -0.71409076
2271 1.7587461 0.289256 0.3430213 0.29840642 -0.84875757 1.1595687 1.3101308 -0.7770848 1.2031065 0.5641827 0.23712409 -1.3686277 -0.16882682 -2.8605995 -0.41517287 0.022130987 -0.78960276 -1.1349751 0.3813683 0.44955337 0.7191904 1.3408312 -1.2380241 -1.2824562 -0.7957094 -0.43041003 -0.64842534 2.300115 -0.6420258 0.45510662 -0.1926956 -1.6138676 0.2606828 0.3924406 -0.28867847 1.4536451 -0.93442976 0.18616898 -0.3666981 0.7208536 0.42813614 1.7101836 -1.6234384 -1.0491053 0.09459407 -1.5512738 0.7480997 0.6208108 0.014662899 -0.80467117 0.89536506 0.08508084 0.06249333 -1.3157105 1.9136266 -1.5443176 0.8983418 -0.82198256 1.5579604 1.8785049 -1.0346166 2.6170292 1.8042836 0.030443426
1933 0.91673464 -0.061519198 -0.84549516 1.141379 -0.39324227 -0.7314301 0.43956 -0.7524827 1.4505147 0.46353057 2.182078 0.045607224 1.493745 -0.92488986 -0.8078727 1.2489629 0.18528627 -0.8769864 0.7374638 -1.8031317 -1.3985755 -0.53319114 -1.8183424 -2.0584369 0.08663025 -0.1363912 0.94407743 2.1882617 0.42484415 -0.15999198 -1.0512981 -1.424788 -2.5102835 -0.12964639 -0.8772026 0.41587746 -0.702761 -1.506131 -0.76018316 -0.082651526 -0.5169763 -1.2739722 0.43643802 2.2177901 1.3187368 -1.6360325 -1.0132498 0.22905885 1.1201518 -1.6050172 0.66189694 0.64939934 0.99613434 -2.7635229 -1.3409137 -1.1132395 1.3047152 -1.2290492 0.18377163 3.1776118 1.6750394 1.7697474 -0.07185708 -0.4056385
889 1.4950916 -0.14523245 -1.5838103 -0.16024208 -1.0559739 0.8356375 0.24352482 -0.90854996 1.2109452 -0.34866065 1.9392414 -0.021811118 0.9331976 -1.583902 0.45287067 1.7112381 0.20039931 -1.4996326 0.04406868 -0.9551102 -0.10671867 1.5198966 -1.213635 -1.4863427 0.2901336 0.9142124 -1.0417211 1.2340561 0.22788422 0.3856158 -0.3474185 -1.1692327 -0.9430623 0.14263082 -1.0460677 0.045132145 0.11060176 -0.33161652 0.5362731 0.083073124 -1.5001936 -0.18253303 -1.0410727 -0.25509444 1.8915994 -0.6897821 -1.2204014 -0.37874317 1.1830524 -0.8529102 -0.45445806 -0.00871491 -0.46991798 -1.7701007 -0.24725673 0.15630841 0.62015474 -0.24178997 -0.3746101 2.1230283 0.48246956 1.492839 1.4784902 -2.4705753
995 1.54987 -0.48207936 1.1197764 1.5721952 0.24205342 1.4984316 -0.88576394 0.7408453 2.1440408 -1.0230665 0.84650666 -0.5022617 2.669991 -0.1507156 1.6189725 -0.6360999 2.7555447 -2.6927693 -1.5696764 -0.44846746 -2.732375 2.0984573 1.1422265 -0.6978113 -0.922153 -0.6493981 1.6974609 0.26918414 0.60970813 0.024609618 1.381279 -0.21299236 -0.31604165 -1.0813046 -0.7335579 2.3851674 -0.8343292 0.6432653 -0.2899505 -1.3446182 1.1884452 -1.4982983 -4.0859504 -0.6385227 1.4875834 -0.382827 2.486798 0.6555908 3.9539156 0.036461882 0.5839012 -0.79439956 0.22385477 -0.4410165 -1.1389412 -0.75269544 1.9649855 -1.0939256 -1.6616558 0.9835679 2.1655152 1.0263625 2.5802672 -1.6928668
1162 0.4179651 0.8047896 0.50159794 0.92557824 -0.76198703 0.62938696 -0.37658003 -0.46572158 1.0730923 -0.10172369 0.5548768 -1.1325176 0.69728255 -0.91615415 -0.015986059 0.30587336 0.14402297 -0.5167195 -0.7990637 0.60476935 0.088090956 0.80072707 -0.024458019 -1.3131042 -0.3203715 -0.59202063 -1.2780578 0.43251234 0.060882952 0.5657044 0.5830765 -0.35249045 -0.5755095 1.426694 0.36306512 0.09019715 -0.27761957 0.17853433 0.23317626 0.34397528 1.2932405 -0.35466945 -1.4471551 -1.226128 0.66246223 1.165384 1.2837559 0.87774307 2.1955826 -1.381301 2.362441 -0.08900212 -1.0441077 -1.6419318 0.9520661 0.18379238 1.2798406 0.23654981 0.06936659 1.3391873 -0.57631266 0.44236138 0.7195344 -0.2367078
616 1.4256477 -0.80016404 1.1914973 1.2250779 -0.57016057 1.5643666 1.2256371 0.9680684 2.793072 0.8089998 -0.2051899 -0.27705783 -0.21760388 -1.2333001 -0.23025604 0.35396942 1.1269296 -1.8855282 -0.7246741 -1.0164237 1.6687822 0.36168224 -0.47329384 -0.67224306 0.59299594 -1.5024596 -0.021407532 1.902131 0.13970098 0.16260287 0.79280347 -1.4387103 -1.1773725 0.29940566 0.15041457 2.2302155 -1.6593679 0.2752277 -1.4299783 -0.80159074 0.41706872 2.356655 -2.2639463 0.5115215 2.515277 -0.9877318 1.9392822 0.23534979 2.0382943 -1.8739218 2.1202133 -1.8562194 1.4785854 -1.8062834 -0.27059278 -0.74973905 1.6976835 -1.8485096 0.7282672 1.4835104 0.6131911 -0.8968995 1.6714694 1.7882236
819 1.001117 1.2152772 0.2717206 0.08222365 -1.6548395 0.9205342 0.1124536 -0.66999406 0.85100985 -0.68835795 -0.20915526 -1.0645094 0.76168007 -1.1372211 0.08053458 0.63096565 1.2740654 -1.1269455 -0.44800332 -0.0153320795 -0.14340414 0.66179913 -0.08315061 -0.36371455 -0.3627296 -1.2225821 -0.69367933 0.636963 -0.025667751 -0.75547326 0.8324128 -1.1026702 1.699556 0.9741659 1.4469349 1.5306156 0.37043315 1.4760208 -1.7839799 -0.34516189 0.64517194 1.6120915 -2.813483 0.4658227 2.1085932 0.47263792 1.5025116 0.86595154 -0.39718 -0.77642775 0.86599517 1.204056 -0.41640994 -1.2324436 0.29986262 -0.932773 1.097184 -1.1459594 -0.12336445 1.0682954 1.9129659 0.42323288 1.3987434 -0.01345376
2213 0.94251955 -0.34369847 0.5056053 1.7477002 -0.1796341 1.5568836 0.15641907 0.9075873 1.5426582 -0.06513385 -0.52334565 -0.3564642 1.2159175 -0.7976582 -0.3684372 -0.60578024 1.3727552 -1.8826416 -2.116198 0.26305744 -1.0831956 1.4402624 -0.18309529 0.43746942 1.1563978 -0.0918091 0.72325927 1.6857793 1.9442899 1.2410244 0.6061608 -0.20946252 -2.03892 0.113524206 -0.2551695 -0.03353626 -2.8580751 0.97374403 0.58728224 0.34929317 0.58690834 1.031399 -0.47177562 0.2206883 -0.18042712 -0.16549201 1.2997973 0.9950926 1.0075871 -0.063463114 1.2932743 0.6746536 0.06760277 -2.0616214 -0.3343598 0.25756928 1.0870494 -1.7993037 0.21801324 1.2374345 0.9056908 0.19877847 0.42582858 -0.5721104
1044 1.0880504 -0.79135716 -0.8723589 0.88978153 -0.25142357 0.8583348 -0.8947974 0.17545328 1.7520871 0.26044124 -0.33418822 -0.83579355 -0.30759713 -2.2590315 -0.18686198 0.12476674 0.5965178 -2.5883012 -0.23820731 -0.07719274 -0.23282875 0.0022294258 -0.15715908 -0.568237 -0.72131795 -0.5314691 -0.6526031 0.69354165 0.041844998 0.10064799 0.3964357 -0.29427478 0.19489266 -0.46716484 -0.3949288 2.0710943 0.50711745 0.41645777 -1.1896186 -0.11858657 -0.72025836 -0.28184068 -2.190731 0.23502861 2.2076702 -1.4316463 0.26801842 0.62078005 1.3104299 -0.3763211 0.12885459 -0.40587455 0.33813894 0.033654276 0.49286562 -0.7754293 0.56656957 0.54725844 -0.1283564 1.2920398 1.014146 0.7475671 2.2505522 -0.22739919
2421 1.389182 -1.5627887 -0.16828562 -1.1520506 -0.71690714 -2.2425463 0.03463347 -0.59508574 2.0648632 -0.5013862 2.1970866 -0.92208713 0.6678599 -1.1195741 -0.69235665 1.2863647 -0.15806597 0.44504154 -0.5233497 -3.4278262 0.15877138 -1.6888463 -1.6031082 -1.2201353 1.2431676 -0.91178817 -1.2563924 0.18850459 -1.8810489 0.12856503 -0.1652428 -2.3900318 -0.7134583 1.4478707 -1.4250649 0.9948655 0.9462338 -0.18364902 0.8539835 -1.3955729 -3.1351836 -1.2631085 -0.7797025 1.8321681 2.4754515 -0.8225472 -2.1733575 -0.9904039 0.6781015 -1.9110246 0.256397 1.3308088 0.15862173 -0.81358385 -0.059468746 -2.2362216 0.23828207 -0.7431317 0.8568602 1.1252308 0.4673507 1.9617693 1.2617636 -1.1202211
1993 1.6261913 0.65359163 -0.15874684 0.19456947 -0.963413 2.302515 0.35103732 0.7941936 2.421197 -1.0767562 -1.4122204 -1.394721 -0.49614236 -0.93258697 0.5642822 -0.5758718 1.9056884 -0.6068352 -1.9084144 0.07751899 1.4965973 1.7679439 -0.12691274 -1.0264466 1.3705066 0.38366982 0.73992527 -1.0744481 0.5481694 1.5389605 0.69655186 0.12887062 -0.25823566 0.4066611 -0.75933343 1.4588745 -0.6919145 1.6306243 0.269708 -0.41612044 -0.018128717 1.4053711 -2.7943528 -0.7033434 1.6809294 0.2620067 -0.19343287 -0.46388867 0.21050468 -0.9056503 0.4199398 -0.80822045 1.0454364 0.66470784 1.0386864 -0.7353509 1.571663 -0.65595937 0.5500349 1.4648538 1.0606575 0.008863401 1.7072555 -1.1256194
238 2.3558128 -0.714108 0.15821101 0.061735425 0.80585414 0.063244015 -0.849309 -1.1112287 1.1092716 -1.0318778 -0.4700253 -2.751015 -1.2275559 -2.9600866 -1.0516721 1.3058448 0.5113053 -2.3097959 -2.9320383 -1.97734 0.5770786 0.18200575 0.75332594 -0.5462079 -0.026241723 1.5065272 -1.0109 0.6336553 0.6835196 1.5113146 1.0936128 -0.46670026 1.3543863 -0.11713282 -0.81241775 1.0118188 0.12039041 0.40765157 1.4822644 -1.2721473 0.4746728 -0.27250388 -1.8704253 -0.7045475 1.7846937 0.4964394 0.4172352 1.004788 2.165952 1.5359868 1.3718675 -0.12505943 0.16307527 -1.671983 -0.15997005 0.528745 -0.6611308 0.19341506 0.46593824 1.4564587 0.46790707 -0.3825532 1.6489402 -1.0924892
867 1.4218159 -0.4633147 -0.4520934 -0.15787768 0.40021443 0.22085986 -0.71487916 -0.7767063 0.6346715 -0.31142184 -0.25233966 -1.5429995 -1.0023952 -1.8383486 -0.8121393 1.1160804 -0.18207125 -1.7538047 -1.6179992 -1.2264999 0.6776901 -0.24774075 0.45103052 -0.4919249 -0.086372666 1.4096171 -0.75796515 0.52944636 0.36623698 0.9719911 0.50142854 -0.42563295 0.9239766 -0.20824943 -0.21421976 0.6329467 0.5792134 0.15864277 0.79020256 -0.8673292 0.47020966 -0.064615294 -1.1027132 -0.5010244 1.1209939 0.13237952 -0.013256883 0.24693611 1.4255209 0.7176856 0.7018207 -0.0879428 0.33075005 -0.9620752 -0.12477826 0.34882063 -0.563354 0.09891242 0.5197306 1.2773428 0.0716036 -0.1168022 0.82380897 -0.58497614
185 0.03135283 1.430627 2.0139327 -0.5117074 0.6940808 0.29281107 1.4261546 -0.9987056 0.62491304 -0.2781377 0.057576176 -1.6940356 -0.18451986 -1.6456739 -0.17703728 1.4941126 1.7595769 -0.045448918 -0.8060753 -1.8597329 0.99144185 -0.07029106 -0.47127214 -0.5379773 -0.20024134 0.9731196 -0.78662163 -0.6034621 -1.6345565 0.39822495 0.23795731 -0.3115963 0.23935583 1.2160445 -0.42610693 -0.60759366 0.008856593 0.20051087 0.43907377 0.00827943 -0.8102761 1.3979322 -2.4828513 -0.5868737 2.3671503 0.59939367 0.64771783 0.989347 1.3756617 -0.27631423 1.4698781 0.12200343 0.0438405 -1.7156821 0.06492659 -0.27126718 1.3070511 0.79759353 0.42274812 1.6591544 -0.5232554 -1.0079181 1.6826086 0.7935853
36 0.68299925 0.45270523 -1.511661 1.5548117 -0.5021443 -0.57956254 0.061566066 -1.2227663 0.97944814 0.91223145 2.3711147 0.3253645 1.0772419 -0.50653124 -1.1474109 2.064281 -0.2902735 -1.290425 1.8539762 -1.4465421 -1.3274658 -1.0718983 -2.0647025 -2.626126 -0.187663 0.9769999 1.106788 2.7663412 0.20182173 -0.44359913 -1.317168 -1.574151 -2.8416824 0.1042692 -0.55784714 -0.19564447 -0.048846107 -1.7405481 -0.96609646 -0.121868454 0.017643917 -1.2648487 0.4943421 2.1286972 1.1256977 -2.2630224 -0.88904285 0.05723591 1.2795097 -2.0459406 0.35728914 0.34189573 1.5057443 -2.8524194 -1.47916 -1.1045167 1.6123952 -0.888736 0.59611964 3.6409955 0.9428766 1.6454701 -0.4919469 0.11967722
1816 1.065577 0.21926197 0.27320877 -0.57432437 -0.04977482 0.32829213 0.6218905 -0.815386 1.8660022 -2.1685667 -1.661987 -1.409686 0.12177471 -1.9300727 0.24490492 0.6592505 0.20908162 -1.146675 -1.102113 -0.41549563 -0.11914851 0.103620425 -0.94471294 -0.71014977 -0.5005178 -0.184498 -0.82855296 -0.5493381 0.7153809 0.65272206 -0.5198505 -0.32418156 -0.35185796 0.13318548 0.60044813 1.4031297 -1.3329705 1.6855413 -0.07790467 -0.79299283 -0.31114456 0.09298782 -1.960191 -0.96179324 0.91725373 -0.25632647 -1.7611827 1.9498221 -0.38976765 -1.2392838 0.61727583 0.5366291 -1.350195 -0.86781496 0.93906534 -1.1420337 -0.130505 -0.20624347 0.98372865 0.19201119 -0.08822636 0.43383643 1.7098978 -0.8035683
117 0.9511712 0.22113949 0.14649902 -0.22812757 -0.4604567 -0.5658104 -0.33216172 0.55504036 1.9812039 -0.16733943 -0.5065092 -1.6512197 -0.3457747 -1.2350813 -0.96844506 0.82105196 0.80354697 -0.46541867 -1.119699 -0.8910041 0.18357538 -0.8100238 -0.9928758 -1.1123102 0.7170998 1.0978225 -0.32041416 0.9995147 1.3413166 1.5238394 0.20957926 -0.73356473 -0.77549046 1.0184637 -0.813995 -0.06396943 -0.16723278 -0.43973902 0.8081517 -0.26393062 -1.4243917 0.38226837 -0.274346 1.1994975 1.1709493 1.6840296 -0.94052005 -0.5712637 1.3626891 -0.590799 1.8340425 0.20660475 -0.23128925 -2.061399 0.40418637 -0.69285655 1.6260864 -0.997184 1.538907 1.075677 0.052973438 -0.28833997 2.892976 -0.21799661
1642 3.3689158 -1.7773961 -1.4900689 2.1240113 -1.6115868 1.03602 -1.3968326 -0.4320797 1.5430896 -0.95688546 -0.5940241 -0.5716492 0.56123066 -1.8645985 -1.7421592 0.591559 0.1142419 -2.683558 -2.67608 0.0014257338 -0.63793015 -0.7433018 0.64957577 -0.34681958 -0.30274743 1.4178613 0.25174892 1.6703184 2.2448144 1.0286503 0.85954744 -1.3196702 0.43473038 1.0533109 -0.88955575 2.7218285 -0.8069435 1.4644836 0.071634114 -1.5218248 0.93604296 0.39464903 -0.9492547 1.9025887 0.5967155 -1.239382 1.3375436 2.7458344 1.4217001 -0.083575025 -0.99691606 -0.6520783 1.0828046 -0.64125025 1.4921502 1.2830734 -1.0311629 -0.11465832 0.06105381 0.51115173 1.1134775 0.35140288 1.2621255 -1.9015415
2034 1.6301928 -0.7760319 0.2962178 -0.18282336 -1.5831403 0.27058187 1.185464 -0.02964632 1.5010574 -0.85032326 -0.6792696 -0.9494774 0.43362316 -0.79076356 -0.872622 0.35901132 0.080433115 0.017483357 -1.6723703 -0.66948956 2.1575181 -0.5299306 -0.8567611 -0.35890996 0.46970844 -0.118896395 -0.46857005 -0.2558082 -0.44940573 1.2384222 0.20943063 -1.2731761 0.55596995 1.054904 0.83746505 1.3267274 -0.72030455 0.87740254 -0.66599685 -0.8067035 -1.0521028 1.2523397 -1.2211071 1.1292071 1.1811999 -0.0012227186 -0.74922013 0.3781915 -0.21411434 -1.4468734 0.088713534 0.823932 0.47679034 0.13702741 1.6817039 -0.9589862 0.104393214 -0.31361017 1.1213562 0.36907893 0.29434308 1.0436567 0.77880174 0.2402573
799 1.3126475 0.9349639 -0.20552982 1.0665748 0.26986122 0.2875474 0.7496583 0.6907482 1.3944408 -0.19115242 -2.5269876 -1.4008633 0.045341857 -1.1203104 0.458239 -0.021604719 1.0966204 -0.17896456 -1.7431636 -0.2924406 -0.13662708 -0.36441484 0.2771373 -0.6563887 -1.8043989 -1.0154932 -1.0142272 0.17703184 0.21523532 -0.910534 0.015568173 -0.63039154 0.2241706 -0.26526204 0.9888602 1.3740846 0.51245964 0.6746592 -1.0496831 -0.17627218 -0.27171955 1.3442605 -2.0542874 0.44308457 1.4820853 1.2476252 0.92687166 0.6377699 1.0769949 0.8237157 0.48007998 -0.6094852 0.38741726 -1.6177846 0.51881975 0.25251165 0.60538167 -0.34834665 -1.494938 -0.51579607 1.438162 0.8184866 1.2512553 -0.5187471
1631 1.723009 0.32572284 1.4641296 1.9057485 -1.1669145 2.0732608 0.6867169 0.4196947 1.4164901 -0.06544873 -1.1757053 -3.3793929 0.5440829 -2.003415 -1.1294986 -0.90600264 1.8219545 -1.3801883 -0.4489363 -0.14835717 -1.069721 0.9574801 -0.7759997 -0.9742336 -1.0245873 0.076942086 -0.9355176 1.1693909 0.9369321 0.86503714 -0.07805688 -1.1214391 -0.17065711 -1.0092252 -0.048980508 0.6607679 -0.54545385 2.8226733 -0.26375046 -0.54076743 1.768983 1.7064128 -1.1459637 -0.44434896 1.2146851 -0.33894938 1.4568067 0.10218058 0.91606843 -1.0876852 1.0202787 -0.18100002 -0.94685024 -1.5626838 -0.36151174 -0.9046858 2.218722 -0.08361263 0.85114443 0.46723092 0.46963954 0.23934296 2.546981 0.69685984
1376 1.1903927 -0.0013711441 -1.4108512 0.50505924 -0.04220475 1.1074679 0.7609768 -0.4757532 1.4739063 -0.72689366 -0.60847086 0.20393884 0.5124264 -1.7535301 1.5907761 0.48933995 1.7648369 -1.1074156 -1.5604157 -0.6799817 0.29857957 1.3563143 -0.2645558 -0.57451934 0.39963323 -0.12333402 0.7525203 0.3743049 1.6721672 0.89361036 0.23096822 -0.74199957 -0.26160598 -0.2743117 1.2730232 1.4517565 -1.9414719 -0.28390113 -1.1785488 -0.5098999 0.46307752 1.2248387 -1.6281458 -0.6639959 0.21550608 -0.092147686 0.027290313 1.5260626 -0.70763665 0.298904 -0.899594 -0.036602 0.07225525 -0.9527802 -0.4362955 0.5177877 -0.9645992 -0.5372129 -1.1219767 0.4924814 0.5671192 0.85005474 0.9248921 -1.2477754
1454 -0.057318974 0.557079 -0.67359984 1.1980963 -1.2509216 0.3012836 -0.15979508 -0.1334397 1.1928669 -0.83902496 -1.1207343 -1.2672442 1.8123487 0.013592272 -0.026576007 0.038180612 0.16174996 -0.7779642 -1.258274 0.26603222 -0.8307867 1.2072061 -0.7739599 -1.7492388 0.57374305 1.1636682 -0.83935404 1.1485593 1.8897967 0.10201933 -1.144177 -1.2474432 -1.8388746 -0.68792415 0.5150204 -0.13007276 -0.4129804 2.3716965 0.21953392 -0.45717368 1.5471667 1.3963245 -1.4894191 -0.8019479 1.2572366 0.05041858 0.25072256 -0.3807119 0.72957444 -1.0644974 1.0007074 -0.8115437 -0.77644014 -0.4441679 -1.0240366 -0.4712219 0.7061773 -1.7173223 0.59846985 0.5831218 0.24526852 0.16642831 1.48884 -1.1833534
1825 1.5022777 -0.43477106 0.75436306 0.03168381 1.2856263 0.093087554 0.32603616 0.47179157 1.6399294 -0.9587376 -0.33310506 -1.0428665 -0.90216327 -0.8563337 -0.70482343 1.0422282 1.9790933 0.3914587 -0.7942626 -1.2758598 0.19712766 -0.4686695 0.34827095 0.099254444 0.28231597 -1.0186379 1.2612737 -0.55281585 -0.86362225 0.5089511 0.7252908 -0.66370875 0.115150586 1.1750859 0.74651605 1.6788876 -0.76656073 -0.3865304 0.26701155 -1.6288928 -1.7508198 1.5713099 -2.2184856 0.43499282 0.22048172 0.7116418 -0.15073052 0.9359126 0.89989156 -1.2960869 0.4768751 -1.4832422 -0.14315848 -0.07624449 0.9344017 0.29666036 1.1685495 -0.09205653 0.11889691 0.30747378 1.7624574 -0.16724737 2.2136188 -0.3488643
2331 1.5009537 0.25780252 1.41905 0.62004656 -0.62437546 0.4042188 0.10464146 -0.7832163 1.8419396 -0.8644141 0.3803612 -1.2221688 -0.24747927 -0.3147891 -1.477347 -0.30162823 -0.040569443 -1.6846219 -0.8728094 -0.15222724 0.6542749 0.5726715 -0.58964825 -1.6794679 -0.6614065 0.9477796 -1.2122756 0.14942923 -0.60143983 0.9378731 -0.3992333 -0.38797557 0.2978925 1.1528394 -0.60822874 -0.18111965 0.6176717 1.1971333 1.0203172 -1.3190715 0.35681516 -0.24834533 -0.90114063 -0.39466172 0.77055955 -0.41344243 0.5521105 1.4031273 1.6209644 0.049744353 0.10952005 -0.36846533 -0.1132472 -1.6924188 1.1500052 -0.83266234 1.2260097 0.43217692 0.7704805 0.0762897 -0.18821864 0.23228121 2.0012589 -0.37535682
2645 0.663181 1.0192066 0.026481094 1.1429045 -0.02748801 0.84968275 0.4059656 0.57791036 0.9539179 -0.33186948 -1.4856815 -1.6913582 -0.31390777 -1.8145534 0.41702387 0.113417305 1.6623107 -0.3285949 -2.5005736 -0.49178568 -0.8364545 -0.24024455 0.7428875 0.28808844 0.58330476 0.033314582 0.6228517 0.55150604 0.641183 0.27229732 2.0296676 -1.2133067 0.27716717 1.2894136 -0.8416069 0.46083897 -1.0763829 0.31436723 0.9432741 -0.16347562 0.056129184 2.210358 -2.0592813 -0.042692434 1.5396744 0.79072106 0.89298815 0.9109491 0.13828191 0.12655754 0.5407253 -0.053017918 0.37268132 -1.1940113 -0.0647704 0.4380363 0.8911676 -0.24992302 -0.46495578 0.75978255 0.12847738 -0.3176411 1.4120667 -1.7425729
684 0.30078202 1.1185381 0.6020483 0.9991023 0.7328838 1.0432935 1.7972097 1.208755 1.827115 1.0502301 -0.2389838 -2.1854734 0.98263466 -1.9089633 0.15026157 0.2758974 0.19898103 -0.69388324 -1.3931601 -0.71062803 -1.3211554 0.4555312 -1.0086821 -0.9122902 0.02342163 1.5318921 1.0373726 0.24228868 0.27368608 1.7018453 0.029760808 0.17696549 -1.7974608 -1.3040575 -0.6177801 -0.6719311 -0.3404699 0.3926876 0.75484633 -0.3245695 0.2418934 0.94541436 -1.866378 -0.4479371 2.1409037 -0.038342364 0.285314 1.4688255 2.2889333 0.11697033 0.7006232 0.13996631 0.49401337 -1.3666153 -0.8321466 -1.211781 1.3302195 -0.1839112 0.042290315 2.0300267 -0.48786327 0.94250643 2.250917 -0.6808001
2571 0.72260374 -0.09268239 0.90953374 0.60278326 -0.47241822 1.0295963 1.101318 0.6612467 1.9061096 0.5652834 -0.05971637 -0.11655095 0.23340717 -1.3581748 -0.109514356 -0.031204462 -0.19801986 -0.97900534 -0.21502383 -0.34971258 0.9708039 0.0943374 -0.71654385 0.01718897 -0.07143569 -0.9075646 -0.0036805908 0.8267194 -0.3261074 0.3595491 0.48360795 -0.5026109 -1.1277444 0.113463335 -0.0057115443 0.7812431 -1.2512124 0.22752005 -0.9728009 -0.18865037 0.0119151035 1.5173734 -0.77908003 0.13680938 1.7821573 -0.62907404 1.1187354 0.4233168 0.9422951 -1.1629845 0.6130355 -0.2287187 0.8706537 -1.3625203 -0.036744926 -0.4486534 0.39578173 -0.71602404 -0.02870265 1.1492971 -0.21827506 -0.022392595 0.44283393 1.2684767
1726 1.2261859 -0.19144093 0.27999744 0.8791812 -0.37488404 0.2921087 0.5677223 -0.9048984 1.751686 0.4412523 0.3663579 0.28894988 0.17461857 -0.3494416 0.27594706 -0.25483975 1.3826632 -1.539631 -0.37572742 1.3639017 0.8723115 0.88469416 -0.8005115 -1.16477 -1.0462432 -0.546437 -1.4033791 1.2569907 0.68434405 1.0652068 0.6572253 -0.6325849 -0.26348925 0.7251316 0.10519597 0.5936782 -0.26430959 1.3368118 -0.4625716 0.11223005 -0.094541274 -0.3115501 -1.4500676 -0.45858786 0.5170749 1.0314698 1.3067483 0.60541946 1.7211078 -0.3445695 -0.16034101 0.40892908 0.11269252 -2.597554 -0.29496264 -0.69948256 0.8489884 -0.21958287 -0.48388654 0.41571644 1.2306526 0.09108048 0.9550519 1.6449605
892 1.8905212 -0.35574445 -1.0338115 0.33843395 -1.4037396 0.6724369 0.4129951 -1.2003561 1.4371893 -0.2818402 2.8093593 0.2848725 0.79409397 -0.5958065 0.010749541 1.7437408 0.55668515 -1.3821027 0.08390595 -1.6357335 0.6121314 0.773079 -1.3101393 -1.0441407 0.066212 1.4494171 -0.6337212 1.2024194 -0.6926981 -0.65161395 -0.32512408 -1.524983 -0.7363118 0.509478 -0.92392 0.5047556 0.4069406 -0.5897538 -0.0020988227 -0.6250197 -1.137521 0.23516169 -1.5174657 0.36414364 1.9685796 -2.0460494 -0.14529726 0.1455028 1.0787826 -1.5210031 -0.47146457 -0.8885997 0.16505226 -0.7430913 0.31421056 -0.40092948 0.8745205 0.60920876 0.7691124 1.4994633 -0.5135004 0.79212415 1.233025 -1.692111
115 1.2426807 -1.8427637 0.15492989 -1.2809094 -0.057117514 -2.1080995 -0.10785802 -0.427337 2.204561 -0.856162 1.3708255 -0.7446583 0.85983396 -1.0486386 -0.87450147 0.9285144 -0.50172675 0.4991283 -1.57962 -2.908196 0.13212638 -1.2042876 -0.9284984 -0.62286717 1.6462777 -1.1606724 -1.0421609 0.025999751 -1.5310204 0.60512346 -0.050511718 -2.3483558 -0.95130515 1.8219917 -1.4914412 1.1799859 0.2759584 -0.09048565 1.3134568 -1.6674676 -3.1602025 -1.3557136 -0.82102877 1.6237582 2.1459374 -0.77544004 -2.1012075 -0.7887633 1.1722367 -1.4474323 0.23365863 1.0490891 0.68539965 -0.5279291 0.11053768 -1.8004512 -0.3663096 -0.98830223 0.55036837 0.8711874 0.37254155 1.8708526 0.92746985 -1.2886066
1686 0.76471174 0.024021994 1.0483813 1.0272605 -0.32386765 -0.22678995 -0.77246326 -0.5583625 2.1494758 -0.27477366 0.019874219 -0.68709034 1.1264616 -0.2162099 -0.79712135 -0.31829128 0.92920303 -1.4765444 -2.031354 0.70274353 -1.0234792 0.2694605 0.09883518 -0.27005804 0.0878564 0.10456469 0.5882024 0.16789708 0.45105603 1.4060624 1.2005001 -0.591672 -1.2408537 1.3481575 -0.26655117 0.3523783 -1.5121914 1.289111 1.8146535 -1.649699 0.9770057 -0.20524277 -0.91428167 -0.058389354 0.577435 0.025237773 0.10023033 1.1288433 1.7226307 -0.8866436 0.7181765 0.42252532 -1.2638482 -1.0590041 0.2014598 -0.7858269 0.349649 -0.20942084 1.271979 0.36091205 -0.27071312 -0.31777468 0.95201105 -0.682431
1584 0.92623645 -0.017555976 0.22833791 -0.97916055 -0.5950849 -0.14813751 0.80142957 -0.66167027 0.68864965 -0.8128161 0.05520376 -0.5050491 1.0078889 -1.1337613 -0.35760453 0.97331595 1.0014174 -1.0008545 -0.21588275 0.3252377 0.11950833 1.5751715 0.1812974 -0.56034195 0.077946655 -0.54924047 0.15239406 0.71877706 0.32449943 -0.465601 -0.5138729 -1.0126032 0.074902296 -0.7317935 0.29069865 1.4472598 -1.7812567 0.7128113 -0.095414005 -0.31376347 1.1901696 0.3578242 -2.470642 -0.23953906 -0.5530147 0.6513567 0.8099142 2.1438637 0.8899256 -1.1791384 0.8641041 0.26569217 -0.79189724 -1.0139505 -0.3570729 0.08783841 0.2971819 -1.6082767 0.2597334 1.3717486 0.92418 -0.58025014 1.7737281 -1.6540508
1769 1.0832355 0.32594317 1.0649656 1.2165102 -0.74994475 1.3516792 0.41030845 0.27072135 0.80484587 0.013790354 -0.7465641 -2.2197573 0.39024943 -1.2239659 -0.70994097 -0.5922804 1.2138766 -0.7911894 -0.15481006 -0.041854396 -0.7439297 0.5744586 -0.48781902 -0.61949086 -0.67024827 0.06468899 -0.52172464 0.6991923 0.43283138 0.5538786 0.018503262 -0.7076219 -0.05050257 -0.6792228 -0.05432166 0.30557838 -0.40914977 1.796115 -0.13562262 -0.2806744 1.116878 1.1227825 -0.5858814 -0.16604915 0.74236906 -0.1942283 0.94261026 -0.081320405 0.5772815 -0.7374639 0.74136335 -0.062533766 -0.6372837 -0.9317899 -0.2709528 -0.6018146 1.4410068 -0.050365083 0.52897555 0.23994237 0.28239393 0.10974449 1.5661412 0.51786256
467 1.8624042 0.73636794 0.0336089 0.46501848 -0.9178808 2.3546283 0.31350112 0.7723205 2.5294073 -0.98692983 -1.2731212 -1.07529 -0.6122312 -0.84384805 0.69564074 -0.40477964 2.1090379 -0.6962089 -1.6503059 -0.22116065 1.8882314 1.9611495 -0.29182345 -1.2568576 1.5202507 0.42080763 0.7429151 -0.8602274 0.35858786 1.4302971 0.4651158 0.36363927 -0.3042558 0.36556616 -1.06255 1.4552248 -0.4756566 1.455505 0.15264843 -0.24658105 -0.28317395 1.4926126 -2.5694385 -0.5553797 2.0722792 0.065750554 -0.13857466 -0.5630952 0.25269234 -0.688532 0.42513642 -1.1442399 1.261633 0.24016878 0.9026509 -0.71935165 1.7275605 -0.8353459 0.4669437 1.4887756 1.2750329 -0.07754862 1.7388521 -1.030392
812 1.537908 -0.922517 -1.1035744 1.1027732 -0.56207806 1.0280201 -1.1816118 0.08734988 2.1563354 0.225624 -0.5095793 -1.0583361 -0.25854388 -2.7400784 -0.26442242 0.17811324 0.7840439 -3.3018353 -0.3099447 -0.11058397 -0.23029716 0.010124456 -0.20177351 -0.7423996 -1.0125294 -0.5892654 -0.90726453 0.9761048 -0.04484614 0.06978331 0.4846559 -0.44196475 0.2830766 -0.5598534 -0.5278228 2.602524 0.6023629 0.61192536 -1.5273508 -0.12793122 -0.84578717 -0.2117749 -2.7223463 0.39167777 2.7447066 -1.8070128 0.48430684 0.779965 1.720104 -0.48479152 0.14720081 -0.50072885 0.45115605 0.018943444 0.81596947 -0.8524243 0.60418165 0.67520195 -0.17967945 1.5154308 1.2522727 0.94242287 2.8620758 -0.2806313
1842 0.53849775 0.062277313 -0.73991525 0.22307779 -0.5398565 1.4841785 -0.05141092 0.12582867 0.55973756 -0.5787633 -0.47432685 0.22427893 0.38917837 0.01793193 -0.6546751 1.5398475 -0.33675283 -2.626448 -0.7434823 0.54926443 0.32768494 -0.1936897 0.57640755 -1.3059143 -1.2824547 0.9893769 -1.3503444 -0.425238 0.59724677 0.55211896 -0.097904555 0.385653 0.14816943 -0.42158425 1.357623 0.8630537 -0.5233642 1.507573 -0.7919162 -0.786646 0.38909426 0.17822887 -2.2199073 -0.36866215 1.4649453 -0.32301304 -1.3875484 2.150361 1.0987935 -1.3640662 0.5699233 -0.6253133 -1.0583016 -1.2451102 0.14652966 0.03866702 0.79381096 -0.14160171 0.09652376 0.4033967 0.45225078 -0.15790115 1.3359641 -0.0512174
1157 0.2706723 0.05157824 0.479859 0.81406736 0.19103387 1.6048799 -0.020134134 -0.01223249 1.8540125 0.04551531 -1.010914 -0.46917018 -1.0272179 -0.78537124 1.6419758 0.097245514 0.58260065 -1.3721989 -0.80328125 0.49353394 -0.5090226 0.621174 -0.1789338 -0.242446 -0.23953576 0.8711027 0.24985059 0.6912915 0.6050214 2.0291855 0.5232926 -0.556657 -0.81400394 0.7545263 0.1230305 0.35596272 -0.4817424 0.6411653 0.047149397 -1.9216537 0.5503211 1.1184416 -1.1345372 -0.19937244 1.8522474 -1.0459454 -0.5602434 -0.42640454 1.3186612 -1.4218959 -0.75127816 -0.51738065 0.49953768 -0.62317574 -0.69115317 -0.19773728 0.41423878 0.07836762 0.013253282 0.14686985 -0.29282117 0.121245325 0.66867626 0.7999058
270 1.4480426 0.65831286 -0.10250774 0.24522676 -0.8475143 2.0810752 0.24898955 0.708622 2.0987365 -1.006173 -1.2602444 -1.1234243 -0.41248518 -0.69962794 0.43260586 -0.50676864 1.5271329 -0.42760834 -1.7561773 0.010644438 1.3592355 1.5698246 -0.09145196 -0.81010294 1.3017809 0.50749665 0.7502348 -0.9314644 0.4534995 1.3143793 0.49965653 0.28381243 -0.28939465 0.4054057 -0.7684773 1.1928252 -0.5927461 1.37867 0.23449168 -0.41569778 -0.132865 1.3750595 -2.2548888 -0.46671137 1.4325268 0.057859737 -0.15836503 -0.3618983 0.077713914 -0.66162574 0.2763894 -0.7845633 0.9460192 0.65460324 1.0374924 -0.6383868 1.3295684 -0.54645056 0.49100947 1.227955 0.8757227 0.022549424 1.4773268 -0.98381776
1923 -0.047289364 0.24617554 -1.2677903 -0.7117533 0.059120134 0.0034241127 -0.45012292 -0.82980347 1.2410561 0.34523752 0.54158384 0.25912404 0.22330156 -0.1890341 0.677328 1.7177556 -0.44845715 -0.59638673 -0.52733934 -0.8777117 0.6859086 0.033942934 -0.2140202 -1.4913725 0.16749175 -0.094562836 -0.24039881 0.57381266 -0.29771915 -0.5691867 0.02705558 -1.6513339 -0.8323413 0.9760784 1.5788089 1.2455126 0.22371382 0.25172022 0.39498594 -0.6001289 0.13530391 0.7103028 -2.69302 -0.73893046 1.1871067 0.15320593 -0.6006815 -0.82003313 1.6542083 -1.2324646 0.9358022 0.3499616 0.13747545 -1.1334273 -0.6267372 -1.3709613 -0.0044174665 -1.4264138 -0.0509678 1.8253304 0.22363503 0.82183474 0.5491262 -0.79524887
156 0.036614325 -0.21146388 0.32752994 1.3750546 0.110003345 0.47962296 1.491337 -0.11669524 0.3308078 1.2131827 -0.82706404 -0.74613357 0.8797911 0.35395783 0.09799006 -0.38393575 0.9998371 -1.7260802 -2.0268424 -0.10458191 -0.4571756 0.6515892 0.27203113 -0.9056276 0.9153464 0.1900639 0.59356457 0.49596387 1.5943238 0.28390536 0.35604393 -1.083241 0.07622958 -0.9123087 0.30125597 0.6457879 -1.2088293 1.2228882 -0.081704505 -0.06030733 1.016206 0.5645216 -1.653424 -0.2002718 1.0647202 0.06828861 0.5816584 0.49950138 0.64538485 -0.0033843284 1.3782924 -0.24290554 0.5202917 -0.72442186 0.1714787 -0.8333099 -0.2788653 -0.9748268 0.9122473 0.23101741 0.20509028 -0.53595686 1.4405838 0.60510796
818 1.341616 1.1529788 0.34289855 0.15264511 -1.6775163 1.1223743 0.023728954 -0.75418633 1.1350474 -0.82911676 -0.42973477 -1.0079007 0.7542213 -1.2838275 0.45410478 0.51467294 1.15157 -1.2916402 -0.75961596 -0.07480603 -0.1596347 0.940519 -0.16500273 -0.39329183 -0.40090102 -1.3985635 -0.6277305 0.6959045 -0.106344804 -0.44781566 0.62381667 -1.1562545 1.6102092 0.67594177 1.6183684 1.7774681 0.178004 1.6873934 -1.9397717 -0.53591543 0.79160404 1.7228115 -2.939352 0.3837412 2.410058 0.19680268 1.4475772 0.7810951 -0.49701178 -0.8036958 0.94103897 1.3948829 -0.32254076 -1.2662749 0.21233921 -1.2615061 0.95874 -1.3869634 -0.15596488 1.1489118 2.138454 0.82294905 1.3573005 -0.12680347
1150 0.088983506 -1.56901 0.7134207 0.060632344 -0.065084726 1.4128493 1.4372193 0.05400396 1.285891 0.198356 0.45854494 0.44597897 0.40399802 -0.98274446 0.5011898 1.0311172 0.34508488 -1.541813 -1.4025028 0.18295977 1.2983332 1.0720271 -0.79467654 -1.3340902 0.35845727 0.6779596 -1.0209948 1.1814249 1.2053107 1.0000054 -0.38982767 -1.4358577 -0.8516486 1.2904634 -0.16473731 1.7288176 -1.5532187 1.7474902 0.28894168 0.076651976 -0.985537 0.9319269 -1.2395904 -0.7790625 1.5222625 0.7874737 -1.2802997 0.8102274 1.3229173 -0.7464794 0.38144752 -0.25196245 -1.1874771 -1.7278175 -0.09318229 -0.7203576 -0.10550024 -1.7378123 0.101779796 0.43469024 0.31897855 -0.28329626 1.939855 -1.050784
1799 1.9331771 0.53940654 0.40758082 -0.42882872 -0.27789733 0.4386401 -1.5968271 -0.9718441 1.9521614 -0.44289723 -1.270524 0.17948176 -0.73549694 -0.5871635 2.1349704 0.39088368 1.3711696 -0.9341372 -1.2444266 -1.0146333 -0.26605332 0.99622804 0.069864176 0.24292889 -0.39848962 0.25440654 1.156998 -0.25357893 -0.23742878 1.2231275 -0.012933843 0.4137802 0.18997768 0.18219785 0.99271894 0.58792794 -0.99044317 -0.7190426 -0.36995122 -0.72530353 0.40015438 1.3268999 -1.4108936 -0.5338573 1.1321198 -0.59385496 1.1141195 0.2558117 0.95324486 -0.38516483 1.7352287 -0.546911 -0.47074506 -0.11342913 0.60879225 -0.47639978 0.4638068 -0.47573444 0.045155134 0.039074264 0.17371862 -0.6503364 1.6522508 0.730375
1475 2.9305427 -1.3009406 -1.2651384 1.7968162 -1.3210303 1.012545 -1.1058133 -0.35201803 1.6927701 -0.85395813 -0.6457293 -0.81632394 0.46840885 -1.869397 -1.3743659 0.67567044 0.36148888 -2.3804486 -2.4016373 0.009602334 -0.5377761 -0.49283805 0.50327885 -0.5106692 -0.09507566 1.1603072 0.23024687 1.4531195 1.9048916 1.0632495 0.8133523 -1.212949 0.31291932 0.9497455 -0.7642965 2.3813221 -0.9188539 1.2276185 0.121146224 -1.3554084 0.7460777 0.5342991 -1.2719314 1.4780738 0.8103992 -0.8801431 1.0780786 2.3815827 1.3347211 -0.3209726 -0.449237 -0.4792973 0.82196504 -0.75457215 1.2497832 0.92864436 -0.5479266 -0.2927048 0.1535587 0.7318871 1.063961 0.37889403 1.5166864 -1.6978345
2681 0.9088969 -0.68625116 0.14740992 1.1420277 -1.0684696 1.6558461 0.20246522 0.7354027 1.4167737 1.4454418 -0.6395029 -1.3219141 0.2941289 -1.327297 -0.73767334 -0.14610992 -0.03904798 -0.9975683 -0.82210493 0.6756308 -0.35649356 -0.5911131 0.22947495 -0.35697785 0.1686539 0.1477838 -0.37424648 1.1658633 0.53286296 0.7348354 1.8319786 -2.2266836 -0.11396563 0.91390735 0.3632026 0.5518656 0.16602568 0.38394368 1.1300036 -1.0577546 0.65118825 1.6472968 -0.90045553 -0.28362042 -0.10686751 -0.8240971 0.96426445 -0.046332326 0.9594523 -0.024582388 -0.4685797 -0.60127187 0.72377604 -0.2576644 0.47858736 -0.4545403 0.47782442 0.4387739 1.4245383 1.3880115 -0.68096834 0.78216696 0.8626444 -0.7749055
2015 1.6538489 -1.0426823 0.48563445 -0.17684957 -1.355059 0.34538096 1.3190892 -0.014165018 1.5366777 -0.92706364 -0.669945 -0.9992077 0.45516905 -0.9278899 -0.97574246 0.39179018 -0.153224 -0.17296003 -1.8297447 -0.6951694 2.115245 -0.3769625 -0.7652 -0.3807726 0.32158628 -0.25292265 -0.5814735 -0.20272101 -0.37473583 1.1795093 0.30104324 -1.2950151 0.41667646 1.1553509 0.841488 1.5442045 -0.76152354 0.87914777 -0.6263787 -1.0269179 -1.011031 1.257596 -1.5662131 1.0034951 1.3106273 -0.32331192 -0.7160264 0.6126489 -0.00028654878 -1.328822 0.15125029 0.67046034 0.52734464 -0.09355016 1.7899678 -1.0938429 0.23169795 -0.22146904 1.2793952 0.5219813 0.13604133 1.0613931 0.9712609 0.27712828
313 1.6700927 -0.90729874 -0.6409539 1.147127 -0.6777129 0.5730333 -0.673693 -0.12087425 0.80358577 -0.4711879 -0.3156683 -0.33103353 0.20347297 -1.0108589 -0.8042175 0.35141116 0.071963094 -1.354767 -1.5355613 -0.0637826 -0.32374114 -0.2850405 0.41842988 -0.17493138 -0.018031197 0.6394234 0.18854114 0.8301459 1.2132354 0.5269096 0.49688095 -0.6953353 0.22971918 0.63967025 -0.39509493 1.4441491 -0.51980436 0.75730026 0.13992044 -0.8127432 0.48846897 0.22755933 -0.56432855 0.92025 0.40852758 -0.5355929 0.63844 1.5136225 0.6464246 -0.017826948 -0.3631942 -0.33968157 0.48875955 -0.4160632 0.6662234 0.61532253 -0.49576247 -0.17963722 -0.013924776 0.28362066 0.64456713 0.17681213 0.6741645 -1.0977672
2591 0.15159366 0.2750719 0.5771375 0.7192217 -0.6795691 1.0988032 0.14686295 -0.37739208 1.7441437 0.113318644 -0.004295192 0.05131726 0.6989619 0.31917468 -1.5576173 0.28353763 0.8421382 -1.1549914 -1.1751071 -0.95845914 0.9863577 1.6875734 0.93939626 -0.6344203 0.3735534 0.6244296 0.6517148 -0.19197874 1.2547597 0.9848724 -0.11743451 0.5109933 -0.3947719 -0.10302689 0.65572447 -0.4804337 -0.5546782 0.46115306 0.5746137 0.30116948 1.5857482 -0.058427133 -1.9914032 -0.29000553 -0.098093145 0.8114691 0.55240786 0.35116717 1.7943026 -0.62225336 1.0065235 -0.24493451 -0.10761716 -1.4679862 0.5315971 -0.053607803 0.9101846 -1.1139553 0.91703266 1.9973485 0.3717397 -0.81839025 0.66793704 -0.20291775
817 1.127147 1.1632346 0.34252834 0.18768492 -1.7845292 1.1734647 0.1078033 -0.6751888 0.97975737 -0.8569562 -0.14728162 -0.9726407 0.8772947 -1.1296875 0.25280514 0.6954414 1.3917066 -1.2514805 -0.5268273 0.18005463 -0.054747473 1.01318 -0.13795726 -0.41275322 -0.21573938 -1.3456228 -0.837973 0.6653212 0.109624445 -0.6307651 0.7803087 -1.1336501 1.683833 1.0075408 1.6838409 1.7439644 0.11102746 1.8560393 -1.8203351 -0.312525 0.79235584 1.6359857 -2.956671 0.31272924 2.3085918 0.37495854 1.346965 0.895049 -0.55443305 -0.9031605 0.8864886 1.3151416 -0.6391948 -1.2641177 0.2979063 -1.0495428 1.0577124 -1.319658 -0.1687253 1.1709934 2.0970771 0.5052329 1.2931339 -0.08729299
814 1.5692261 -0.6823488 -0.9648281 1.0944989 -0.5728962 1.0069795 -1.1761327 0.051198304 1.9403701 0.19787373 -0.5180232 -1.0192728 -0.36432326 -2.6387448 -0.11712621 0.14136307 0.8618552 -3.180274 -0.24110632 -0.09018538 -0.16467907 0.014126309 -0.17285809 -0.7064659 -0.9710062 -0.5394494 -0.67063206 0.90516955 -0.171387 0.12457705 0.6205305 -0.313531 0.33201262 -0.5493956 -0.57380986 2.3805418 0.5061698 0.4227437 -1.4544263 -0.07408675 -0.74093616 -0.1598315 -2.4420316 0.5007827 2.571379 -1.6546248 0.5103969 0.7340954 1.4713287 -0.5155109 0.25917777 -0.42740366 0.4359977 0.123197645 0.8461214 -0.7810739 0.57619625 0.6560718 -0.1860984 1.3999624 1.202558 0.7691549 2.6365287 -0.27270317
337 1.761672 0.5753804 1.0015054 -0.045781713 -0.6930478 0.7427347 -0.3761266 -0.33105925 0.80748355 -1.4312495 -0.08027996 0.05061049 0.44462875 -0.4348869 0.6537635 0.517491 -0.5877176 -1.8791765 -0.5867229 0.3070099 0.5841637 1.5477993 -0.15063569 -1.7170088 -0.017782785 0.20836276 -0.9838511 0.15044501 -1.2108647 0.29212433 -0.8102611 0.061813343 -0.5405703 -0.0793102 -0.3149837 0.15502536 -0.50109625 0.38825408 -0.48754844 -0.61078936 0.24139062 1.8487321 -0.93425906 0.0076434305 0.89235425 -1.4485993 0.14977455 0.80414504 0.3541916 -0.88209903 1.0688297 -0.14978833 -0.039239597 -1.972162 0.36760056 -0.7988382 1.808078 -0.5265577 1.0195514 0.61839694 0.5757766 0.36230934 1.2119184 -0.26116273
571 2.1693878 0.16257857 2.030186 0.7962727 -0.81368214 0.51089144 0.15960945 -1.0456884 2.7625842 -1.2109102 0.53701997 -1.5944808 -0.44346073 -0.6281013 -1.8059328 -0.5267813 -0.1030571 -2.0623667 -1.2704898 -0.77226275 0.85668993 0.97808623 -1.0204325 -2.055808 -0.95489705 1.089293 -1.4521073 0.31384403 -1.0068352 1.2130452 -0.40562916 -0.45064446 0.0103488 1.6512706 -0.9079377 -0.12924929 1.0391088 1.2410871 1.3366873 -1.9706068 0.1742928 -0.25081092 -1.3271791 -0.5995973 1.1642725 -0.917483 0.607447 1.5464823 2.3080506 0.18362506 0.033210788 -0.674603 -0.12590152 -2.3995848 1.5701292 -1.3766931 1.652651 0.60223204 1.0094694 0.32617027 -0.61121166 0.37529108 2.7907734 -0.574584
771 -0.314925 1.3148917 0.19952536 1.5483841 0.18915473 2.6086745 -0.8472954 0.8634862 1.7820649 -0.23226875 -2.4809635 -0.74175113 0.21279512 -1.1540066 -0.009686402 1.1121463 1.8596251 -1.1479192 -2.1409798 0.61630183 -0.5080331 0.4982371 0.6435538 -0.12235091 -0.20367508 2.4127223 0.37747034 0.06816737 0.6430819 1.2339507 0.5291649 0.6734645 -1.0679611 0.91759676 -0.19990288 -0.43102768 -0.0848164 0.9188391 -0.03720164 -0.7664575 -0.83418846 2.4242074 -1.8709357 0.85225636 2.857411 0.010929765 -0.5684021 0.5373484 1.4592373 -0.35636717 -0.49986026 -1.0082269 -0.09276207 -1.8574405 -0.20006934 0.90157527 1.466404 -0.47278592 -0.6619558 1.628879 0.29185575 -0.8389887 2.6346889 0.15074296
321 -0.37058735 -0.29711264 0.8333547 0.42488006 -0.16289264 0.7791605 0.69003946 -0.8422393 1.4614624 -0.88655454 -0.36578318 0.47056136 0.72221243 0.67790353 0.15047053 0.35520706 0.12170544 -1.4241389 -2.3369339 0.24340431 0.55423963 1.1852956 0.4290318 -0.50373566 0.47313997 -0.062131185 -0.50455666 0.12756623 0.4292997 1.3632244 0.19793977 -0.39420336 -0.99154127 0.6944724 1.1042832 0.7791612 -0.05200198 0.94623345 0.39499906 -1.6539042 0.07445016 0.4647731 -1.5199058 -0.7546006 1.9400401 -0.52449185 -0.830719 0.65268064 1.3229746 -1.2054132 -0.06307715 -0.162076 -0.17783387 -1.5710843 -0.4827549 -0.30545938 -0.0072350134 -0.3435464 -0.59641343 0.81421787 0.85208124 0.4935719 0.871587 0.47878736
1924 1.7988399 -0.86697406 0.10353215 -0.32155007 -1.5902834 -0.012567494 1.0035189 -0.2575675 1.4985974 -0.92519003 0.22514245 -0.9518743 0.6258628 -1.0172381 -1.0398691 0.7272933 0.08398823 0.0645958 -1.26641 -1.0190054 2.05377 -0.52634317 -1.1624945 -0.58422375 0.6949754 -0.10964429 -0.71883345 -0.21135515 -0.6993471 1.0408055 0.13440204 -1.3897408 0.3141608 1.2986443 0.20775248 1.0388749 -0.4915959 0.55294627 -0.4257428 -0.67769796 -1.7331501 0.59973323 -0.96372485 1.3099563 1.3863132 -0.1417566 -0.9629478 0.3207851 -0.16003327 -1.5233951 -0.013085241 1.0458748 0.34321678 -0.09939135 1.5737824 -1.0841413 0.29454434 -0.09839127 1.1364121 0.7796969 0.19237378 1.4333227 0.9201442 -0.12924103
1567 0.028248683 1.6654301 -1.4325571 -1.6060189 -2.38507 0.9418837 0.49434522 -1.4956708 0.9472474 -0.9378901 -0.24969187 -1.2018929 1.2638212 -1.3255346 -0.6510052 1.5312235 1.498972 -0.73836094 0.03945954 0.81380856 0.94224256 1.1477876 0.12913387 -0.0011134304 -0.649211 1.5065938 -0.22240864 0.22171074 -0.63186556 0.6288093 0.3035862 -0.626907 0.5334047 0.561207 0.38640454 -0.13449249 -1.3076658 -0.28748852 -0.22518037 -0.18944623 0.76538616 2.3916442 -2.9891129 -1.0457041 -0.047090553 0.7131432 0.9606641 0.13419792 1.6594956 -1.9891636 0.8527568 -0.2888 -0.6958432 -0.53525656 1.7720779 1.7385569 0.624535 1.4252641 0.21959552 2.4194877 -0.5241647 -0.7009619 1.3871931 0.7568389
373 0.84564734 1.0172299 0.068885535 -0.07301942 1.0006914 0.09494683 0.42119133 -0.724122 1.4099123 -0.22041161 -1.4218007 -0.63119686 -0.16324057 -0.6615766 -0.30851093 0.9959209 1.0872046 -0.6366733 -1.268147 -1.2150955 -0.10043721 -0.110558905 0.086144105 -0.35245198 -0.84920377 0.31549728 1.0916156 0.10876857 -0.6187951 1.2711067 0.007305985 -0.28443488 -0.653246 0.053622436 0.9574465 0.22967416 -1.3343215 -0.0765928 0.07834299 -0.6176674 -0.53764206 -0.4264364 -1.679076 -0.5818028 1.5900967 -0.36063144 -0.88473266 1.4306912 2.3058953 -1.0839571 1.2887524 -0.26876986 0.51196 -0.49554682 -0.06456522 0.48249745 -0.23378652 -0.11561692 -0.7678403 1.2221693 0.1835613 -0.013355501 1.1186154 -0.29892075
10 0.47631717 -0.38265654 0.15665878 0.46963874 1.0438432 0.02151509 -0.064644635 -0.07487469 1.4590276 -1.0056623 -0.86965233 -1.1038184 0.10891625 -1.6445353 -0.51948893 0.30328324 1.0421709 -0.15423262 -1.6608794 -1.4401767 -0.6197549 0.9891466 0.40499297 -0.23608501 0.44593295 -0.9544805 -0.20674147 0.75063515 0.17293906 -0.31163654 0.34693012 -0.9648951 -0.9945506 0.7785033 -0.6301786 1.1393911 -0.88450843 0.05530082 0.97811043 0.030673083 -0.32789737 0.3449165 -2.0073972 -0.7184289 1.3551569 -0.5156026 0.1300823 0.6009909 1.6506057 0.52102095 0.8596431 -0.8118175 0.5183819 -1.0178123 -0.15451549 0.14591493 0.14895275 -0.6309577 -0.5029404 1.389284 0.48571914 0.5634274 0.9319885 -1.1801593
137 0.7961239 -0.4502584 -0.099814124 0.39403698 -0.36264178 -0.026585171 0.34942558 -0.2661884 0.90106785 -0.13878241 1.4450787 -0.045142535 0.91274434 -0.62509274 -0.28576654 0.95092875 0.39965826 -0.54637814 -0.12384036 -1.2452691 -0.1631209 0.12698254 -0.73644775 -0.9701261 0.15074682 -0.2529085 -0.4213162 0.8911652 -0.19004536 -0.23691903 -0.19578817 -1.0779389 -1.0629313 0.6363456 -0.4012536 0.57026905 -0.25707248 -0.35321605 -0.008639047 -0.10468001 -0.82995266 -0.4054016 -0.5270937 0.8616365 1.3739705 -0.85612214 -0.76876956 0.16389999 0.8831535 -1.1687974 0.44402045 -0.0035187285 0.0019191161 -1.4815519 -0.28163242 -0.5025408 0.66900384 -0.38998425 0.14757569 1.5113249 0.66451627 0.7576884 0.25838828 -0.684304
197 0.7529262 -0.406418 -0.1067434 -0.071097806 0.9299591 0.7408734 0.2892452 -0.32844588 1.4888803 -1.0364966 -2.3039439 -0.98724014 -0.8989901 -1.1764449 0.022907697 -0.11449587 0.4151771 -0.6028497 -1.3970071 -1.6050782 -0.7168903 -0.482246 -0.44089922 -0.55252594 0.034256596 -0.7866335 -0.54209477 0.3830287 0.28310347 1.275233 -0.8215842 -0.15789129 0.14023797 -1.0287229 0.63218266 0.738269 -0.035310738 1.0450295 -0.12087974 -0.91703874 -0.38694447 0.89980084 -1.3525631 -0.63988143 0.76993436 0.016679538 -1.4484847 0.46442586 -0.22489047 -0.23493251 0.7746601 -0.25226665 -0.43213806 -1.2158146 -0.052651875 0.34369025 -0.010350908 -1.0147378 0.10058374 -0.28850725 0.47827607 1.229204 1.0731411 -0.6969854
148 1.0917848 -0.22108755 -1.1637158 -0.09031501 -0.65049225 -0.14574486 1.0752767 0.1132336 0.38662446 0.15277082 -1.0811563 -1.1269109 -0.013028685 -0.1478107 0.8455801 1.0558034 -0.34980687 -0.41459015 -0.54374623 1.2678517 0.0830922 -0.8104459 -0.054500315 -1.1927373 -0.08725418 0.34509182 -0.8494224 1.0222245 0.87100375 0.45009467 -0.5680591 -0.95236844 -0.9589688 -0.8192554 -0.77670383 0.5968351 -1.7071873 0.22682597 -0.4551962 -0.47926617 0.043136846 1.1660311 -1.3456291 0.25913376 -0.0434726 0.2309366 -0.6179305 0.7249585 -0.032086954 -1.3189342 1.1478775 0.28722945 1.7067095 -1.1635132 0.50942403 0.5132047 1.5905514 -0.12313127 0.43275645 0.9111438 0.7931787 0.41794148 0.6055928 -0.32142216
272 0.87088424 1.8687985 0.13412724 1.2232596 -0.23442313 -0.041272968 -1.3725749 -1.8212163 2.9160075 0.55146384 -0.7874848 0.1783815 0.17701247 -0.832211 -0.30255878 1.0802774 0.9032898 -0.3405844 -0.48723266 -0.31262276 -0.5293787 0.3179927 -0.6915495 -0.6288085 -1.3412094 0.43949112 -0.49247578 1.8337804 -0.23544593 0.78376204 -1.2041287 -0.432403 -0.017152457 0.5688927 2.6167936 -0.20591076 0.21819802 1.1496022 -1.3470538 -0.57806695 1.5339377 1.0316637 -1.4088457 -1.5727196 2.084596 -0.54591984 1.5404088 1.3139666 2.4400923 -1.3774623 0.9833427 -0.22317922 -1.445982 -2.2975094 -0.52218634 0.8729164 0.28148097 -1.7977214 -1.976093 0.020194555 0.7896892 1.0124966 1.6561528 0.4591087
1104 0.9423845 0.30100334 0.7673945 -0.23410547 -0.80649704 0.7483538 0.02930541 -1.0686338 0.46756738 -1.0610088 -0.40716854 -0.6834547 0.56645256 0.27387303 -0.7458482 0.2192722 -0.48391575 -1.4193407 -0.6833706 0.01648416 0.06689626 1.5205662 -0.39330077 -1.7264957 -1.0062909 -0.97041154 0.5306428 0.8061747 0.033404678 0.889151 -0.27118534 -0.8654734 0.43460998 -0.60805166 1.5853524 0.73911864 0.38934463 0.16275728 -0.6524764 -0.58473283 1.560942 0.640581 -1.8479371 -0.2814814 0.46751645 0.6191307 -0.13677555 -0.38403007 1.2499706 -0.45091313 1.4405807 0.31134 0.2824697 -1.7552453 0.6328651 -1.0884657 0.84428227 -1.3367143 1.1814986 0.87932634 1.2910739 0.3534072 -0.081124164 -0.2208798
