562 64
479 -3.6243877 -3.0735877 -2.3803916 1.3260996 1.5714049 4.2533507 1.6833396 0.96699065 1.4870008 -3.1632395 -2.114229 -1.3451197 0.3577951 0.20288353 0.12791525 -1.8320197 -4.887017 -0.20250253 0.5953497 -2.7601624 -0.536041 -3.6141574 2.3625696 -4.1327124 -0.25703037 0.65116227 0.49484983 -0.008288382 1.4988225 5.253793 0.5472983 -0.52177113 0.7545667 -0.084912404 3.9435606 0.41677952 2.949845 -0.7998904 0.4019496 -2.1688745 0.96400666 0.90485245 1.3685884 2.7588103 1.4271446 2.8646877 1.0245992 -0.7407457 2.8566253 0.1270967 3.0892112 0.41417265 4.2011647 3.0921898 1.5859942 -2.2060125 -5.106669 -2.70544 -1.8979818 5.084609 -0.90403116 1.7989031 4.619525 0.6972577
512 0.76887006 -0.8323211 -0.4972388 -2.9899576 0.04804092 2.7107959 0.8121214 -0.9598162 -3.983366 -0.10717392 0.52636707 -0.9408981 -0.5291598 -2.228762 -1.9173075 -0.9746639 -5.055063 -2.6751068 0.7102943 1.5661004 0.34184867 0.70675856 -0.994319 1.0922894 -0.71781677 -1.0679824 2.9831972 -1.6946945 -1.2504616 -4.1747103 0.6924275 4.0457134 -5.209211 0.38792607 1.152449 -1.6804059 0.9263956 1.6375133 -1.6672482 -0.5111513 0.0028641801 0.3056827 0.17490175 0.4403992 3.1622593 -0.6909146 -0.8997524 3.660147 0.528937 -5.7217813 -1.6220471 0.44522756 -1.4334679 1.2387851 -2.7570217 -1.0779873 1.6983365 -0.7212203 -2.5712543 1.1414639 -1.6399903 2.782435 -0.1664367 2.2946312
405 2.2897677 -1.2927614 -0.119938396 -2.29191 -2.6216846 -0.3196166 -1.3120937 0.8027672 1.4064845 1.8172979 0.7859912 -3.1680546 -0.8587514 -3.2495844 -1.3195952 1.46146 0.29109 1.8163493 3.7199676 -4.390504 -1.573205 -2.020802 -1.4433788 -1.1033901 -3.1517432 1.0802927 -4.4231505 -3.0087752 -3.566199 -0.9007825 -0.18867646 -0.8285078 1.716569 -0.1739621 1.1103207 0.09772964 -0.48435348 4.777903 -0.64926344 1.0749947 -0.8670624 -1.0390255 -0.089309715 -3.7247725 0.28860012 -1.1123092 1.0980893 -0.33329338 1.8048904 1.5192484 -1.4209784 -0.21252908 -2.6084692 2.8080168 -0.26799908 1.8061616 2.9097128 5.0015965 -0.5277794 2.0328684 -2.4525635 -1.9982079 3.7051332 3.3768115
403 1.4376456 -0.055561256 0.2648381 -2.7245271 -6.730853 2.541302 1.7493153 3.8928936 -2.221631 4.852645 2.3627155 5.4797444 0.004911131 1.2424862 0.021833505 -0.71073943 0.8101621 -0.33561414 0.32389745 0.00029625662 0.18176468 -0.804025 0.14855172 -2.4552574 2.005368 0.7748912 -0.94927347 3.1737068 1.8154436 1.5277818 0.24341874 0.68910205 2.3821747 -2.1912847 0.007014019 0.90746003 0.19565426 4.084221 2.3430712 0.98165226 1.327581 -0.86699855 2.7950482 -1.6496769 -1.2218119 0.8377993 0.8963106 1.2960256 1.6620915 -2.0042644 -2.125323 2.4508586 0.086637855 -2.847961 -3.4294605 1.0258008 -3.057637 2.066616 -3.3478444 -2.192941 3.3974648 -0.04013055 -4.4471006 -0.7075041
528 0.80998236 0.74622566 -0.09471663 -4.879238 -0.30490255 -2.322847 -1.4809688 4.975224 1.9660954 -0.16578433 1.4906045 -2.759834 -0.1248101 -3.5285547 0.66413516 1.7241745 -0.67810374 2.0691285 -0.890158 -2.752338 1.3035529 -1.2097832 -1.3656156 -2.568918 -0.4188965 -4.1794763 1.8535843 0.67518175 -0.45305997 0.520591 3.223545 -2.2090797 -1.7154069 0.36591563 2.9231203 -1.2460527 0.20192015 1.4356135 0.551636 -0.3563864 -0.88134986 1.7478156 -2.6692061 1.9295837 -0.97114843 -3.5125985 -4.1622915 -0.6244296 0.3870012 1.5946157 0.646392 -0.9660355 2.4164479 0.53515464 0.18406467 7.617536 4.8013334 2.5586758 -2.8144245 3.9561343 -3.2905982 -3.8788314 1.6144295 1.0003725
401 3.0314066 2.3064623 1.246297 -4.4980617 -1.2194316 -0.26148802 -2.751563 -2.2636874 1.2192591 -1.4288229 0.30281457 -6.6773887 -1.577148 0.8527554 -0.013833954 -1.9534664 1.9822044 1.8231244 -1.4197587 -0.15064834 -0.6733883 -0.8845716 0.9895256 0.8390906 2.1931524 -1.2567492 -0.2302094 0.5609131 3.6440449 3.3978107 -0.26786143 1.0288478 -1.2714931 -0.6994201 -3.0324388 6.1747947 -2.2327504 1.8636066 -0.55673367 0.18882945 1.3324699 -3.2094383 2.9486296 3.4923754 0.60042053 -0.62996143 -1.0365719 -2.7827342 0.2559184 -3.9226544 -1.0979372 -1.3734227 -3.1998746 -0.3072768 -3.2726111 -0.99105614 1.0419166 -0.8429023 1.700945 -1.307024 3.6522133 -1.7237909 1.1313988 1.7938416
475 -0.7314657 -1.4686247 -3.0360062 3.9357634 -0.8640619 1.913832 2.5749645 3.1390955 2.687444 -2.5033178 0.7688196 -1.4894035 0.22833051 -1.477248 0.94415957 0.05408873 2.7050548 -3.446225 1.4392203 -4.1651344 -1.9294409 -4.1708045 -1.6395632 0.43225232 1.0250806 -2.706515 -0.019232744 -1.1886932 4.09468 1.9650388 3.6642895 0.07079812 -1.2905314 0.8270964 -1.5595685 1.8570215 -1.7928374 -2.8142307 -4.151724 3.404202 3.6604097 0.6166149 -1.2263035 2.0254428 -3.0969703 0.7188917 2.9209359 1.8524237 0.04013471 0.44859618 0.6443254 1.0367037 3.414192 0.10164447 -2.3247123 -1.7851293 0.8407294 -0.39423296 0.2719954 2.6038928 0.26655766 3.370024 -1.5321674 -0.07338977
273 0.23975967 0.16221549 1.0968384 0.418153 -0.1783067 -0.80516034 -0.10410881 -0.2957759 -0.78914654 -3.6168997 2.3537717 1.0350041 -1.32581 -4.6369743 -3.672655 2.2916315 1.8706918 1.3101275 0.9318861 0.42343074 -2.659668 0.54316354 1.3291832 -0.10111035 1.2882695 -1.0849321 -0.8700645 -0.046284296 -0.890882 -0.34442085 3.1659937 2.9738286 3.260466 -3.5803933 -1.6521271 3.248287 4.0673265 -0.22080335 3.6644065 1.1834104 -1.745418 1.9243463 -2.0546699 -0.79956377 -2.2297351 -2.6056776 2.6554492 0.16827287 0.2076182 -1.0045856 1.899685 -0.94079745 -0.27404213 -2.56005 1.784153 -0.7817505 -0.8847923 -0.5022493 1.2459447 2.834087 -2.5308452 2.7333248 -2.366657 -2.8816748
495 1.9993901 -1.0362381 -0.79880905 0.5284156 -2.1814861 -6.358686 -0.8722949 -0.39125124 0.047746148 3.9108143 5.1235166 2.2799196 0.5462929 1.0091996 0.44966707 -3.9987466 -0.9728215 2.4206226 0.79433626 1.0133946 -0.15591843 -3.7652047 0.86926675 1.8708429 3.2062023 1.1141584 -0.4514484 1.8193759 0.45814723 3.4186406 0.9534481 -0.112059124 -1.2552993 -2.0567677 1.4438045 -3.6523888 -1.093555 0.22433698 -1.6887429 -3.3380716 3.950491 1.9152201 -4.371353 -5.423188 4.6077757 1.1959901 1.9984238 -2.2997262 -5.1200438 -3.7479162 -1.9973224 2.6147842 1.6458094 1.651646 -0.112262286 0.6011507 -2.1850631 -1.6480775 6.561166 0.89243555 1.2757001 -0.27514875 -1.1640333 4.4195347
306 1.2461224 2.8549218 -2.7457342 1.348955 2.0419915 -3.6244082 -3.692014 0.39551854 -1.0551183 -0.6394454 -0.42851228 1.6248834 -0.3288638 0.8266266 0.8364825 0.18192002 -2.6442692 -0.7823229 0.41858634 -1.5687605 -2.3686397 -1.1266861 1.2528837 2.3046348 1.8932254 0.22297531 0.74141747 -3.1779585 0.5059581 -2.2856522 -2.0878563 2.2343109 2.269283 -3.1367931 -1.4350821 0.9233861 -2.6615858 -2.7937367 -1.5611196 0.54401875 3.112929 0.9768657 -0.8196051 -4.9712925 3.5586274 -0.25881934 -5.9183025 -3.8617768 -1.2626237 -1.7594179 -0.8529579 -0.27685383 1.0348833 -0.5537527 2.7639952 2.5926898 -3.0601075 -0.27688137 1.4991443 3.4078658 1.1113039 -2.7947986 -2.7434125 -0.9652474
561 -2.2798815 3.2367184 -1.4814504 3.282283 -2.243576 -3.7673688 3.865603 5.061865 -1.8021601 0.84109443 -1.3918664 -5.3928638 -1.284651 0.6313906 -2.5943506 2.9129014 2.4362507 -1.9884555 -2.954748 1.4631596 5.8701925 1.0950536 1.5823449 2.010104 1.6423705 3.7733843 1.0605158 0.9796353 -0.49222264 -3.5725462 2.9860213 -0.35289586 -0.26529443 1.4338461 0.7576942 1.6751498 -1.5105022 2.1863446 1.0135689 0.7952492 -0.40829745 1.9076805 4.910583 -2.3736095 0.8466976 2.3048084 1.4633907 -0.80143434 0.9079337 -1.0200409 -1.8290163 -0.49197754 0.42173928 1.8505783 1.2239497 -1.5494705 0.4898786 3.651812 4.214999 2.0459077 3.9823406 -1.8302581 -0.85673195 1.6301876
394 -3.032275 1.772859 -2.0838544 1.0785501 -2.0722232 1.1627867 -3.029172 -1.5827668 2.6915767 -0.15251558 -0.54519016 -0.29451692 1.5078552 -2.74923 2.220214 1.0979762 1.888899 -1.278566 -1.3007305 2.3044138 -0.14660631 2.556289 0.1765468 0.3272765 -0.4932295 0.20348127 2.12467 -0.316242 0.040367126 1.408472 2.6142178 -0.74067974 -2.5050688 -2.8535507 0.86947227 -1.457637 1.0490028 1.0099974 -1.7388991 1.1994416 -2.1746435 -1.2712166 1.1089628 -0.9146697 -2.5222342 2.412591 -0.88144773 -0.13044454 -2.7716355 -1.8992988 0.24470644 0.117879525 -0.99259174 3.0216618 -1.9473463 4.2079005 -1.9799842 0.8254058 0.3007807 0.7659253 -0.9274639 4.1446466 2.5626307 -0.94341356
392 2.8131876 -0.12200931 0.20247343 -3.0364106 -0.14398102 -0.38111413 3.5095212 -1.0672673 -0.8473402 -0.2196214 0.6140812 -3.49633 -1.8931594 1.1696817 -2.483638 0.036681958 1.5858239 0.84736276 -1.7933747 0.36087444 -1.0433736 -0.3149897 1.1752781 4.9169226 2.4854414 -0.8713088 1.4950197 1.9370055 2.2111423 -0.87011826 -0.10682353 0.61902493 2.423582 -0.5203768 -1.1868764 0.85147 4.042725 -2.6992664 -1.8886063 0.28424826 -0.15216438 -0.005084614 -1.1826323 1.9553736 2.603799 -1.5319462 1.085898 -1.8113295 -1.070949 -0.02177078 0.6256073 0.14273795 -1.0308317 -4.294737 -1.274968 -1.4067338 3.1473389 1.6725987 0.5436631 -1.5965809 1.5513902 -3.4476147 2.1534936 0.88789874
389 1.0560778 0.36772057 -0.7081706 -0.7996404 -4.7935934 0.8343813 -0.33276027 4.163365 -1.6238613 2.954667 1.4614804 4.866952 1.1182935 1.4090571 0.729276 -0.8796748 -0.6530524 1.0362867 2.858552 0.30780447 -0.76032966 0.21029818 0.7148851 -0.99988985 1.3499647 -1.6062413 -2.0568345 1.4395173 3.0006475 -0.47039917 0.3681236 0.59023285 3.0351655 -2.6998436 0.2956291 1.2498991 -0.616175 2.762494 0.43835524 -0.37921053 0.16916616 -1.7246239 1.4301014 -1.6003673 -2.5618668 2.4947765 0.5407588 1.8273699 0.8770958 -2.0926325 -0.25485831 2.55456 0.83151776 -3.8776238 -2.4398584 0.86126244 -3.1752715 1.5166725 -2.2244089 -1.4634608 2.3199024 -0.57471347 -3.1226015 0.4732009
445 -1.3356366 -2.92804 1.3533171 0.7072052 -1.3595175 -1.5128281 2.0163589 0.10112765 -2.3023372 -1.0230888 -0.4093627 3.069265 1.2807642 1.941905 -0.2498274 3.5708792 3.824662 0.68551993 -3.1628923 -5.855116 1.0087688 -1.5175068 1.9337201 -0.13447516 1.1013006 -0.46663085 -1.0700225 1.207331 -3.2936418 0.90332 -0.5974322 1.1959103 -2.52186 -2.8373704 -2.7293258 0.40033394 -2.0641038 -2.5103843 0.39639705 -1.430123 3.42751 0.12611616 0.6322424 -2.0582986 -0.19387017 1.0296695 -1.1948302 0.88960195 -1.5399586 -3.1230502 4.164228 -5.2721133 -0.6110327 2.0104961 0.15399426 -0.33529446 4.326492 1.3135307 -2.9033442 -1.0257893 1.5527064 -1.574743 1.4385082 2.9209914
560 -1.3399193 -0.7292425 1.2924451 0.20510915 0.02956704 -3.5750916 0.5256712 -0.583465 0.27331945 -2.335424 1.4593141 2.6228352 2.0127492 2.6311505 -0.6238429 -0.5015298 1.8537208 0.67419106 1.7973336 3.310926 -2.0589967 1.9482616 0.5288326 -0.12098429 -2.1230736 0.34485593 5.017598 -1.9818218 1.0044807 -2.0945659 -1.1699071 0.45410785 -1.6031404 -1.950205 2.4165664 1.8689747 1.9582549 0.32044792 0.98585045 2.077016 1.7017876 -0.42100114 1.8654608 1.003307 2.7627296 -0.3249501 0.48238984 0.41436246 1.9377116 1.4246811 -1.7206059 -1.65442 4.4438806 -0.97310704 -0.28284067 1.6357337 -0.510431 1.1709406 1.2738334 -1.5749598 -2.2154276 -1.0356317 -0.18298183 2.680662
340 1.2353039 2.2368023 2.420773 0.8561116 -1.0281639 1.3962882 3.2401788 2.6232877 0.28415376 0.12261958 -1.7517798 4.8555574 -0.6113197 -0.90877944 0.3334299 -4.6356783 -0.40369353 -2.865351 -0.45709565 0.8313126 4.195946 0.963613 -1.0557197 0.34770736 -1.528133 -2.245444 1.0448407 0.075976305 -4.980712 -2.768161 2.0203106 -1.9079431 0.67340493 -2.3309822 -3.0379422 0.9520696 0.4067801 0.42614317 -0.91572 5.7497625 -0.9129248 -3.5340185 -1.6258484 1.3544317 1.2797729 2.1738815 -2.0546489 -2.1908464 -0.98383874 2.3501744 2.853768 1.3175749 -2.4305243 1.5205803 0.6855832 -0.34990692 -1.0672632 -0.29852867 3.5295238 -1.2356616 -0.99696916 1.1854992 0.7069724 3.2745898
558 0.7703893 2.2784996 0.13553041 1.8249288 5.0622845 -0.073810086 -3.8480968 3.475325 4.772975 1.3025064 3.056839 -1.250518 -0.05141207 1.6458486 -5.287694 1.2743464 -0.48806196 2.3983195 -0.8623301 0.09619806 0.9069692 -2.001373 1.3913888 1.6409026 2.520411 -2.316457 0.2917449 -4.245425 -3.748368 0.22343016 -3.735188 -0.84631604 -0.117309585 0.74686587 -4.215414 -3.4145513 -0.5720043 4.511155 -0.63406444 -1.4907926 0.8780815 -1.6152264 2.5256593 1.0660295 -0.7406702 -2.807574 0.8671736 4.8754544 -2.2982173 -1.3376613 3.0141544 4.1004233 0.5689447 -1.9345517 3.0317478 -2.5720313 2.2523634 1.5290538 0.9143949 -1.1179565 -0.84652495 3.4401712 0.5072628 1.8987613
318 -1.3861613 -3.2404954 5.809646 -0.48360384 -0.9651228 0.4924473 1.5926242 -0.38790673 3.0720403 -0.9817577 -1.2560557 0.23661472 1.1510402 0.9818212 -1.4784485 0.44117194 1.2858627 1.268495 -2.417734 -1.7557155 1.5895327 1.534318 -0.14859368 -0.2710054 2.440703 -0.48699948 -3.5754526 1.9421039 -4.9592357 -2.6458297 1.3478205 -0.4113254 -2.4349566 -1.3495332 -1.4857394 -1.9593827 -3.423085 -3.6819925 -1.8381606 0.5803192 3.9622889 0.9580576 2.636185 -1.577388 -0.86663324 3.3761418 -2.041168 2.2264962 -2.1946635 -1.8306738 3.9263673 -4.0057087 0.42647395 -0.01040651 0.18225874 2.5186353 1.0025684 1.0836279 -1.8197572 -3.583557 -3.1161892 1.4141021 1.9163406 2.9621115
387 0.3069354 0.63984144 4.542024 -1.8308601 -2.5458412 -2.720273 -1.9599408 -2.0818942 -1.9880817 -3.862871 -0.14858727 2.0376065 -0.1662293 -2.0473728 -3.8168356 3.331156 -2.7155511 -0.38806322 1.1317323 -2.8051894 -1.7739093 -0.31750035 4.1025586 -1.5465752 -1.1675978 0.11169934 2.1387734 4.564235 -0.43008238 2.466072 3.9491673 2.509338 5.416313 0.16726683 -0.9650264 1.0669657 -1.0449021 2.7476225 1.5862529 1.2226747 -1.8998703 3.1207714 -2.145273 -1.2386461 -3.1520202 -1.7508054 1.1591387 -0.3443533 -2.5843356 -3.2633371 2.6558483 0.015399034 -1.5581026 1.4809223 3.3628988 -2.4032958 3.3766546 0.70553124 2.4508734 3.1218042 -0.8025534 3.773156 0.43623126 -2.9855905
430 6.1609435 -4.24847 -1.403083 0.004694899 -0.9412523 1.194185 -3.618936 6.0903125 -0.057918992 4.343491 -1.4103903 5.4251833 -1.977691 0.5581375 -3.7274604 3.2682438 0.8832764 -2.9266398 -0.17176424 -1.9011292 3.5973735 3.0882473 3.3544896 2.736573 5.3319917 -3.0209951 -1.377998 3.871061 3.399651 -0.57731 -0.7232736 1.911018 3.338688 -3.1896853 5.299206 -2.4120681 0.823053 3.4617312 8.154476 -3.5545833 0.0021077446 -1.110735 3.108744 -0.65021855 1.3648785 3.7564774 1.2325101 0.000872313 1.6013652 1.8963351 -2.9350016 3.5456126 4.7372837 0.7047447 -2.1843052 0.3772214 -4.808551 0.47846374 -0.3415996 -5.3995023 0.6909434 -2.108385 -1.886929 -0.33682847
412 -2.625386 -5.045172 -2.8287323 0.05260395 2.7018478 3.0964763 2.233153 -1.6581868 3.4535093 -2.185722 0.14542125 2.5650015 0.85004914 0.9114189 -2.149286 -1.3418934 -4.1049457 -0.59887666 -2.7938695 3.6026816 1.7061521 -1.7113132 1.4343741 -2.2671945 -0.65224826 2.6886523 1.2232279 -0.5305041 0.3851103 2.467454 1.2424896 -1.7963187 5.509914 0.63517755 0.3717271 1.5063779 2.1867902 1.3072628 -1.4391636 -0.28425065 4.6973257 0.76394475 1.2354068 1.8681158 0.8585556 0.36814764 1.3352876 -3.481544 0.34227175 -2.1237636 1.327727 -3.2421796 3.762319 2.0476563 -0.43802658 -2.102224 -2.5633206 1.7796019 -3.8631861 7.478467 -0.002623507 2.2498784 3.1195426 5.693381
319 2.2623026 -0.69564927 0.17172292 -1.4585223 -0.63241935 2.364029 -4.8484135 -0.7153155 0.9701115 -2.3458104 2.1011128 -2.81464 -6.040737 -1.2456268 0.24903798 -0.52303463 0.46774548 -0.90902805 0.455035 0.8079704 -1.3214264 4.8415065 0.15432337 -0.034135688 -0.20658863 -2.1242929 0.4990663 -1.3599012 0.5205342 5.3715 1.7647136 2.676821 -0.83890045 2.2577772 -0.9098889 5.0773706 -1.0402297 -1.0692647 0.28674525 1.1034912 2.9596202 0.2229581 3.1143892 3.4338899 -0.75485325 -0.27539742 -3.593509 -1.8790432 -2.4027185 -3.327005 -0.03536146 0.90572715 -0.6569726 -0.2410133 -0.59527576 -0.1689447 0.84304494 -0.4530478 3.7845597 -1.5594522 3.8189392 -3.1958218 3.0374043 2.9623764
378 0.3606501 0.17782083 -1.9757334 -1.831499 0.6343799 -0.7564258 1.817746 -0.8221494 2.3343596 -0.6569385 -2.714039 0.4554421 -2.0231793 -1.2150426 2.7424252 1.7324961 2.2640634 1.7969588 0.30828267 -0.76124936 3.4368315 -1.0854679 1.8058949 -0.81584525 2.3493485 2.821188 -1.9385692 -0.08745905 -1.2892524 -0.18132398 -3.3611472 5.5183153 -1.2683841 2.5960388 1.0688368 1.4762377 1.7280356 -0.5002475 0.33909434 -0.27727705 -0.61771536 -1.0547774 -2.707209 0.0482076 -4.2571383 2.4441102 -1.879068 -0.27511692 1.9529533 -0.9990344 -0.025522742 3.380193 0.44964504 -3.3010817 2.5330963 0.51639754 -0.062100917 -1.8424109 0.08481766 -1.7021308 -2.8328567 0.61038065 1.3412825 2.1219099
323 1.1810092 -0.34056336 -2.0871534 -0.49524757 -0.72117835 -2.7629788 0.73390996 -2.195164 2.3643873 0.039730534 -2.5696998 1.0556803 -2.060026 -0.082161166 2.0794852 1.4544965 1.6781669 1.2296637 0.41612715 -0.8063072 4.462758 1.8456454 0.6208745 -2.5779057 0.50053686 3.0798268 0.016868193 0.23548226 -1.6556097 1.3600956 -2.0351954 6.9795175 -1.1633477 2.6886313 1.5282234 0.2661457 0.52839416 -0.31125337 0.6285036 0.41920325 -1.1169769 -2.5416152 -2.6192014 1.0127748 -3.8365998 0.91459477 -2.5626006 1.0137467 0.6452161 -1.2452729 -0.67799705 2.337544 0.60010415 -1.5729634 2.3451269 0.26665702 -1.0389142 -0.96875155 -0.41630322 0.73682064 -1.6999717 1.2958761 -0.30252054 3.3599694
0 -0.73775864 1.2078507 1.4493314 0.099177405 0.3521932 -3.6405463 0.38899606 -2.4585211 1.465352 -0.6908152 -2.4493742 -0.8151822 1.9891548 -0.9151705 1.1512438 0.69332045 0.73860383 0.037158903 2.6051214 -2.3031929 1.3056549 0.41181776 -5.3906245 -1.1651467 1.5038762 -1.9191965 -0.82055944 2.3509798 1.9680425 -2.1084762 -1.6010945 0.11982203 2.5825987 -0.85991913 -1.1389654 1.2265962 -0.2192518 0.20051174 -1.5698586 -2.0197167 -3.4025404 -2.1720855 1.0676771 1.6226414 0.7054305 0.8901516 0.7604142 1.1401561 -3.4838786 -1.2198589 0.07176803 0.19056176 2.472107 1.3986478 0.2745174 1.0158137 0.32538152 1.5682995 -0.112452 0.6753774 1.4761724 -1.4389678 -0.09551842 -0.5613144
539 0.2201797 -3.128329 2.2697089 3.8958187 -2.473515 -0.5660507 -2.7896175 -2.6837215 -2.9010043 1.3184898 -1.6178312 0.73958784 -1.468611 -0.79333454 1.4365865 0.00036249927 -1.2788159 -0.91321623 -0.85926825 0.022051608 1.3569899 1.081144 -0.8867983 1.1414825 -3.7140348 0.3219327 1.0327828 -1.6865736 0.9828565 -0.34494096 1.284983 -1.0397258 -0.6689732 1.7740804 -0.03464964 0.8357069 -2.0571556 0.18270461 3.0012116 -0.32835495 0.5258595 2.4902387 0.5578799 0.7177304 0.28858373 -0.8809809 0.90369976 -0.6958964 -0.3038739 -0.064523645 0.14100341 2.533698 -0.18314001 -1.5148444 0.72022283 2.050631 -2.0158784 3.3225067 -0.86133003 0.6550991 -1.7747772 0.23899941 -0.2518091 3.257628
457 0.9675014 0.5736335 -0.28831145 0.019020444 0.3128065 0.4465343 0.69760495 1.7468141 -0.53247356 2.1565006 -3.29189 2.292235 -2.1628363 -1.650118 -1.3002067 2.3058627 1.7268064 1.7653615 1.3167598 1.8086436 3.6041737 2.397678 0.0021261186 2.7282867 0.085713804 -1.4194959 0.53637004 1.03563 1.3460873 2.0194857 -2.2085955 1.8639792 2.397241 -3.7374363 3.765839 1.6716346 -4.577801 -1.3289266 1.1510426 0.95141083 2.7873213 -0.12242404 2.7277753 0.29417524 1.332142 -0.009692444 0.76981413 -1.2797827 1.2986089 2.4817426 0.12636195 2.4062278 -2.176052 1.3220315 -0.8353609 -1.3791739 3.2341113 -2.279809 -1.6788706 0.41423967 -1.70477 0.29695496 -0.9792873 -2.8083596
458 1.4053868 0.77397907 -0.7258973 -0.3990359 -0.2746333 -0.21696109 -0.38346362 2.5886245 -0.88632286 3.130807 -1.5460422 1.923324 -1.2542597 -0.64166474 -1.7690105 1.2218057 2.2710714 0.8817177 0.106217414 0.4645769 2.3622434 3.6533341 1.6094991 0.9300343 1.9462005 -2.0617304 0.24565275 1.2031345 1.658929 2.4791634 -1.6526312 0.66523725 3.9513783 -2.963336 3.9574537 -0.5420862 -3.1773956 -1.396222 4.0752196 1.1234432 2.2057717 -1.0448344 3.06533 -1.0260334 1.3707954 -0.97467846 1.4732345 -0.033434767 0.50190526 1.238677 -1.7230471 3.1428654 1.8866882 2.3640146 -2.894931 0.02516339 1.3306816 -2.8328016 -1.0672045 -1.183984 -2.5429766 0.5687922 -0.30057144 -1.4959395
369 -3.4363248 -0.7871348 0.57849336 1.3129016 1.3516293 1.3740134 1.0432252 -0.6746112 -0.9292985 1.9964304 0.6874062 -0.6706509 -2.7490122 -3.5817 -3.0044096 0.24393786 0.6531212 2.5841038 3.1170795 -0.5307442 -0.7850803 2.3776207 -2.6303248 0.15027735 2.4091835 2.8926954 -3.6618967 2.4180746 -0.35224396 0.6140048 -0.98180896 -1.1690283 0.8674644 2.4940457 1.1167252 -0.7671909 -1.8312505 -1.9271312 -1.6935416 2.9439094 -0.17349644 2.9784043 -1.863247 1.5588197 0.98363334 -1.6500577 -1.3346869 -0.45567328 -0.39354783 -0.99863225 0.57311404 3.2332764 -0.6831567 -0.7496547 0.76767147 3.16124 -1.6663703 0.08913651 2.6739936 1.030681 0.8452651 0.5341577 3.3060148 -1.9932939
78 2.8020167 -1.4081148 -3.0422692 -1.1206584 3.9231808 -0.9818075 -2.8908517 -0.27952257 -0.595823 0.8226443 -1.4539272 -0.28641725 -1.2760056 1.0177542 0.71685106 0.6161888 1.2548839 -2.9751449 -4.713989 1.6689228 -2.1087432 1.8782499 -2.9991462 -3.3151438 0.023867527 3.9528735 0.451984 1.884296 -0.050912675 -0.26553926 1.6965449 -2.6745017 0.6072279 -1.5677376 -5.6731176 -2.8251936 -0.35325816 -1.4936949 1.2657617 1.629874 -2.016224 -2.8369925 0.052802153 0.08626088 0.021607384 -0.07562344 1.6087873 3.1146696 0.42202163 -2.6140382 -0.073274285 2.909349 -2.6460552 -1.2495208 0.012815659 1.5415196 4.433326 -2.5910752 -2.2887723 1.3850487 1.3680779 -0.303829 -0.72317636 -0.9210973
396 -5.2459397 -0.4253714 0.63227874 0.91467214 1.5972384 -1.3180112 1.79552 0.03808427 -2.5271704 2.0970294 -1.1736947 -4.6553316 -1.2542162 -1.9803263 -1.1990234 -0.5093413 0.51999605 1.8870951 2.4401407 0.87346804 -1.0589056 2.386318 -4.5120125 0.4179021 1.6543272 3.3015893 -2.0976138 3.1074975 0.25693485 2.9117658 -0.87380946 -2.5978425 1.2669182 -0.4747903 -1.0577958 0.5774262 -1.8737731 -1.9147638 -0.031958938 1.4304441 -0.5385386 1.2022035 -1.1250317 0.7204546 -2.6777356 -3.9610524 -2.7396083 -1.4215086 0.13202335 -0.34566402 -0.5091501 3.2027988 -1.6545407 1.321931 0.44296902 1.0408553 -4.032119 1.6713706 -0.442603 0.12091552 -1.1174701 0.21259668 0.39399877 -0.94489664
545 0.8602887 3.3035169 4.4044275 2.0280159 -0.6585801 -0.26647034 -2.4638753 1.9014821 0.00477243 -0.9183515 -1.5307678 3.7842498 -0.5010896 -2.2635775 1.0903848 -5.1822987 2.9175835 -4.926357 1.0590248 0.7382104 1.8296021 2.7949498 2.0384395 -1.4091325 -1.4054098 -0.5427478 -0.06358831 1.1050259 -5.6708694 -0.6021968 4.7131047 -1.0048236 4.13008 0.37839735 -6.0261793 0.22397353 -0.078335054 5.572377 1.4227861 5.683153 -0.5652273 -0.45077166 -3.1655705 3.0329168 5.374951 1.5980872 1.578217 -0.83318937 -1.8360823 3.6476574 2.0255764 1.6237289 -1.4346926 0.4355569 -0.47679833 -3.0977795 -0.5262302 0.2494454 2.5224416 2.2286487 -0.89618766 0.6750708 -1.6166844 3.1476343
364 -3.4762173 -2.2428083 -1.5898019 -3.4139478 -2.7839496 -0.99894124 -3.1469069 0.15976626 1.2001306 -1.8372757 4.1036386 -1.0068907 -1.7249621 1.9708328 5.669499 -3.0579517 1.6475761 0.727838 0.29611474 -1.5053319 -0.3354273 -2.3064 2.6919143 -0.18376727 -1.286673 2.6358693 -2.8492641 2.4060338 -1.2512748 3.0394557 0.101699546 -0.20534147 2.768898 -1.0405601 2.5173297 -5.7408786 -2.0377693 2.817052 2.0546498 -2.0016234 3.6011426 -1.2516237 -2.021188 -4.7075987 4.8758245 1.412922 2.3278975 3.778482 -0.7130268 -4.5393667 1.6788144 6.6492877 2.6355293 -1.7463362 -2.39795 2.8665502 -5.5356584 2.0480635 1.8089138 -4.8393154 0.5373342 -3.2383752 -8.287132 -0.9977133
333 1.8179324 0.3676794 1.7902732 -0.052634038 3.0445392 -0.485951 1.7861041 -2.8356361 3.726469 1.8588297 -2.9494624 0.56888664 0.52744603 1.8133186 -4.6729655 -0.10386648 -1.4938664 2.0796175 -2.3908868 -3.8686285 -2.102891 -0.302738 3.3375878 -3.2557628 -2.1461723 0.35475293 0.5972932 2.9109192 0.88258374 -0.8768501 -0.62258345 0.685337 -6.2132745 -4.446301 0.3965439 -0.94615936 0.45547646 -0.11698272 -5.4508953 2.708545 -3.8986714 3.9492795 3.5672593 1.5216647 -1.4357197 -3.1159127 1.5546952 -1.8821408 1.1753482 -1.9589094 -0.9211858 3.7246907 -2.0453382 2.3558202 -0.29309782 0.7001483 -2.1341357 1.897787 -0.01583474 -1.549659 1.3888994 0.79905593 -4.6635666 -3.032838
525 2.131447 -3.7786982 -3.060967 -3.8378813 -3.522506 0.9771373 -1.1986619 2.3336904 1.3494172 3.0633464 1.3807491 5.8702464 -2.6572115 0.9713726 -2.5436254 0.85156786 -3.1394825 -1.899511 1.4124851 -0.42146218 -1.4438173 -0.96638095 0.3572366 1.9535717 5.702371 -0.9477106 -0.9284371 3.262914 1.1995528 1.833902 -2.6700692 0.5112673 0.7573421 -1.9829111 0.49175835 -0.10892981 -1.0644493 -0.0051560225 3.7139704 0.9926026 -0.24369432 -2.4121943 -1.4437599 -0.745332 -0.08437911 2.3642292 -0.6655448 3.2445521 0.30837664 1.033375 -0.5341978 2.0032449 0.31159058 1.3896517 -1.9776415 -0.38497934 -3.1883736 4.239863 -0.020860884 -3.354845 -1.4429533 -2.1884038 -2.3356667 -0.8214217
166 3.762293 0.8290727 1.2500141 -3.0636399 1.9180938 -0.9526925 0.09376077 -2.123173 1.2804085 1.3807143 0.7160435 -4.129282 0.11674486 2.1141453 -0.038486432 1.6509264 1.7071416 -0.14541249 -3.8054936 0.00089931086 0.2360419 -2.373655 -0.13633837 2.1544938 1.0361959 0.8199994 -3.2748225 -0.6285273 1.9818218 1.8866336 2.0343175 1.4891124 0.89899254 0.96634424 -0.006658938 10.568436 -2.5995872 3.6864011 -2.200507 2.1973374 -0.39689758 0.35542616 0.2830293 1.2100341 2.6566896 -3.089523 -1.0533614 -1.7056354 2.2654076 -2.8315434 2.3900533 -1.2065362 0.47984225 -2.5009286 -4.0458117 2.6031797 0.57928264 -0.7464054 1.8715849 -7.125847 3.4601781 2.02494 3.1106427 1.4602005
308 1.6212754 2.2791846 3.193339 -1.4839299 3.4518096 -0.46312007 0.63841015 -2.9221597 -1.6767607 0.79541624 0.21295887 -0.33477154 0.67786163 3.3130941 -3.027113 0.8328296 -1.2640588 0.023441888 -2.587728 -3.607861 1.7055612 1.3120133 4.8944707 -1.5535402 -1.5047866 3.1231654 -0.8962854 0.3830092 1.6043378 1.6428475 -1.3608689 -1.289525 -8.181858 -3.2742474 0.04419405 -2.0241377 0.8963863 0.8228415 -0.8013613 4.1064014 0.47958946 0.31962803 0.52738464 1.8022041 -0.093768075 -1.2544669 -1.3623662 -2.429791 -0.12468893 1.4944415 -0.09065858 3.70528 -1.1789266 -0.8904177 0.37415004 -1.7229383 -2.016558 3.52818 -0.14591183 3.3666446 -0.8564227 0.32745987 -2.6480334 -2.9636679
311 -1.1501606 -0.069006935 -3.5910714 -3.3022795 3.203611 -2.095735 -0.26798597 2.2997124 -2.1896493 -0.55615014 -1.1290673 3.3171873 -1.6230798 -0.28997055 2.1780965 -0.55314714 -0.17868207 -0.11257327 -3.0390122 1.6840745 1.2399298 0.59979814 -2.3333337 -2.3173344 -1.4446918 3.4829617 1.4265015 1.9693549 1.2786741 -0.8424266 0.43498397 -3.4891622 1.4074765 -0.54313874 -4.357991 -0.06161329 -0.61725444 -0.28630796 -3.6298199 -0.36460444 -2.3941805 -1.8078144 -0.99941456 -1.8597354 -1.757536 -1.3749328 3.7054033 -1.1350361 0.26308748 -4.164423 -0.2515791 3.6238885 -2.2959714 -2.3082616 3.0888045 -0.91311693 5.2999005 -0.24330147 -3.2276738 0.55055356 2.3001623 0.21319151 -1.51756 -0.4458993
287 3.5862432 -6.3618436 1.8010215 -2.187028 -0.82356334 -1.4783026 -0.12614624 -0.40122402 0.42193058 0.25717595 0.6157438 2.473417 -2.2069888 -0.45505434 2.8724058 -0.18280685 3.2655478 -1.4084687 -0.87417233 -1.2075255 5.3962574 -0.978316 -0.7863333 -1.0484247 5.907187 -2.8131032 -0.30951053 1.5926696 -0.5081135 0.8534861 3.6251297 -1.9645954 -2.7949092 -0.14834656 3.5260565 -3.4000366 2.340849 3.263844 0.28528595 -1.5417836 2.4099116 0.8293828 -0.03818035 -7.9041862 5.4587355 3.193947 3.0540304 -2.2503872 0.9850655 -0.060851324 -6.943712 1.5158533 3.474781 1.6430107 1.7875575 -2.6001213 -1.8574784 -0.86138475 3.7326608 -1.7579614 4.7015715 1.7536728 -1.9533287 -0.89887583
395 2.1190202 -1.7301332 1.5028119 -6.425438 0.53548366 -0.22089699 1.9004577 -2.1414764 -2.065513 -0.96325564 0.91738343 -2.1634617 -3.0633218 2.2759755 -3.176661 -1.0582644 1.580803 2.0149777 -2.4867613 -0.6078822 -1.2288764 -1.4410572 1.3130356 4.062999 1.1412157 -2.4020057 2.8564153 -1.9945748 1.2341022 0.3676026 3.0775115 1.3549781 1.7560596 2.1376345 -1.3562098 -0.19852096 1.0718917 -1.1880525 -0.86889064 1.6628613 -0.5915047 -0.8013396 -0.06325426 3.639211 2.29361 -1.6003073 -1.4139594 -3.417722 -0.87115884 -0.031428978 1.1402088 0.17371814 -2.6308334 -3.2776437 0.010909128 0.008742233 2.1394773 1.3917868 0.9033739 -4.6285024 4.3591514 -2.6083097 3.786136 0.9047924
338 0.60578763 -0.8322503 0.35475776 2.4494793 2.6413767 -1.7461787 -2.9737012 2.2917376 3.5081923 -2.788596 1.6003891 1.6403993 1.1616439 -2.5562756 -0.48544785 3.1587868 -1.0873162 9.4215 3.3906598 0.6160726 2.0077858 -6.4100327 -0.66038764 1.601946 -1.9408131 -1.0221498 1.5258868 3.1225848 -2.2312307 0.5752657 0.01127923 -5.7406917 -2.6503265 -1.2704159 -2.417644 -1.9740728 -1.3467412 0.73128116 0.5566248 -5.5469313 -2.1288152 -1.7606467 1.6445056 4.125637 2.4678998 -3.9475808 -2.9230533 5.1301594 2.6630204 0.45362645 2.0122252 2.4058292 -0.5887575 -1.8802847 6.386325 -1.147127 -0.47069424 1.8600221 5.729555 -0.8564765 0.24810553 3.041469 0.034827445 3.25697
524 -2.2121682 0.29596704 -0.8329872 -0.22643994 0.9664861 -3.3574088 0.63237715 -0.64481694 1.3237725 -2.068691 0.11654211 2.1922498 2.0573928 1.4151344 -0.55410933 0.38188255 1.5552852 1.0261582 4.1243334 1.0494134 -3.6518555 2.1138375 -0.10463028 0.2612103 0.5170809 -0.3879684 4.7819843 -1.0215392 0.57675505 -1.4759246 -1.1162455 0.5809674 -0.95493484 -1.1566068 1.0409548 1.8671746 2.037201 1.226886 0.43317527 2.204457 -0.49428478 -1.052907 2.3782284 0.72146153 1.873575 -0.5691153 1.7155563 0.643299 -0.39573836 0.99246573 -0.45296037 -2.4444482 1.0868202 -0.69505227 -0.07398724 1.7673047 -0.11427736 2.208249 0.6448202 -0.44628927 0.26228428 -2.1191688 -0.82621664 2.5452063
465 1.1965071 -3.907528 2.5489724 2.9249225 -2.6045597 1.1570386 -0.4801082 -0.3310208 0.049472366 -2.13837 -0.24088402 0.16097018 1.6103051 2.851773 3.9685469 0.67055327 -3.0283747 -0.21923068 -0.6815543 -1.2553364 -1.6208636 0.9604507 -0.6045359 0.10113489 1.9640757 -1.7974608 3.5366588 -0.6032588 -2.1990817 0.8767706 -0.7768368 1.4362456 1.7246871 0.1334693 -0.06109883 -0.5810218 1.1757017 -0.87469757 -1.2405928 -0.8971005 -0.012926363 -0.63810575 0.4589462 1.5042163 -1.4729632 -0.98807573 0.03905698 -3.9955065 0.3682344 0.8129759 -1.3337712 2.969024 -2.080171 0.8052886 -1.3583047 2.2038288 2.298926 0.12595703 -0.07789217 -0.20203696 1.1503432 4.463514 -1.3256161 -0.7506922
255 1.8294047 -1.8403498 -3.1531188 -0.87939864 5.4724307 -2.2886353 -0.78561735 0.7702834 -2.5200293 0.37545738 -0.18068832 3.2886384 -1.2677335 2.6387093 2.266191 -2.444908 0.81842923 -2.2721012 -6.0407977 1.1816097 -0.7965567 2.604838 -1.7380006 -2.2826684 -0.62500876 3.0929852 1.3217682 1.0091515 3.0372205 -0.66003305 1.2771499 -4.003879 0.9348362 0.05803039 -3.5030255 -0.4322566 -0.3952844 -3.1204398 3.621515 2.4039767 -0.8310548 -0.75774944 -1.7736405 -0.2455802 -1.7402666 -1.9468518 2.9799502 2.3562381 2.7785666 -4.1449847 -0.5444729 2.648668 -0.8238602 -3.4442396 1.432308 0.07982435 5.7189 -2.0995386 -2.1205657 0.26153505 0.5160598 0.7409515 -0.2265942 -0.047152422
550 -2.857969 -0.7793394 2.2466147 0.6512248 -1.4596313 -1.6752626 3.3903558 3.9715133 0.29729047 -2.9507933 0.8309069 -3.9817996 4.121442 0.5566481 0.85184216 2.97947 -1.3266001 2.226084 -3.3490014 2.306676 2.7875812 3.2415566 -0.5366514 3.5080037 -1.1964374 1.9497753 -0.20934734 0.2715526 -1.5268344 -3.4695292 0.96677166 1.8355584 -1.633026 2.0677614 -1.3984733 2.6422877 -0.59133977 2.2940838 1.7137098 1.119804 -0.508479 2.0240865 1.7885959 -0.7856768 -3.106806 1.5147648 0.8103874 1.4381902 1.7419013 -0.17704804 -2.193243 1.9042163 0.24169502 2.2077167 1.6657951 -1.0500244 -0.97349125 1.5396885 2.0957623 2.775307 5.6632476 -3.3003278 -2.5850601 -1.3792926
160 0.88779014 -3.2994583 2.0208056 -0.55148774 -1.1166188 1.6620684 -1.3467176 4.633251 0.51656574 -2.664542 1.95851 -1.2104019 -2.532982 0.05643263 -1.6687828 1.4588984 -0.3444384 0.21648258 -6.1784344 -1.0233672 5.877458 1.9225554 -0.81894153 0.37917498 2.989513 1.0718126 2.774978 0.5461619 1.3607975 -5.3223352 3.7040823 3.4770513 -1.0619812 0.7857853 1.4191685 -1.7570099 -1.1121131 3.8564599 4.7872095 -2.2601542 -0.6134224 1.9801971 1.8862951 -4.372168 -0.0985191 6.491453 4.0182214 -0.6757383 4.0025306 3.083212 -4.804935 0.6030561 2.5697477 3.0358768 3.9781659 1.1634495 -0.7218299 0.25034407 2.9985375 1.250644 7.683842 -1.6340537 -4.1753063 -1.2653582
526 -4.5847664 -1.6099421 0.31265053 -0.28799364 -1.67527 -0.5150325 1.7802339 -0.8408376 -1.8261493 1.2879786 -0.0901794 3.2457285 1.5942849 2.5120277 -2.337653 2.4191144 3.5334828 -0.3061497 -0.8180221 -4.3527865 1.6378762 0.4880819 0.67387253 -1.6139541 -0.5589856 -0.95072716 -0.6904809 0.087826535 -2.2488902 -0.88143194 -0.13863008 2.3325465 -2.9046905 -2.0839512 1.487592 0.7963916 -1.2582684 -3.4868226 -1.8424633 -2.8030488 3.8958902 1.9853888 0.79911584 -2.4272687 0.003752827 0.9866048 0.61878633 0.9527337 -0.55976725 -2.775911 4.5295916 -2.7978137 -0.11496719 -1.4964254 2.855365 -0.3180347 3.0415902 1.2012116 -1.570717 -3.9442675 0.22023113 -1.9302957 2.4046102 1.3681878
521 -0.1953092 1.0512868 2.3548136 -0.8295458 0.9663601 -1.0491545 -3.3280113 2.649872 2.857936 1.1524409 2.3984413 -2.9727035 0.9127736 -0.5582855 0.6516315 1.1639786 -1.2918977 0.96713036 -2.1228642 0.1344934 0.9899117 -3.1885993 1.9569787 -1.6306736 1.8625118 -2.0577967 5.032104 2.0988684 0.19611874 -1.0920973 -0.16252287 -3.5274904 -2.2443812 0.10931804 -1.3052325 -1.7139554 -2.923062 1.3187315 1.6898348 -2.226005 -1.3748956 0.211257 -3.5141542 3.8851993 1.5544953 -4.9026756 -3.1604433 2.4504015 -0.67944235 4.4367137 0.34019876 0.23178484 1.7225829 -0.69306684 2.1954165 4.69904 3.4759614 1.895221 -1.7750039 1.8587692 -4.412005 -0.5961399 4.0891213 1.6779275
336 -2.1043105 -2.1423318 4.0629334 1.5384206 -1.1329011 -1.6685604 0.13888648 -1.2555529 0.31684124 1.7703122 -0.70587736 1.7535981 2.0023694 1.3150313 -0.73579264 3.9076083 2.9224815 -1.1804824 -1.3389022 -1.9284151 1.150862 0.9177633 -0.25743833 -0.9221048 0.76855946 -1.0595376 0.5357416 3.538473 -2.2744346 -0.78611565 -3.500849 0.85042787 -2.473449 -0.6091485 -0.17102408 0.20924227 -0.597043 -2.8041596 -1.9248413 0.15927511 3.6121895 1.9792858 2.3947814 -2.5703883 -1.9803679 2.6756186 1.1006595 2.0753007 -1.1225629 -2.3385844 4.4031253 -4.965072 0.45891687 -0.8304013 -0.8169966 -0.34619513 0.49409336 -0.23202752 -0.28077388 -2.7634556 -0.6097908 0.12311291 2.4981503 2.0155537
269 -1.3711298 1.5046406 2.6795604 -0.5199482 -1.1383095 3.478486 0.1430742 -0.91320705 -1.4195291 0.041616295 0.046547413 -2.0446808 -3.2345605 -2.5532238 -3.047577 1.444806 -4.7739115 -0.038605854 1.7949463 2.2581398 -1.6866797 -1.6901248 -5.353009 1.2146369 0.6544477 0.09945779 4.645676 -1.06918 -0.49545908 -3.261674 -2.4923508 2.999229 -4.1976204 -0.46602613 5.1211886 -2.3296747 -1.8895833 0.23646046 -2.9768455 0.10699047 -1.4431545 -2.2595105 -1.1321552 -1.7016478 2.7519827 -0.24752685 -2.0207028 3.2026544 1.825393 -6.19362 0.6129941 0.31043303 -1.5067419 -1.5697047 -2.8425999 -1.4914062 -1.4698628 -1.8857436 -2.1033428 1.5985618 -0.44534132 2.258732 0.2511721 -1.0979102
536 0.76097155 -0.23909384 1.446378 0.947062 0.9167028 -1.6213212 -3.0168262 1.6296163 1.3956647 0.5447499 1.3581216 -0.1495729 0.032332078 -2.087678 0.9563501 2.517265 -1.0144942 1.9541988 0.76878935 1.9706382 4.2076077 -2.4796221 2.7956457 -0.5520259 0.50844246 -2.8966112 5.3165126 1.3769774 -0.23278737 0.24272884 1.0940105 -4.0708337 -2.8762865 -0.5109305 -0.5558977 -1.264658 -0.6461118 0.8863692 -1.207843 -2.45896 -0.99906576 -0.07489617 -0.2749202 3.55984 0.7549054 -2.7712486 -1.8435171 2.809325 1.2689958 1.8674898 3.777036 3.0029318 0.9361049 -0.9081317 3.4706914 2.91463 1.5437423 -1.1054165 1.7103626 -0.66255015 -3.3292754 -1.3842018 2.9238706 -0.7623109
54 -1.4862363 0.8943789 -2.817569 0.45722398 -1.6378937 -0.05153345 1.4991183 1.1231977 -2.024197 -3.591169 0.78375095 1.7051691 2.1189086 -1.7689337 -0.81955034 -1.9443616 1.9276328 1.6249003 -1.2995902 -1.2294708 -0.5572461 1.117399 -2.3642797 -0.7639966 0.39785525 0.9885591 -0.1493835 -1.2626791 -0.14919157 -0.4708639 0.27134222 0.48146442 -3.0644069 -1.0645672 0.871202 0.60762215 -1.8622414 -0.7456044 1.1048311 -2.6267416 -0.5300439 -2.0740304 -0.77818424 3.4073312 1.3555937 -1.8829976 2.4683006 -0.955413 1.1112252 2.3827999 -1.6529216 0.05095844 0.5260519 -1.4892964 -0.94003963 -1.0968783 -0.81298804 2.2479553 -2.335721 1.0743787 2.0164328 -2.3515053 -0.16317627 -1.2626785
267 -0.01760069 3.460607 0.10519364 -0.9231486 1.5802155 1.7356402 -0.9663458 -1.2575886 -2.0550466 0.9084218 -0.5215284 -2.4821708 2.0788233 -1.2971358 0.99673563 -0.34441537 -0.18116152 0.0031314166 3.347842 1.0575743 0.18873212 0.49419376 -0.41372377 -0.473176 3.1732168 0.7986303 1.3845828 -1.2479409 -2.857387 1.2626923 1.5032706 -0.45843488 -1.7741482 -3.7778769 -1.6146305 0.21480429 -2.831974 0.62040967 0.3643334 -1.107302 1.6795189 0.64526105 0.02747398 -0.9939471 -1.1958139 -0.27423042 2.649331 -0.7097871 1.4021295 0.9966073 1.915159 -2.2642574 -1.0381567 -0.89022684 -1.1919693 -1.489214 -1.5004148 3.0925848 -0.43204057 1.1397928 1.0101309 1.7436367 -0.02775234 0.9137765
413 1.4712539 1.1829643 -0.096169114 -0.07129214 -0.07517272 -0.098757654 1.2598144 -1.531367 1.8350528 2.3110957 0.4533709 -0.9479231 -0.9061259 -0.09202207 -0.04058728 -4.2811413 -0.7220171 -0.6605408 0.7878192 0.5226914 2.0699704 -1.2148762 -1.7478932 0.50761884 1.4368503 0.7285091 -1.1254798 -2.9262722 -2.4552536 -1.144298 0.381751 -0.8368754 0.7339361 -1.014439 0.7959513 0.89060324 -2.4577696 -1.0002531 0.7378117 -0.43097463 -0.79618865 1.6071478 -2.954242 3.0410297 -3.2252793 -1.8974383 3.4704373 1.0876354 -0.012228588 -1.4675136 1.398817 1.0824982 0.022638911 2.4830153 -0.066023104 -2.159923 2.0613148 0.9833648 -0.88651097 -4.0275784 -1.1664487 -3.0824435 3.5740647 -2.668168
307 -1.1601094 2.1141083 -0.04304689 -0.28962573 0.40729806 1.3864473 -1.8266723 -0.077548385 -1.514409 1.412975 -0.9117587 -0.32821286 0.9107104 2.7761266 -0.6388503 -1.8660202 -0.4714794 -0.9981604 -1.5490594 0.1327836 1.395061 0.73983 -3.2894373 2.249617 -2.4638526 1.7949679 0.67405313 2.1475835 2.6729324 2.0285823 -0.20047848 -0.1690037 0.9364891 -0.8640858 1.2033515 -1.1348335 1.2861483 0.9801215 -0.55505526 1.2820743 1.4617594 3.8124576 0.8007121 0.49325508 -1.8567759 -1.4560143 -0.4131689 1.5714417 -1.788559 0.37981448 2.5540795 -1.3859122 -0.3465981 0.7766645 -1.7507417 0.35990986 2.1446545 2.1382456 3.1948571 -1.2238727 0.39409575 0.022866085 1.475621 1.0615761
231 -0.9770804 -0.67618966 0.35521755 0.59746444 -0.63519496 -3.9375648 0.6942431 0.22939722 1.2448297 -0.556966 -2.0768154 1.2080978 -2.9518166 0.9397442 1.7305233 -0.37406155 1.1413444 -2.6478515 1.0176337 -0.3763802 0.11466984 -0.6738341 -1.2200248 -0.52439755 -0.4457128 -1.4051722 0.36344057 -0.77584064 0.76351064 -2.6947265 -1.2272257 -4.0667257 0.34198773 2.464347 -0.36986724 -0.36355507 -0.22473487 -1.081441 0.90776247 0.32271236 2.5838504 0.7928659 2.6028156 1.9737034 -1.9220701 -0.3269272 0.9777278 2.5023782 0.9051575 0.34918648 1.9896508 0.08817691 -3.5628276 -0.1731535 1.5679924 -1.4490576 -3.6901138 -1.5350204 0.24770372 -2.5627995 1.0664451 -0.3313771 -0.1206959 -2.037094
441 -1.5540729 -1.6587652 -2.0968163 -2.458096 2.4846902 -0.38768744 0.012294077 1.5942858 0.5478595 -1.440464 -0.31969213 -0.048945528 2.8555233 -3.5188673 -0.15734628 -1.703328 0.19176646 -0.88083935 -0.17838658 -1.658809 2.3520308 -0.49218652 -0.75752944 2.313519 -4.40598 0.6160095 -0.0046727783 -0.17291486 0.10603504 1.619166 -1.7175233 -0.28904706 -0.9246725 1.0286779 -0.47726226 2.4172683 2.0239103 -2.8024085 0.65502715 -0.0027626043 1.6084216 0.07454209 0.69720286 -2.0728383 -0.73863786 -2.043211 0.20190918 0.61487097 -1.6678513 1.6897696 -1.3303103 1.1412706 -1.5272801 0.4502977 1.6005056 2.1182187 -1.8729622 0.9347699 -2.1101277 -1.7760385 1.0066967 1.6032839 0.17928785 -3.7394414
552 1.7533977 1.200617 1.6565559 -0.9445903 -1.505324 -1.9186274 0.73153245 -0.7673462 -0.34123802 -1.9582543 -1.4963098 1.2589823 -0.6745596 -3.3409023 2.0110428 2.1885674 -0.12740979 -1.1075828 1.5235871 1.4960464 -0.80306035 -1.0465816 0.38074413 1.1728257 -1.2272166 3.234952 2.4233434 -1.32917 -0.3267232 -2.34611 -2.999136 1.0740114 -0.35971907 0.55927527 -1.0474836 -0.17026986 -0.5932237 -2.7636166 -0.37750417 -1.5949001 0.41086662 3.6195145 -1.876231 3.312248 -1.0837184 1.1170617 2.0858166 -1.3750068 0.6117022 1.4963782 -0.6438479 -0.73702335 -1.3091617 3.5592837 -0.40954304 1.4516835 -0.12872133 0.8081065 -0.23346652 -0.41129285 0.6168246 1.1319469 -1.1293387 1.3421197
452 -2.9592652 -0.8040014 -0.6825854 0.4931816 0.7592043 1.7949935 -1.050885 -0.8947098 -0.33712578 0.72036284 0.40904567 -1.2976209 -1.4531037 0.8327725 0.48703417 -0.90977883 -0.4682782 0.038522847 -0.047297444 -0.5077925 -1.0753688 1.3314916 2.9969046 2.555379 2.3372054 1.2019818 -1.3784692 1.1708221 -1.223843 -2.1596725 0.23794544 0.93719125 -1.1333162 0.27949935 -0.31339723 -0.34999526 -0.279502 0.019425651 3.7165604 1.4461702 1.3014735 -1.3983015 -1.1710861 3.9780428 -1.2724673 -0.2641449 -0.26882803 2.341251 1.4355915 2.653379 1.7383873 -2.390079 -2.236978 -2.1826715 -1.6190082 2.170835 -1.1632184 -2.202583 -1.035136 1.730719 2.6940212 3.4851043 1.3921096 -1.8726432
315 -0.8668929 -1.7333864 2.6371295 0.15914015 2.8289132 2.05607 -1.4889412 -1.7066162 1.0678756 1.9907856 0.36106527 -1.2711384 0.4553939 -3.1286786 4.2087345 0.015622284 -1.5925608 2.711272 -1.3850042 2.027097 -0.6298731 -0.6974946 -0.9167878 -0.5506366 2.36348 -1.3261917 -0.92752916 -2.6983328 -0.75813556 -1.657823 0.86340606 0.16519098 1.618401 -0.060439534 -2.550161 -0.90752053 -1.1905313 1.0146894 0.41763762 1.8425658 -2.5296545 -0.4833623 -0.67086875 0.8870465 -4.1956935 2.0133626 -2.4382343 -0.37230277 -1.2693552 0.44776353 -3.0672653 1.3806717 1.984035 -1.9516916 0.05762814 -1.2225963 -0.5654454 -0.3116887 -1.0021952 -1.5488306 -0.2553087 1.7707806 1.6273315 -1.959176
294 -1.2160716 1.6486254 0.35447574 -0.17308484 -1.3881212 -0.40976208 -0.47278258 -1.3338758 -0.23023745 -0.03736261 -0.012040206 1.6085942 -0.10160597 0.119443625 0.9224678 -1.2564114 0.088671975 1.2440531 0.7600339 -1.1264936 2.2641737 -0.7012428 -1.5660968 0.9432524 0.6712349 -1.2629354 0.12279254 -2.8658247 -0.19817674 -0.38025162 0.86419725 0.0767438 -1.1674298 -0.19734251 -0.942725 2.5003302 2.1250224 1.478333 -1.1783575 -1.1233197 -2.21923 3.010329 -2.2009568 0.93720233 -0.5979827 1.0029806 -1.6030335 0.33337328 -0.037044704 0.969529 1.1307664 0.9148841 -1.4704076 -1.5954175 -0.182905 -0.2976713 1.3285964 -1.8442906 -1.9915996 0.14439768 0.47064933 -0.03766712 -0.691624 0.25500357
243 -0.31361887 -0.11756887 -0.032872993 -0.24418625 0.5262193 -1.3389242 1.5762919 -0.33983395 -0.46729144 -0.8853816 0.46440953 -1.6703867 -0.933526 3.6034093 -0.59353924 3.8023498 -0.5687466 -2.455192 -1.5995015 -1.1759832 3.2694516 0.4746898 -3.7611084 -1.4261652 -2.6049104 -1.0990013 1.6341833 -0.5459211 -0.6699681 -0.24776977 0.051605415 -0.47738358 1.3148152 -2.6371903 0.24180557 1.3035382 1.4023935 -1.5720483 -0.78675896 -2.8128436 -0.048235737 -0.677441 0.1607809 0.43523103 0.19910704 -0.100024365 -2.8603394 -0.024771394 -0.7381564 -0.06025702 2.5226912 3.930893 1.250637 -1.6114587 -4.0581336 -3.4936275 -1.7058624 -2.0223162 0.5926069 -0.46709418 -1.0237103 -1.537434 -1.1019398 -0.3886059
189 0.34396058 -1.5818248 -0.17568631 -1.071528 -0.4553978 0.4240956 -0.8915575 0.13644144 -2.048909 0.5947567 -0.643617 -1.7242312 0.6023505 -1.3380395 0.5489987 -1.2899836 1.1523329 0.8517131 -2.0210598 1.068875 -0.2563278 1.6140776 -0.48635477 -0.3263114 -0.8418046 -0.31820208 -0.4130596 -1.180801 0.7977922 -3.2116919 -1.6496491 -2.442711 0.2502764 -2.1878746 -0.19663678 0.09708173 1.6905906 -0.5589043 -0.01248588 -1.4694628 2.1996374 -2.2399404 -0.03997742 0.49560815 -0.5468807 0.23442383 1.0809584 0.49024016 1.1886687 1.1714667 -0.58174396 -0.55215806 -0.044559535 -1.9691595 -0.4567877 0.198332 -1.485554 0.19644655 0.6371533 0.2298257 -2.3803048 -0.17257915 0.65911657 -2.5835516
546 2.4189508 -1.9492741 -0.1285659 0.10232117 -1.7696953 -1.571861 -0.87765765 4.0726924 2.4474974 -0.821024 0.9337083 -1.2109323 -5.4752517 -1.8860837 -0.0522211 -2.1695702 -0.8139551 3.2250705 -0.4472136 -1.3937831 -0.06599169 0.008561402 -0.33392584 0.027745124 -2.3884115 -3.5584178 -2.0757034 0.80177236 -0.55373263 -2.8235083 1.9460707 -0.7011621 -1.1032681 0.23995414 1.3215859 -0.5977913 3.0643792 1.4930886 -0.3680257 -0.5525164 -2.3609276 0.48263565 -2.1986032 -2.2214699 -2.1995015 -3.4825532 -3.877503 -2.161502 2.6265373 -0.18202181 -2.738188 3.6630523 -1.9261556 2.6018746 -2.8886187 2.361332 3.337759 0.899644 -1.8928627 5.0495796 -1.9767005 -2.8581057 3.2512739 0.62580496
3 -0.95661855 -0.66260207 -0.9636693 0.26381883 0.9658217 -0.20620133 0.26625103 2.4217374 -1.366615 -2.7505171 0.1429666 -1.2483999 -0.90888125 3.6370447 -1.1067524 2.8794348 0.0349964 -3.1028006 -1.8591906 -0.28026384 2.142783 1.3128556 -1.39218 -4.445492 -1.1847461 -2.711661 1.6986948 1.1202964 -0.8537541 -1.2109123 0.68231493 -0.0166512 -0.18743545 -2.697533 0.7082174 2.3686428 1.6323993 -2.4934645 0.47981077 -2.5231628 0.38422617 -3.1495402 -2.2979903 1.3652312 -0.07014657 -2.1961162 -1.2526426 -0.042678274 -3.3832774 -0.91744536 0.022262441 1.972415 1.6828153 -0.8522194 -2.6462212 -1.8369728 -1.8165965 -0.7929676 2.0309877 1.0994759 0.9825228 -0.48916426 -1.3713018 -1.0636444
339 2.8914778 -3.3058116 -1.9816139 -2.6598947 -3.2304988 -2.1314669 -0.739963 5.745727 -2.1698885 7.7456145 4.4069233 7.184543 -0.029923085 0.072727054 -2.7163837 -3.351524 -1.9212519 0.5659178 1.896945 0.4179691 -2.5817397 -0.6931722 4.033002 0.5174421 3.504355 -2.7061346 -0.9628021 3.158459 4.3873744 2.1745827 -1.7350355 0.4080705 1.275822 -1.6434355 1.2984216 -0.24070431 0.2446248 -0.9153191 2.907233 -3.0255234 -1.2074571 2.8163457 -5.8034334 -0.60080236 -1.1815441 4.0610237 1.297338 3.4505959 -2.0405874 -1.4937539 -1.9759382 0.93542874 -1.1069766 -3.2014349 -4.1256175 0.7576603 -8.917091 1.718837 -0.390723 -2.626321 2.2553642 -0.18453145 -2.3132021 3.021794
473 2.1026406 -0.35845575 -3.103252 3.9930193 -1.6458291 -0.05838639 1.6979584 -0.37790647 2.861031 -1.0272125 0.41740236 -1.2723982 -0.84927404 -0.059856273 0.22138587 -0.58036447 2.7002637 -0.5585117 0.9729798 -1.7603167 -1.949916 -1.4014984 -2.4975114 1.2139379 0.87783086 -3.6338398 1.8160056 -2.848223 3.980107 -1.061455 4.157742 1.2970046 -0.74278784 0.17670155 -2.5632038 0.3160517 -3.4028902 -1.4114243 -2.6218884 3.099368 3.1574383 2.1165514 -1.788526 0.82021284 -3.7214222 2.231489 1.6042551 3.7184339 1.0217214 2.0196264 0.059117034 0.70686895 2.81709 0.3682246 -1.2439537 -1.7477851 0.72697055 -0.24949251 -0.61061174 0.60750866 -1.6422665 0.71447 -2.2893877 0.84985715
190 -0.8141755 -1.2675412 0.4670596 -2.2805066 -1.9481199 1.6991934 -2.3584669 -0.42464775 -5.5059195 1.5563583 -1.8111633 -2.2638087 -2.3701696 -4.120464 -1.7056615 1.4057007 -2.7070103 -0.81672066 -0.6453486 -0.55986226 0.15692623 -4.750124 -0.9479619 0.9173536 1.810339 -0.95293874 -3.1819136 1.2838848 -0.20796946 -5.2083716 -0.1653241 5.374844 -1.9763881 0.6299485 0.85438246 -1.5542613 -0.4681069 1.6386427 -4.986455 0.9630112 -1.7253088 -3.5843222 2.3920386 2.6398456 3.956814 1.2064188 -0.8037452 3.677724 -0.4843698 -5.4204707 0.6035143 -0.15231489 -1.0444943 2.7100537 1.2185043 -1.3029971 -0.84116465 -1.6996424 0.5138896 2.5652907 -2.1864326 3.978981 0.5396694 0.028642567
277 -3.4957476 -2.1266348 -4.578369 -2.1723826 -0.16997752 3.3111367 3.1412551 -7.3362246 1.9292431 -2.4384537 -0.65995973 3.5644124 1.698445 0.61200565 -3.8653543 1.8057557 -3.212407 3.8261623 -3.0300057 5.801107 2.2387295 -4.580375 0.88240117 -4.9694133 1.138787 0.059013136 -0.7508703 -0.1780274 1.098903 -0.27196592 -3.7949302 -4.0233793 5.7811923 -0.2662568 -0.7270054 -1.7679665 -1.4012254 4.806955 0.56786555 4.0420256 1.3463246 2.7824163 -0.54070145 2.538009 0.28322732 2.5377612 -1.1344514 -3.837925 1.0100318 -1.6846203 -0.7617576 -2.7682374 0.54590195 0.9979661 -0.25588834 -3.7508008 -0.5100025 -1.5329452 -1.111485 5.396828 0.80595607 -2.323979 3.392581 5.2942824
334 -2.0408907 -1.8811466 0.21981908 -0.7839208 1.4327828 -0.3864352 -0.87306154 2.6348162 2.0746186 -2.783225 -1.6478864 0.9058629 1.7793063 2.5772557 -3.4091063 -3.145373 -5.2733817 -1.6295736 -2.5220451 -1.9237795 -1.2009244 -2.9480274 1.7360718 -1.861331 -1.2402923 3.6638188 0.2926254 0.1343583 -0.52106994 4.60169 -1.5012089 1.2011724 1.1891415 1.0519041 1.8202264 1.0724634 2.9340293 -0.765034 0.26399165 0.70905626 -0.15775028 -3.276571 3.7072387 0.38804716 1.3113668 1.8896501 0.41829115 -0.5505987 0.34445235 0.06898311 -0.33863416 -0.6475667 3.793883 -0.7742818 1.9621726 0.17670201 -0.84864813 -1.8283244 -2.124399 4.62088 0.95332956 1.1177392 4.9010797 2.1350245
499 0.48376146 4.0397263 -0.44115528 1.7655212 -1.6445949 0.85960495 -3.3170989 -0.9368614 -0.8265649 1.1537243 -0.90841097 0.582296 2.3914514 -0.07220333 0.23842624 1.5669119 -0.1257989 -0.8912174 -1.1773021 -0.8687602 -1.5317092 -0.34063062 0.643345 3.207432 1.6809934 0.660079 0.07679007 -4.5384245 2.4585912 -2.910157 -1.012799 1.8841786 2.7463403 -1.3764521 -3.2778323 -0.5355265 -2.3006194 -1.8470104 -1.0205208 0.7098569 2.099963 0.65660346 0.5750067 -1.9638783 2.0333488 -1.0779788 -4.367872 -2.6659427 -0.16308591 -0.18471105 3.3868785 1.7267756 0.85748744 -0.12087609 0.96088755 3.4374619 -0.6219493 0.03710732 0.47904778 3.5588617 1.4710281 -0.94529223 0.7024695 -2.7988355
85 1.0421846 1.239453 0.038987715 2.6179533 -1.3752561 0.18739444 -4.2721734 -1.0254152 0.10733617 0.9269369 0.80077326 -0.073937654 3.13146 0.28236958 0.5403423 0.91252524 -2.917516 0.14447908 -1.6430457 -1.6601096 -3.3627439 -1.0694052 -0.18642968 5.880812 2.5266986 -0.30070046 -2.1331122 -2.731801 1.4005678 -2.8339741 -0.44548395 2.2161252 2.5284846 -3.1594195 -2.3274407 -1.1998948 -4.959447 -1.4379162 0.6712572 2.2509751 0.16071877 1.9259489 -0.15880363 -0.26480293 1.6076149 0.95708126 -3.6344795 -4.0839715 -1.7670053 -1.7100623 3.9715972 1.2000489 -0.9495066 0.5000552 1.1881846 3.3867278 0.37743196 -0.5740189 2.5123842 3.7468464 0.27673677 -2.0693388 2.023781 -2.8818274
372 2.7968004 1.5421953 -1.05625 -2.1692963 0.8854722 1.2085316 -1.2938601 2.4167151 1.350658 -1.3389888 -1.3124024 -2.8870986 0.20717922 -1.4031395 -1.7345898 -1.9198892 4.2613645 -0.010972839 0.18083249 -2.0207791 -2.6802506 1.3681726 -1.2199548 1.2339127 -2.0032618 0.3033173 -3.8220563 -3.4518933 -1.5278236 2.6104858 -0.6125522 -0.7525637 1.4856098 -5.284586 1.1225898 -0.0392388 3.6409557 3.2455902 -1.5023638 1.2936547 -1.6879898 1.6912613 -1.3622019 -4.930678 -5.8757005 0.82028323 0.14305341 -2.6637223 0.34507385 1.539617 -0.4047296 0.3330926 0.38620564 3.0020342 1.3539498 2.0082192 2.3952832 2.3542483 -1.8312165 0.27201632 -0.9264904 -1.9434427 3.142493 3.8615973
352 -3.7687755 -2.4456658 -2.2886164 1.4839633 1.7927084 3.2728765 1.0029415 -2.6293647 0.72356045 -4.0759535 -0.896342 1.2085456 2.5107338 -1.6493856 -2.8703232 -0.29514998 -2.1516569 -2.1914713 -2.5377123 4.1168156 -0.8707037 -0.5598252 2.7172928 -1.460112 0.49869743 0.1627769 -0.5763285 -1.1144048 0.7474386 2.4993944 -2.3954463 -4.178772 3.2051196 0.45575202 2.4634075 1.240351 4.9011836 0.8295886 0.51492155 -1.4538047 2.1920004 2.1198206 1.838893 1.7497187 2.9540806 -0.66973126 0.22406009 -0.6739153 1.2015761 -0.7771246 2.87055 0.30630162 0.13427894 2.0904796 -0.21734177 0.5552256 -2.8536716 1.178688 -3.475249 3.4274256 2.0374615 -0.7390058 0.9145696 1.0021837
82 -0.072268754 3.2248967 0.22258313 0.44535336 -1.711975 -0.07294764 0.9331283 0.8136479 -4.9303164 -1.1003696 0.26748005 -1.0877621 -1.1569176 1.0338612 -0.39126447 -1.1079359 -5.7429385 -0.5281404 0.7316534 -0.26550668 0.33103615 -2.3025029 -0.43965432 -0.32351202 1.7885059 -0.8199785 0.5136726 0.40739107 1.2517008 -6.0946836 0.1529021 4.084227 -1.6694458 1.4154407 2.326664 -1.5023772 -0.17044814 0.13217938 -0.64261514 -0.8822231 1.665371 -5.547094 0.116626374 2.798732 4.797698 0.52586836 1.7343394 2.107328 0.10138813 -5.9717827 -1.5873773 -0.29336065 -2.343339 1.8315985 -1.8294406 -1.4631519 3.4824498 0.2910892 -2.4256582 1.1483765 -3.1051161 4.2998857 0.10906597 1.0509989
456 0.43210807 0.14192592 0.032492924 3.1652184 1.8688924 0.7716092 1.5830206 -0.013899609 0.32133728 3.620621 -3.1113164 3.7483392 0.6390742 -0.4059204 0.83073694 2.0441163 0.3508112 3.9381366 -0.7534708 0.33495355 2.7465112 3.0670543 -0.8424416 0.020758584 0.3025873 -2.2147446 0.86885446 0.4184874 1.6930147 1.3529199 0.11520027 1.925439 0.3801127 -1.9854275 2.3634434 1.4848009 -4.264574 -0.5158033 3.664365 0.4958163 2.207561 -0.5020585 2.3181694 1.3822212 3.2376964 -0.03798036 0.23475601 0.637144 1.3102626 0.31239337 -2.1114676 1.9907539 -1.088919 1.6062926 -5.0636163 1.0907406 0.7503442 -2.429936 -1.5762527 -0.06481078 -1.8639565 -1.139124 0.16182323 -0.33260942
324 -2.046445 -3.22656 -1.0002967 1.0445687 1.625882 1.9062916 2.2745428 -1.9559082 0.4749756 -3.2678518 -1.0572641 -0.004007638 1.3131759 -1.3694497 -3.2969615 -1.5279448 -2.0812752 -1.6823732 -1.8935347 3.5071507 0.43598986 0.27256802 0.46991342 -1.2627556 1.6641222 -0.6488703 -1.159543 -1.3531195 2.0056243 3.0538194 -2.4316049 -4.1944265 3.0841913 -0.32123867 1.9608997 1.0861307 3.057398 1.6165462 -1.615888 -1.9734465 3.1881657 2.4692721 -0.050762974 2.3490553 1.0448645 0.008938677 0.54772264 -0.21365303 1.8688766 1.3315704 2.8604434 -0.33223438 0.2515116 1.5043844 -1.1904881 -0.756781 -2.4574614 -2.638765 -3.4348192 4.027395 0.77541703 0.7092174 -0.0916937 2.1021526
288 -1.1789787 2.6144824 2.0707061 -0.5443184 0.8081208 0.9453697 0.05581084 -0.3140435 1.9827763 -3.3708832 -1.4785703 -1.1969615 0.4444322 -5.8179603 -5.204488 0.19220647 1.2126714 -2.667348 -0.046646245 -1.0569024 1.7278851 0.47446114 3.153093 0.40176728 -0.5569527 0.37684375 -1.1741108 1.5345044 -0.99542195 0.93964136 4.3535404 3.2657943 4.760295 -3.0448172 -3.1221073 2.5897055 0.41750458 1.7339603 2.7268713 2.5291867 -1.2913885 -0.11777923 -5.848724 -2.142761 0.9602531 -1.1348099 2.155293 1.903452 -2.5532515 -0.98147696 1.0112935 -2.5139604 -0.50068516 -4.4854884 -1.237843 -2.0133402 0.123444974 0.37195942 2.24514 2.683887 -3.9430082 3.248761 -0.934591 -3.8669431
423 -0.15453534 0.3573703 0.23673294 -1.164874 -5.2546077 -1.139301 -2.3062222 0.23297985 -0.8188283 2.2924695 4.215026 1.4962213 -0.53425497 0.8212989 -2.454097 -3.1010919 -0.46032333 0.4019274 -1.7646444 -1.2854269 -0.18507168 -0.68621784 5.2475 -2.4078264 1.4415139 -1.3447772 -0.426233 0.34644154 0.47058636 2.703996 -0.4551386 -1.6126001 -0.71582747 0.7269951 1.4034168 -4.3709393 0.077520356 -4.0244584 -1.7656965 -4.6124945 1.2891148 2.9170735 -4.528993 -2.0959647 -1.37306 3.0574632 2.7803915 4.9659433 -2.3431346 -1.8092815 -3.7878468 4.307511 -0.6299629 1.5770735 -1.8429075 0.19594231 -4.0724087 -1.5241729 1.7162611 0.57640356 3.9671934 -0.25833356 -1.373093 4.8790565
548 -0.18000884 -3.6585708 1.3401874 -0.7108125 -3.0096686 -0.7938718 -3.9004347 2.5365386 4.348092 1.7180653 2.0350935 -1.9073174 -4.5532384 -3.236271 1.4184399 -1.0425043 0.30988368 3.320784 2.1366107 -0.8568316 -0.5883872 -0.62531084 3.3663597 -0.8218667 -2.8263233 -2.9479845 -4.4261284 -1.0400196 -1.385266 -4.3748584 2.3177226 -3.2984853 -0.20078711 -1.8296335 1.4549565 -0.35707834 2.0364382 4.198628 -0.6106323 1.4262468 -4.438873 -0.6854899 -2.852473 -3.9002666 -1.0372847 -5.715098 -3.154846 -2.464523 4.4923425 0.19094992 -3.191059 1.3665054 -0.2682618 3.270723 -1.2217927 4.02938 3.1265435 3.6406813 -0.88893443 6.304053 -3.6695714 -2.3600645 7.2172437 1.4186906
493 2.8807902 -0.3015879 -4.1227984 0.5660938 -0.01686121 -4.1233163 1.7324069 3.4436224 0.58048445 -0.30645108 4.5458007 -2.1713827 2.0183454 -0.46266797 1.625702 -0.7394643 2.783277 -0.2851552 -1.2468319 0.48275837 0.37435806 -0.8137479 3.6063929 -3.995932 3.226524 2.58957 4.073483 -0.814225 -0.09132066 -4.7424793 -1.5550197 0.5273994 0.0022231701 2.4584477 0.9944707 1.3552506 -2.1164334 -0.80569655 -0.9189598 0.310279 -2.2620478 1.254306 4.046215 -0.638928 -2.3796625 2.1118019 -2.6749856 -3.202914 -2.2670176 2.777136 1.7584177 -1.166808 -2.9464893 1.1151323 0.03830228 -3.297464 0.81964934 2.414306 -2.546303 0.40507084 0.91895795 3.615653 0.15059257 -0.3226607
275 3.1227992 1.2524734 0.13424468 2.0406103 -1.0247566 2.0065644 0.26350984 1.2269087 1.6201463 0.49281403 1.5046008 0.94903654 1.4044993 0.8813674 -1.4986567 1.0339203 -2.3176925 0.24547748 -1.1773901 1.3454295 0.60251606 -1.0454537 -2.7795687 -3.3638773 -0.92777747 0.5107053 0.4409277 -0.68748033 -2.139397 0.6395906 1.4009303 3.4374294 0.80728453 -1.5632641 -0.028250167 -0.12152132 0.6517995 -2.3412519 -0.31462196 0.2028564 1.3302318 2.9807186 -1.4600666 0.017063731 -0.96291965 -0.27450734 -2.7099214 1.1732748 0.48655558 0.2375795 -2.8717966 -0.33866116 -0.97231436 0.38332117 0.31762275 0.41139534 0.011392001 2.46218 0.48221877 -2.2924623 -0.07724662 2.7350063 2.558219 -1.7423068
347 0.90316504 -0.54673356 0.089356646 -0.621258 -4.3896294 0.53711456 -2.3043761 4.4239984 -0.6369114 3.1101575 2.3950183 0.5923984 -0.8093545 0.54933786 2.5095873 -1.3010726 -1.2085972 -2.052832 2.658588 0.43573666 1.0928264 0.2683266 1.4755319 0.8279932 2.5835547 4.291454 -2.224305 1.8454146 0.331211 0.861847 -2.0077498 -0.9667863 3.6196196 -0.54487175 3.5498254 -1.9072883 -0.31162655 4.024115 -0.11794712 -3.753071 2.9346113 -1.6285915 -0.48944739 -1.6694075 -1.0282943 -0.0058419923 -0.6979492 2.3956597 1.7368156 -0.82855004 1.6194592 3.4992373 4.6565886 -0.8242359 -2.1028333 1.8546458 -3.3019602 2.027542 -0.38007906 -2.5304725 2.8388505 -1.3088543 -4.7667727 -1.6548443
328 0.5775653 0.064031765 -0.8130706 -1.9815336 -5.171867 1.4863082 -2.2345195 3.1631098 -0.07803373 2.2570448 2.237051 3.1789937 -0.31754833 0.3383891 1.7244405 0.21667273 -0.3683687 -0.6615265 3.5830102 0.548455 1.2392952 -1.9542736 2.2957077 -1.3566169 0.377955 3.440456 -1.6174777 2.2089407 1.501984 -1.2684503 0.5207058 -0.024451932 1.6238463 0.8166342 1.5656503 -1.7546315 -0.6063603 2.8307946 0.87597716 -2.205991 3.3296356 -1.099102 0.40896127 -1.1814338 0.5406277 1.0082155 1.0987906 2.7304308 -0.41859713 -1.5738747 2.6543162 4.423286 3.3880706 -0.14663036 -2.3803182 3.1626968 -3.8431354 0.5623356 -0.27371165 -4.481697 2.2310853 -3.8524952 -3.289438 -1.9392647
350 -2.3331873 -2.074227 -0.73754615 1.2350016 -1.166776 -1.116811 -1.3207036 -1.5122943 -3.393401 0.15854867 -2.7724643 -0.56907403 -0.37715364 -3.0746953 -1.669861 -1.2299436 -2.8226008 -3.7832725 2.247972 -0.44273087 -1.0985792 -1.541148 -2.315102 0.5281553 1.0750998 0.5534516 1.897092 1.4032557 -2.3705451 -4.9350033 -0.87552994 3.6601815 -3.1444118 2.5830088 3.1668289 -1.5963835 -2.9949706 0.73492837 -1.7558544 -0.19052383 -2.1601748 -1.086652 3.5273697 2.9931638 5.313828 -1.7387776 -1.8135849 1.681403 1.6255276 -4.7622123 -1.1510451 -0.47290015 -0.68626416 0.66800237 -3.579177 -1.0658455 1.8184912 1.6284573 0.63923395 0.89369494 -2.6026602 2.3641057 -1.5133066 1.1251878
381 -0.102605894 3.0877624 1.401003 -1.6083884 0.19970691 -1.1053785 0.4375277 0.4875933 -0.872782 -0.1141392 -1.1240164 -0.62945354 -0.3694834 -1.1479503 0.6450358 1.0552003 -0.90276337 -2.034242 -2.5603375 -1.4786375 -3.8843787 1.9054092 -1.389183 2.659492 1.63319 1.8426758 -1.5844073 -0.42463315 -3.3236141 1.7019881 -1.403493 -1.6240817 -0.06121253 2.7203555 0.79133755 0.5432015 0.4586087 -0.65324956 -0.53566855 -0.63071525 -0.6122348 1.4190627 -0.092969045 1.2227565 0.4551956 0.7751234 -1.1484697 0.96508175 -0.8321686 0.023811352 0.080490224 3.3830855 2.469816 -1.0987933 -0.22068043 -1.216478 0.22377914 -0.042153206 -2.2580476 0.07983933 0.6920739 2.7207673 -0.30921257 -0.65799975
253 2.591023 0.4948543 -3.1714334 -1.6707222 3.0614812 0.21747461 -2.683842 0.7847374 -0.966786 -0.108657815 -2.3638659 -0.40577605 0.76001936 1.1006584 1.1969593 0.41489017 0.29370233 -0.27759513 -2.08893 0.91065985 -1.652434 0.33638492 -2.668683 -3.0418797 1.7365948 4.337973 0.37289754 1.0462643 -0.40374056 1.1759952 2.1822517 -2.2345636 0.40370646 -1.2345781 -3.5104947 -1.7091998 1.2430056 -1.7898709 0.9864342 1.5363923 -1.3363923 -1.2466232 -0.36434188 1.2951243 -0.04404373 0.83494276 1.4160163 2.5434906 -0.66763204 -1.6282996 0.24327941 0.558445 -2.9852397 0.6580769 0.20062976 1.2603129 3.6543746 -2.585911 -0.68326735 0.57958 1.4636284 0.052137062 -1.236867 -1.0518008
455 1.5683385 -1.9535764 0.8706396 2.044327 -1.2661746 -1.9792957 0.7593451 -0.8157751 0.43678576 0.32216817 0.25049725 0.668727 2.106272 3.5402236 4.578062 0.48523673 -2.0984724 -0.8636969 -1.6261683 -2.4309962 -2.4150984 1.6015353 -1.0515451 1.372147 2.8141077 -1.4378071 5.2494836 -0.32504192 -3.3084471 1.1588262 -1.6011536 1.557641 1.3583298 1.38302 -2.2799032 -0.26685762 3.391094 0.9909322 -0.99176466 0.36865354 1.256983 -0.09443765 2.6475234 1.3979131 -2.472413 -0.8881602 -0.62693524 -1.4949294 1.2116184 1.5507782 -0.4227048 2.1257815 -1.2229527 0.69850993 -1.7704667 3.1188498 1.0840297 -1.9137595 0.48315725 0.79666835 -0.44361877 3.0157988 -1.9191217 0.557335
534 -0.5505312 1.1558002 0.91569096 0.9183785 2.01875 -0.60223323 -1.1991118 -3.0745592 0.11542269 0.011393857 1.1318924 -0.59031355 -0.93702406 -0.5933914 0.5030337 -2.5392811 -1.8795667 -1.6511481 0.5830383 0.0069618844 0.65857834 -0.08162526 2.2970848 -2.6047068 -0.7645043 0.6921225 0.015642181 1.7203629 -0.41416046 -2.05411 0.9445119 0.89738625 0.30451423 1.1474918 1.2557887 1.7994523 0.2841436 -1.9697062 0.09855207 2.1343675 1.6945429 1.3071778 -0.8362814 -1.0736709 -1.7504778 -0.7100038 0.00031696912 0.1030743 0.12176722 2.033596 -0.8327423 -0.17500512 2.0105698 0.6797962 -0.8369135 0.4433376 1.3911586 -0.011955635 -0.7278567 -1.300898 2.062764 -1.1212435 1.3274024 -1.0736411
290 -2.4767263 -0.35945106 -0.78631115 0.45722517 0.1542594 -0.7042706 -1.6128289 1.0302763 -2.0255244 -1.6733694 -0.33570763 0.20451489 1.7693819 -2.5370111 -0.49613377 -1.5350732 -0.61575985 -0.7448112 2.5094683 -0.95350814 0.932332 1.0868903 2.1415193 0.07863814 0.4780889 1.5938208 -0.13454208 -1.2859535 0.96061176 -0.7224026 -0.29766962 -1.267824 0.65013504 -0.61315924 2.331798 -0.607911 1.0683618 -2.1695914 -1.510632 0.1864334 -0.0017179968 -2.6322894 1.9647405 1.8177937 -2.1977684 -1.1198505 1.3741952 -2.5885034 -1.9655339 -0.7544214 -0.027772803 0.2159196 -0.09797599 -0.19602594 -0.68155193 1.0911404 1.8417425 0.6212434 1.3591393 -1.6633719 -0.38646147 -0.20390114 -1.1077646 1.9143676
236 2.322355 -0.5668534 -3.0428414 0.50367194 0.96948737 -3.8966138 2.2705216 1.2162653 -1.4681516 -3.1471162 4.230969 -4.9045496 2.6579418 -0.8261152 1.0973451 -0.9914077 2.0659034 -1.5121878 0.98554164 0.18774201 -0.41730282 0.5368469 3.1522424 -2.8098445 2.4496932 3.1691163 2.5159066 -0.2712757 -0.95856154 -4.8131523 -1.3331101 -1.2392699 -0.40992737 1.6643503 -0.7442847 0.7447691 -0.51619554 0.11432911 -2.0572186 0.4976589 -3.5923762 2.4081693 3.1857913 -1.0494288 -1.490566 1.3056533 -3.3613465 -0.8576639 -4.762757 1.613918 1.6593579 -0.2653267 -2.7570982 1.1106405 -0.5050393 -3.300701 -1.9076064 1.5120898 -2.1617212 -0.99326473 1.3052186 0.3941253 -0.13632946 0.055647295
402 0.40915486 -2.7526112 0.29175875 0.05389934 -0.08561014 0.77292925 -1.7083474 0.32264987 -1.3147954 -0.17654712 -3.531392 -1.474147 -0.10790851 -1.1738762 2.44442 -0.82567513 -2.2877088 1.1830101 3.057582 -0.028408082 0.9747633 1.2981133 -0.89696777 0.48319817 -1.2162377 1.8363622 -0.2771912 -0.90004665 -1.3315973 -0.6451751 -1.6120704 -2.5278084 0.39350888 -1.2383971 -0.22803488 0.31019315 0.47188085 0.17177099 -1.8905263 1.0763947 -0.7386533 2.5282965 0.55318415 -0.25292197 -1.5419651 -0.29433298 0.7528165 1.3881778 -1.1663182 0.7889992 0.45189443 -1.5815547 1.3063035 -2.771601 -0.51833355 1.1362921 -0.3596175 -2.736113 1.6332102 0.16148162 0.481028 -0.15467711 -0.298979 -0.92779464
241 -1.2695965 0.51705307 -0.4006516 -0.042663075 -1.0808319 -0.84443927 -1.6457568 -0.7733861 -1.3590826 0.4246301 -1.2390298 0.45414782 2.373519 -0.90087116 -0.41447982 -1.8911637 -0.5082597 -0.01853007 2.7227776 -0.37885678 0.5742646 0.42335606 0.57089883 -1.3756479 0.38565668 0.79770595 -0.7500634 -1.0535878 1.2035307 -1.0302267 -0.49385256 0.06988037 0.13897541 0.30028963 0.8851036 -0.8372967 2.0232594 -2.8091404 0.025564795 0.21363008 -0.4034028 -0.24088486 0.65960735 1.074557 -0.8535083 -1.2085204 1.1502229 -1.1742295 -0.82580215 0.9909458 0.49330544 0.031841647 -0.5835346 -0.2777897 -0.50567704 -0.30349684 1.4208556 0.8423099 0.033513647 -1.565892 0.36103868 -0.017985912 0.76534384 -0.29343742
496 -1.0968356 2.84828 5.478794 -0.13338163 -1.1505967 -0.7491979 -0.6841681 -0.18338087 1.4298505 -1.325731 -2.8461661 3.0512812 -0.88434476 -2.42729 -1.9765768 -1.3982927 1.0706992 -1.4409875 3.347171 -1.3001662 -1.8863845 3.2728674 1.8410822 -1.5591666 -0.52394986 -0.29790014 2.4971323 1.9343461 -1.9467186 -0.5438555 3.5296385 0.59492403 5.0740633 0.27438855 -1.7571328 1.2146921 1.1468774 5.8022413 3.6893144 3.3280752 0.3316875 1.0277083 -1.2527221 -0.26896733 1.0645986 -3.3787053 2.0040495 0.057655346 -4.7751284 -0.013016831 3.3238401 -1.4141008 -1.2757881 0.9581334 1.0007104 -4.4852266 0.08365567 -0.56342304 2.7521214 2.0662835 -2.0628037 0.017949693 -1.1371063 -2.9055424
434 0.07132519 3.8687677 5.1044006 -0.21298276 0.16592656 1.3269314 1.2433652 0.7384965 2.821897 -2.6843932 -2.829608 1.5683395 3.353602 -4.3060155 -3.5786557 -1.3171161 1.0797169 -2.8918223 -3.1867332 -4.817168 4.741903 -2.507854 4.8604264 1.8279227 -2.6415381 -3.0399337 2.5705576 1.8173584 -2.3372827 1.373006 4.661991 2.8867514 7.266845 -3.8721578 1.3099579 1.4092913 -0.26164502 0.60106 -1.4755199 2.339264 -1.7261492 -1.386284 -6.034731 -2.6987495 -0.13926066 1.6492894 -3.158889 2.7328546 -1.9964541 -1.4213715 -1.5341725 -1.3833052 -5.8394966 -3.724452 1.2652593 -3.443401 -1.0794675 -0.88292766 2.4490874 1.9332893 -1.0783774 2.9189415 1.2714128 -2.2566142
429 -0.61223435 -0.81177294 1.6061178 0.24874865 2.0201323 -1.655095 -0.58432835 -2.605939 0.9181663 0.42744336 0.999776 -1.8212953 -1.3327372 -1.7707137 0.1625019 -2.2864711 -1.8733355 -1.0158416 -0.38864288 0.58412415 -1.3927324 0.48041612 2.6527076 -0.693594 -0.86957216 1.3525777 0.08156191 2.0118332 -0.81416994 -2.3720462 0.9536702 0.63085973 0.4948758 1.8757286 1.3473642 2.3996985 -0.25421682 -1.2680473 0.21975681 3.3102007 2.5738912 -1.1103768 0.06357583 -0.5077432 -1.1984884 -0.6675941 1.9090567 -1.1953417 -1.5416224 2.3084087 -2.2067783 -0.3286726 1.4766985 0.5801234 -0.66867924 1.1888971 0.9733941 -0.5772061 -2.430025 -0.35898808 0.16656752 -1.5657834 -0.28781623 -0.18895763
486 -0.42207056 1.6625291 0.06828912 1.1420364 -0.5748281 0.264373 -0.78198546 0.29030567 -0.44909805 -0.4372711 -0.03455244 0.5777407 -1.3761322 -1.0677317 0.4438794 0.22001196 -0.8114866 -0.84563714 -1.6981546 -0.56366396 -2.4344382 1.2935027 -0.11796708 1.7162077 0.36432272 2.8099337 0.6216794 -0.4096225 -2.1250653 0.35488525 -2.3731773 -0.29389212 0.4975005 0.47005168 -0.6842127 0.6714278 0.77872974 -0.4340793 -2.0378377 0.07820121 -0.9116539 3.3966296 0.32384685 0.45053217 -0.0035838266 0.7329885 -0.9307986 1.0237216 -0.36728507 -0.076991335 -1.3375207 1.0755422 1.5614557 -1.8045472 0.18530236 -1.6808984 0.58983386 -1.6401846 -2.8321428 -2.7058077 0.7420102 2.412957 1.1026441 -1.1366693
462 1.927113 -1.9115616 1.3324116 0.08290633 -1.5917685 0.061690673 -1.5681506 0.202701 -0.4697112 -0.6683493 -4.164096 -0.8327512 -0.14847003 1.1266884 2.3897614 1.4123006 -2.9501195 0.3853869 2.5463126 0.51836956 0.69753134 2.585494 -1.6757582 1.5382245 -0.7884096 1.4006705 2.0797822 -0.4636847 -0.93629086 -1.028574 -1.7720848 -1.4606111 0.14938281 -3.021237 -1.0199275 -0.5235703 -1.3901798 1.0716382 -2.680931 -0.6306792 -2.8681881 2.1582081 -0.43953574 -1.0905199 0.59947324 -0.5145042 2.189277 1.6392359 0.10930754 0.07755237 1.9512992 -1.2189476 2.307974 -2.33756 -0.90707356 -0.8622309 -0.36128527 -2.2449567 1.2798526 1.9707127 -0.41347578 -1.4645162 0.54345375 2.2230017
225 0.64864194 -2.0331402 1.5715203 0.91841316 -1.674445 -0.71359396 0.02265153 -1.1960808 1.1677259 2.0063272 0.53437644 -0.8564541 2.4738674 2.7357585 3.3018854 -0.710994 -1.18067 -1.1815253 -0.29813713 -2.0126138 -2.1123853 1.9059039 -2.771585 2.2062905 1.9727246 -0.100311235 5.360882 -0.17618588 -3.693234 1.6559422 -2.4695783 1.9273921 0.9575504 2.0490043 -2.259888 0.47628462 3.4700358 2.0452235 -1.602736 -0.38640204 0.50033766 0.030120544 0.8212202 0.13742957 -3.0878959 -1.0333469 0.50086975 -2.0944643 1.1277555 1.2974967 0.9670996 2.6236145 -1.1528963 0.5901604 -3.1369288 1.9235221 1.4481468 -0.9564514 0.44555867 1.0398184 -1.0373616 1.490841 -0.4173907 0.57020134
169 0.93026996 1.1949834 0.273654 3.3743203 0.28274775 1.1929911 -1.4332144 0.26876038 1.7310278 0.5508594 1.4331974 -1.0567087 0.37894556 0.54485756 0.66179997 0.3361956 -2.379849 0.001420615 0.3042902 0.71663916 0.87581766 0.6496518 -1.7365978 -1.8880922 -0.9500898 1.8000731 0.16819344 -1.5320432 -0.405269 -1.1628917 -0.09493227 0.28379512 -0.014683034 -1.1758828 0.4864707 2.3771088 2.3713505 -1.7445707 1.214034 -0.7237971 0.94168776 3.0143452 -2.522879 -0.25744668 -0.036958307 0.28172955 -2.3198931 2.3614361 1.4033432 1.3654898 -1.1643618 -1.723806 -1.630125 -1.3172864 -0.90639997 -0.6491902 -1.4889107 1.3917514 -0.66552556 -2.7968585 -0.95127356 1.0543522 1.0996752 -1.4524983
113 0.83541477 -3.1431894 2.9107463 0.9729733 -2.0236936 1.9245679 -0.5461958 -0.288546 0.8537028 -1.595406 -0.039741993 -1.6821439 2.2502592 1.9096067 2.3848326 -0.68428916 -1.9421396 -2.008774 0.35125268 -1.2099509 0.29607937 0.9103993 -2.1237476 1.237336 0.59845114 0.21561377 2.7010303 1.7613602 -1.3938378 1.0483799 -2.1530778 1.2230674 1.2118979 -0.82805616 0.2727395 -0.8772837 0.570831 -0.5156188 -0.7190164 -1.8011217 -0.11393748 -0.6203551 -0.8463654 1.0833852 -2.783941 -1.9664928 0.7839322 -3.79096 0.35761297 1.402486 -0.5175745 3.3185458 -2.8762026 -0.10337881 -2.3209288 1.1117883 1.4323403 -0.50142705 -0.06534496 0.28046143 0.77472204 2.9497304 0.83032703 -1.8548306
464 0.46144867 -3.417273 3.3839495 1.0708066 -2.3544788 1.477878 1.6130172 -1.3336868 1.2692031 0.88679254 0.7783248 -0.85209054 0.9391327 1.5533774 3.3469226 1.1759343 -0.95455307 -0.97774917 1.7238611 -2.312705 -2.0172763 -0.14849968 -2.4877608 2.2597659 1.2197655 2.018123 4.0792336 1.1506766 -1.7839509 1.0450937 -1.1649979 0.23918858 2.6215706 1.4426793 0.1252034 -2.110995 2.3748827 2.1593852 -0.83006257 1.1562397 1.1293666 -1.2116244 1.7629429 2.964121 -3.1155045 -2.1525197 0.4160929 -1.8179119 0.34048185 1.805374 -2.3542736 3.8573906 -4.7462826 0.9766557 -0.7662977 1.9881101 2.0950975 -0.6359434 0.18589081 0.28808022 1.062092 2.3468418 0.6924198 -0.41004908
327 1.2523623 -1.8441728 -2.818666 0.07995776 5.0634465 -0.93864715 -1.3189486 1.7121806 -2.0337386 1.1509292 -0.51669824 2.8424575 -2.1848493 3.350413 -0.20185202 -0.2573937 0.12836587 1.4708071 -4.059346 0.39099705 -2.8187742 3.5854945 -2.7743802 -3.2949808 -0.92191595 3.1325252 1.0949522 0.18209943 -0.11491547 0.75082 2.8818033 -5.037204 -0.038957693 0.41410118 -1.2144129 1.2469844 -2.0629187 -0.86696786 -0.10383433 2.6688325 -0.20685218 -0.7212777 -3.8801715 -1.3460585 -3.053016 0.47155967 1.027638 1.7335219 1.5019655 -4.85551 0.3801341 2.5435712 -1.9245254 -1.4801084 1.6387812 -1.3775563 6.3050942 0.86398757 -1.6050264 0.27718714 -0.3029632 0.09854609 -0.19274263 -1.3849514
291 4.2188125 -2.7926795 -3.6582692 2.4428627 -2.206293 0.14227802 2.186012 1.254184 -2.70351 1.1173468 2.0409577 -2.719132 2.5230813 2.428948 1.3124058 0.45923048 5.551741 2.9292114 -0.64346087 -0.42728397 4.7312455 -1.5894196 0.30975318 -1.6577529 -2.8305178 2.702662 4.034812 1.9933039 -1.5952715 -4.8231983 -0.4224815 0.30261263 0.032589488 2.5765502 -0.5706442 3.7018714 -1.9433726 0.4952388 1.2060958 1.5881658 -1.8400862 5.3452196 5.339384 -1.9309093 0.38604695 2.3943152 -2.8949752 -2.2354407 -3.7560496 2.8190298 -0.7312977 1.1534631 -1.5566113 0.08112981 -1.2921554 -0.4660392 2.065348 1.2436478 1.7614138 4.627704 3.0428371 0.85686594 0.94647175 -2.003438
436 3.5685174 3.4658625 1.0236827 -2.472073 1.8444773 -1.2271984 -0.13350712 -3.8442633 3.462547 -2.0184891 -2.3165536 1.0247868 3.3867097 2.7212403 -0.6319216 1.4091898 -3.8229654 2.0166974 0.038201474 -1.7232721 -1.1219524 0.87519324 2.3445146 -0.27257565 -1.7654989 -1.7514386 -0.34581938 -0.9507614 1.3339885 -0.75603265 1.9265982 -2.3017383 -3.953199 -4.9241076 1.5631229 -2.5104098 -0.6718808 1.8935864 -1.6421841 0.79921114 -1.6079398 3.7281606 3.172149 0.7308848 -2.834445 0.82144356 0.34526303 1.1865499 0.3707104 -2.0646646 -0.559683 1.0021883 0.33603767 1.2263138 -1.6767982 -1.0239298 1.8274767 -0.63347983 -1.0478822 -2.8958426 1.5543373 -0.999243 -1.8165464 -3.8621652
518 2.463677 -0.48417786 -0.34697768 0.28825495 2.8442326 -0.15516348 0.34703088 -0.28742608 -3.4046197 -0.560322 -0.79965925 -0.03588052 4.3747416 0.16819403 1.2053869 0.42215016 0.30468976 1.2951485 0.15238212 0.905332 -0.3636645 1.9475121 -1.4800413 2.705586 -1.1619943 -2.3463185 -1.1203065 -0.3360453 0.17370856 -0.7156772 1.3086545 0.068135165 -0.67100656 -2.1631382 -1.439374 1.6779298 1.4730028 0.71362585 3.081016 1.2931347 2.3442461 -3.031011 -2.5760539 3.0290453 -1.7357578 3.2846224 -1.3157018 2.4370575 -3.0256023 0.15660428 -1.8530573 -1.3325052 1.8182496 0.43196306 -0.31889832 2.7399511 1.2168605 3.593477 0.55071676 1.3193518 0.05205992 0.58873904 0.42926913 1.2291192
221 5.3933086 4.3566523 2.0821257 -2.8755262 1.5116963 -3.0003934 0.24875331 -3.5209594 3.0346408 -0.6817673 -2.4584167 1.0103098 3.133296 3.896272 -1.8979218 0.15343769 -3.1179607 0.7838149 -1.4183588 -2.454806 -0.43327618 0.82489485 4.4553266 0.5673553 -1.6097033 2.492644 -1.5405567 0.7261077 2.110072 -0.70607275 0.21119943 -2.7068036 -6.5939007 -4.1114836 0.95495474 -3.0665839 -0.16548027 2.066392 -1.9388629 2.918024 -2.2064724 3.620085 2.3927221 2.0774286 -1.9051217 1.1345547 0.6628489 0.1265249 2.60381 0.15921457 0.8304017 2.1984541 -1.1027178 0.1369009 -1.4847691 -1.6211787 -0.7213428 0.92727774 -0.16821927 -0.11647013 -0.5505072 -0.94828486 -1.1940982 -4.2703123
150 2.1921494 4.1270647 -0.12322893 -3.7508903 0.5771606 0.47507092 -0.8868705 -2.2545927 1.1158173 -1.770868 -2.855216 1.2722126 2.0889316 0.98746955 -1.0794497 2.2357585 -4.0486646 0.0070079314 -2.3470488 -2.3840759 -1.9725024 0.040589463 1.4300795 -1.6410378 -1.9950868 -2.3955493 -0.5369929 0.0875865 1.2209338 -1.8483531 0.058165636 -2.4248807 -2.6697361 -3.5677555 3.2650604 0.61069214 -1.7962781 -0.042256754 -1.480059 -0.24470782 0.24318102 3.588812 1.2314513 0.9794716 -4.169466 -2.1148894 1.5320439 1.5161766 0.97722065 -0.057016883 -1.370718 0.39464357 1.1240551 -0.37428784 -0.05255494 -1.2307657 -0.63137007 -1.5187641 -0.4710638 -2.6647706 1.3028383 -0.9879752 -3.3074424 -1.5411811
400 -1.0860952 -0.97080725 2.4282916 2.668317 -3.7591543 1.4382955 1.6746204 1.306725 1.2772568 -2.7799954 -2.0894706 2.6178951 -1.0455501 -0.06229259 -1.2274855 -3.3819895 -1.2462059 0.138843 -1.7566929 -0.46635294 3.5053713 0.68058753 -3.9185717 -1.9562082 -1.2816925 -3.330026 -0.007728201 3.1927514 -5.348374 -3.339266 -0.14420289 -0.51675004 -0.8345266 -0.8180331 -2.9260838 0.12216874 -0.48262826 -4.2795186 -1.8149687 5.8505316 -1.1716797 -2.4684634 1.7413118 -3.92635 -0.6246574 0.47719514 -2.4644914 -2.9314988 -1.8942238 -2.005986 8.067649 -0.6894394 2.151902 0.24483754 2.0456004 0.9986385 0.1042174 1.4271718 -0.11250495 -4.615798 -1.9359314 -0.8471109 -1.3434194 4.9914207
48 0.23082529 1.7968732 3.3161619 -0.619472 3.4962885 -1.2120786 2.7993357 -3.1139512 0.9903723 2.1305916 -1.391459 -0.7094335 -0.849344 0.53095984 -3.4249735 0.71911323 2.454161 2.9057546 -0.7150167 -0.76044047 -1.4383612 0.4912425 4.309176 -2.0691366 -0.52589333 3.0170295 -0.5075289 -1.4438114 -1.2400538 -1.30086 -1.8455234 -0.8964467 -4.16732 -3.3222685 0.0864874 -0.91569084 2.1853495 0.12503532 -2.675721 4.327129 -2.3795092 -1.5706128 1.5392952 1.4667318 0.9495658 -0.18905248 1.1205554 -3.4263904 0.44376618 -1.9021931 0.35376024 4.2254877 1.9152368 -0.21740036 -1.0157671 1.497602 -0.41861838 1.4832106 -0.5285964 2.7702668 -0.3574853 1.084382 -2.8484333 -1.8362339
359 -0.5997637 2.399956 4.175883 -1.6215156 1.7255727 0.838649 -0.22702539 0.62449324 1.2926822 -0.6650905 -2.2949288 1.440938 4.401385 0.24024877 -0.07383517 -3.26206 1.5764158 -4.158701 -0.80988115 -2.718574 1.6141577 -0.05837506 1.1607364 -0.32294047 -2.4903848 -1.2624468 1.8227966 -0.52982235 -1.498105 -1.616911 0.51699847 1.2038995 6.157871 -2.0722368 1.5325782 2.0392292 -1.9887664 0.95620275 -2.3506012 3.8100572 -0.8167783 -2.0462902 -1.9083287 1.2127358 2.5023646 2.7199 -1.0631008 2.548783 -2.2591143 0.27711943 -0.5215248 1.0913265 -3.9750001 0.44325173 3.9156017 -3.9548135 -0.9214024 1.1106415 3.2040749 -2.09168 -0.7687988 1.4878857 0.44012436 -1.5767678
304 1.7893667 1.5061425 -1.6249716 2.3127515 -2.9876335 0.59022325 1.6572644 -3.4542875 1.6772738 0.58365697 4.504915 2.5284557 -1.6752075 -3.1974685 1.4431489 0.71892965 -0.41426343 -1.6474596 -4.704492 -5.3163576 3.573354 -0.116957314 -4.165328 -0.88859504 6.9073997 3.4478252 1.7841933 0.58468974 3.0975742 1.6876123 1.8419724 -0.9462069 -0.4029953 -0.3876636 1.6850919 -3.0480523 1.0639635 -0.18011941 2.5550797 -1.0271755 -1.4635719 1.1139835 2.2662015 -4.44501 2.6299758 -1.0173283 1.3644524 -1.5506476 1.7759758 -1.067382 -0.3648693 0.8577324 -1.1450536 -1.6054231 -0.35051745 -1.9705684 -2.1741571 0.0720753 3.2213092 -1.3023038 -1.3172463 -1.19188 -0.94262314 1.8896171
507 0.22065492 0.5236118 0.42698592 0.48598176 -0.83480364 -1.5918477 -0.5428671 -0.31860366 0.27368066 2.5382578 -2.715204 -2.1879194 0.24609458 -0.09247293 1.7182045 2.6837032 -1.0828635 1.0462918 1.4341656 -0.892747 0.29936573 0.5632179 0.6975165 -0.08546237 0.8118517 -0.31622675 -1.2676406 2.658547 2.0518458 -0.5973531 -0.7059995 -2.5657222 -0.62344307 1.4635535 -1.591633 0.63707554 2.5925481 0.7128736 1.1839899 0.44698805 1.5036389 0.32115588 -1.0857662 -1.0097203 -0.76180136 -0.34588397 -1.2601671 0.7238205 -0.35113126 0.37002632 1.1524718 -2.0830412 -1.2523849 1.9939307 -3.469957 -0.7919963 -1.2113903 -1.1001862 1.147149 0.8057243 0.906026 1.5839643 0.97494256 0.55568403
388 1.1306969 0.29465917 -0.30668467 4.8878117 4.8825283 1.9200876 -0.3375494 1.0828886 0.47554055 0.36100498 0.22302034 -0.08917746 0.057056792 2.5672355 -4.113342 2.3063264 -0.95050555 3.044485 0.81647044 -2.557113 1.8722821 -2.011644 -2.6745687 -0.7701189 -0.40859517 -3.374814 0.30187365 -3.4228618 -0.516634 -0.6563311 -2.4000244 -1.8918219 -2.1368442 -0.86110735 -4.7197523 -1.7692728 1.1212654 1.3953749 3.308038 -2.6153362 -2.4222715 -1.6600503 -0.62379223 1.37947 0.40455475 -3.1320126 1.3267468 4.979677 -0.7651132 -1.0564865 0.4946861 2.391695 -1.1541209 -2.4988198 1.5247921 -2.8519301 -0.7033811 1.9231786 5.353513 -0.5576392 1.9212 1.6209844 3.357052 3.5680816
289 0.6330966 -1.7375629 0.028635457 -9.414815 -0.115561165 -1.3486142 0.9612339 -3.004766 -0.18215021 -2.3179162 0.88870174 -3.5176923 -7.8498254 -1.224055 -3.2935867 -0.25189888 2.5627577 2.9663827 -3.0800266 3.196663 -1.2149761 1.2451786 0.23268178 2.7835941 -0.28538227 -3.6086123 4.331981 -4.1674266 3.6234517 4.4262853 3.1147463 2.3532352 2.484624 4.177637 -0.96690655 0.88840085 -0.7612994 -3.8066154 -1.7864565 2.1066618 -2.1893854 -2.3490508 1.5701154 4.4061112 3.5041044 -3.9151103 -2.166366 -4.1866636 0.6534534 0.27351487 2.9900024 -1.1183366 -4.4687214 -0.7417844 0.52324337 0.0050208014 -0.5899509 2.7724662 1.987751 -7.1587653 6.8396244 -0.19177005 3.1825519 1.7510779
393 0.021327024 2.1428251 -4.209566 0.6860581 -1.7436851 -2.7393649 1.4834297 -2.1485083 2.0038917 -2.3634984 7.4156218 1.1912975 -3.5553987 -0.31640264 1.8941628 -2.6247458 -3.4135623 0.1577494 -4.5450735 -3.6460927 1.6500757 -2.4011354 -0.3743634 -2.605146 5.7022533 1.2817153 1.0989434 -0.05338993 -1.2198007 2.8895729 4.4482203 -0.45814413 -1.7317177 0.104149826 4.5054007 -4.079201 -0.4874944 0.8572357 5.4422717 -0.90540314 1.5732892 3.2165143 1.8402121 -4.9793434 4.067098 -1.3469514 4.4308105 -0.06072174 0.3607223 -1.4413486 -1.3165534 3.1457691 -4.766498 -3.6390805 0.80711454 2.17758 -4.9244013 0.021366263 6.7316504 -3.4390738 -4.106614 -0.26956558 -3.8740253 2.8915262
344 -3.3714106 1.2851106 1.5956178 0.89211726 -1.802168 -1.8731697 2.8536994 3.88147 0.027580379 -0.12032688 -2.8698192 -3.7922738 1.8245825 0.59416544 -0.93484914 2.605668 0.5225318 2.2676005 -2.0309215 2.2724016 1.9118564 1.167788 0.1120581 1.045033 -2.035261 2.7624714 1.0351956 -0.23712848 -2.337534 -3.1130292 3.2043397 1.4909178 -1.4597969 1.2207743 -1.9058394 1.3072666 -1.2776979 2.0149527 1.6113143 -0.56885004 -0.635813 3.065982 0.6722271 1.3825636 -0.822657 2.043762 1.4067636 0.85480857 3.0871873 -0.9849431 -1.9115142 1.1712989 1.2608074 0.5992826 1.7259889 -0.3033832 -0.13042521 -0.28620443 2.408302 1.4230866 4.3723125 -4.5601654 0.19251257 -1.1008716
76 0.598687 -0.96964836 0.54645395 -2.5568743 0.3862958 -2.7154233 0.34550846 -2.191884 2.0820568 -0.42192665 -0.44439647 -0.2701211 0.69662565 1.1820183 -1.7876663 0.8267475 1.3383955 0.18797041 -1.5166721 2.0457687 0.9698864 -2.1782224 -2.2991412 -0.32851964 1.5714512 -0.023375046 -0.87839895 -1.906833 2.0577972 -0.5043825 3.3315136 0.3502248 0.8923604 1.9264085 -0.29011765 5.7183785 -3.2744024 2.2774038 -2.185084 2.4737563 -1.8631866 -0.18993758 -1.9861113 -1.0098206 0.5322088 -4.377399 -0.72128695 -1.8668973 2.7662168 -0.31580696 1.727895 -2.3103902 -1.4081894 -1.5219227 -1.3137261 2.788877 -0.7714665 -0.1009943 -1.2585669 -5.961335 3.8787825 3.3523507 2.4298327 -0.9595099
361 1.0207611 2.976991 -0.8170689 4.2329197 3.5973406 -2.8229456 -2.077698 -0.16251642 4.9929914 1.4669538 4.851335 2.2631426 -2.6135273 -0.096157305 0.8379294 3.3278039 -1.9245518 0.21429561 -4.094025 3.5719936 -0.107181534 -6.935347 3.2424717 2.1351109 1.1834124 -2.0713441 0.7518478 -2.7838385 -3.4559064 1.1755944 -1.1641371 3.0228226 -3.5270944 0.03276739 -0.38598898 -3.7821622 2.5839992 3.4630027 -1.4844434 -4.8650026 3.8801851 -0.066525765 0.49104512 -0.9898102 1.465321 -1.2297612 3.053058 2.9140146 -3.9938145 4.103689 2.891502 3.6536555 0.23814727 -2.3538842 -1.0772986 -0.124625586 1.4972869 0.70025027 4.3246803 -3.1530907 -1.0741363 0.12242782 -0.974284 3.166859
262 3.7794445 0.23789959 0.9629369 1.1620005 3.0458844 0.19352758 -0.20282564 -1.5194561 -2.5806098 -1.1341741 -0.050479468 -0.8264034 4.1781173 0.8766304 0.57356256 -0.33112317 -1.6043148 -0.1852334 -1.0255275 0.36348188 -1.1060424 2.9615564 -0.88391304 2.013904 -1.4391247 -1.5790321 0.17853557 0.12665942 -0.78209865 -0.06375661 1.1140914 0.17028281 -0.21597673 -2.4792414 -0.2591107 0.5822952 -0.23608242 0.11280964 3.1057289 1.3900392 2.2278316 -2.496311 -1.3891908 2.884179 -1.8307663 0.8975406 -0.0060083987 0.6475013 -3.1619618 -0.6057624 -2.372318 -0.9353767 3.1603055 -0.12794863 -0.78626 3.0190558 0.14220238 3.4664018 0.0354595 1.1971008 1.0332915 1.5287602 0.49492073 1.6851993
204 -1.1829225 -1.1793395 -2.1949527 -1.4714937 3.191512 -0.8963855 -1.972007 -0.74323386 0.39477175 1.2506175 -4.185688 4.123058 -1.5734239 1.1132437 3.795543 -0.2284683 -2.246955 -1.0895334 -2.3151767 2.8647368 -0.5933063 3.7473676 -0.15800175 0.103377275 0.3703521 2.1471243 0.8558414 2.0443792 2.7937376 -0.31005836 0.7934386 -1.4664066 -1.9920204 1.8576244 -4.3904624 -1.4700446 -0.44862342 -0.9403806 0.4552318 0.0204303 -1.5487127 -1.6158208 -1.1575123 0.8728875 -2.275776 1.8264472 1.3675569 0.7700503 -1.1711453 -2.2448437 1.1897373 1.3181639 -1.5978143 0.13659392 1.485046 0.12759559 4.6171675 1.1293522 -3.4747596 0.9564484 3.647221 1.1767997 0.68534344 -0.522355
411 0.39640266 0.67956734 0.108109966 -0.53583515 -0.525222 -1.7133783 -0.8144082 -1.5122626 -0.7239303 1.3421074 -2.9895265 -1.5716957 0.5532754 -0.26652113 0.7630648 0.7508868 -1.3229927 1.2575628 0.30341175 -0.35244468 -0.3819261 1.6507113 1.2484866 -0.43351275 1.5127741 1.0539259 -0.58797777 -0.17683612 2.1164021 -0.06061179 0.027120635 -1.9955076 0.37274507 2.3352616 -1.470087 0.005638196 1.5763584 0.83803254 0.36286378 -1.1485388 2.696236 -0.4591082 0.5362945 -0.94355524 -0.7525805 0.8132865 0.43928236 0.2944475 -1.1900505 1.5686123 0.27774033 -1.0167387 -0.43511298 1.4838887 -1.6108792 0.13811028 0.6459288 0.48148996 -0.20970067 -0.5612213 -1.1596177 2.450168 -0.22489335 0.24069351
120 1.4471203 0.69548774 4.3442235 0.23494133 1.3875033 -2.1420143 3.8265028 -4.1169567 0.97853756 4.503668 -1.4044769 0.9964561 -1.277235 0.45586887 -2.6369045 0.08646682 1.9385558 2.09115 0.31042102 -1.9779947 -0.9255036 0.41853213 4.5291233 -1.7925377 1.8666446 1.7871563 -0.865883 -2.2574637 -0.45965105 -1.8729389 -2.1459212 -0.25179482 -5.8991804 -3.7146153 -1.0885831 0.6081886 1.4214121 -0.4262018 -1.8306115 1.1314164 -1.7894969 -0.4083417 0.8891421 0.756799 -0.22992642 -1.1707705 2.1124978 -2.133525 1.1707886 0.4273065 -1.1510189 3.1899452 1.2818284 -0.56609684 -0.19847202 1.0147513 -1.9376565 2.5473049 -0.5299276 3.2944198 -0.5286592 1.0598865 -2.620468 -3.4385884
505 0.81387126 0.87984985 0.54729825 -0.6137986 -0.41926384 -1.384588 -0.48029903 -1.2640499 -0.7563821 1.5022522 -2.4797375 -1.1054729 0.91518855 -0.26854244 0.8358167 1.0156449 -1.1701844 1.9136285 0.37915134 -0.6082154 -0.028122727 1.3609704 0.86524206 -0.8055442 0.9897867 1.3449827 -0.3861282 -0.53728056 2.4744682 -0.12642783 0.4311392 -1.8124617 0.64776725 2.4066799 -1.2534473 -0.03470016 1.9889885 1.0547975 0.29863733 -0.8425038 2.6649168 -0.42798033 0.3333051 -0.8940686 -0.8008937 0.8318503 -0.339358 0.9158076 -1.4280273 1.1474811 0.6770406 -1.0297852 0.20816077 1.8888571 -1.8509793 0.39034918 0.56250495 -0.012464204 0.29031757 -0.5284516 -0.6675479 2.60623 -0.32672408 0.016048692
215 -1.4106096 0.8008445 1.5651051 0.4342326 0.60236555 -1.1241876 1.0845951 -2.1849465 0.26781082 1.5823847 -1.2849859 -0.9689729 -0.33799908 2.7084463 -2.272067 0.21690115 -0.88055444 -0.008678678 -1.8436524 -3.641715 1.1136247 0.7286093 3.0698705 -1.8212299 -1.5957723 1.3291653 -0.26323092 1.8169912 0.39357165 0.8872902 -3.3854997 -1.1513296 -5.545524 -1.5184848 -1.3837951 -0.12273713 3.490147 -0.569709 -2.8326383 2.4310305 -1.0929984 1.1659571 0.5549742 1.941015 1.9753156 -1.9647382 -0.09043194 -1.4947517 0.7066422 0.9118007 -0.15148252 2.3704512 -2.0426865 -0.047110565 -0.26077253 -1.0671731 -0.24209464 1.3925018 -0.58886856 0.38355878 -0.29220465 1.5107946 -3.137477 -4.2348948
438 -4.8011055 -4.7842655 -1.5855211 4.203342 -0.46384138 1.4056156 3.1948903 1.3357668 2.6378138 -3.9979267 0.99588746 -0.25747833 -1.3475147 1.8112985 -1.3948739 -2.0230892 -1.1818905 -1.5137128 2.7302487 0.5097296 0.66962516 -2.9126318 1.7068489 3.8586855 -1.0205511 2.3839839 -0.9476416 -2.3989787 3.2833405 5.001853 3.013344 0.3875845 1.2753141 -2.789349 -3.4078698 0.86260104 1.7989522 -1.1627969 -2.1769855 1.9112084 0.92224824 -0.4613396 4.916078 -0.7241263 1.8486996 2.4717174 2.4405682 -1.2511412 -0.3371792 1.1455852 1.4895737 1.7036897 2.4896078 -0.1415844 -2.0666077 -3.2842128 0.15099423 0.2622135 -6.6694784 7.8751063 -0.52062804 1.1185434 2.331219 3.1994674
501 3.2401524 -0.95863533 -0.9896567 2.775421 0.34066078 -1.6326863 0.6841718 -0.55769676 -1.4198744 0.43318465 0.3525981 0.0993222 4.3508053 -1.6503091 0.99491334 -1.117796 -0.58075535 -0.6455256 -0.73048526 0.20844209 1.4032223 0.10797938 0.064224355 0.2842925 -2.3617084 0.26689717 -1.7979348 0.43900913 1.671972 -1.1151562 -0.97933424 0.5790525 0.033479683 -1.4999268 -1.5899607 1.1281714 0.15217558 -1.0646142 2.7772708 1.5803835 1.8858582 -2.8182955 -1.426717 4.121817 -2.0453384 0.69527286 1.739418 0.56588703 -1.6230998 -0.46661305 -2.5382502 -1.689985 1.8515561 0.8846542 -1.1461637 1.5085673 1.3359725 4.0658774 2.594296 0.22429407 -0.34989965 -1.2410617 1.9278427 1.2506586
61 0.32786855 -1.4497603 -1.8774449 -3.3371844 -0.31051195 -2.7800283 -0.65162843 -2.4042547 0.2631595 -1.3791627 -2.2022502 -3.605544 -1.7491031 0.29434714 -1.041986 1.3525792 0.73265636 -0.13363066 -2.138439 0.86695707 0.600142 1.4592009 -0.85216004 2.6192904 -0.78766406 -2.2598631 1.133926 -1.0272753 2.0699763 1.431895 0.016530223 0.9424098 2.3794405 2.2105777 0.11069091 2.273872 -1.9249661 0.6008398 -1.414296 0.83346736 -1.8987026 -1.6263555 -0.16764098 0.1740934 2.0689862 -5.4575443 0.039040048 0.019452928 0.665964 1.3842593 2.575212 -2.482347 -1.2830037 0.67230237 -1.5892239 0.060619656 -0.93499887 0.35591573 -0.3268602 -4.5938454 4.2167773 2.4972165 0.2956619 0.7411799
11 2.4660165 0.71143997 2.0137386 -1.7754841 1.7032216 -2.032743 1.5249869 -2.8352802 0.90512395 -2.1121387 -1.8211048 -2.9293349 2.0941505 -4.1410394 -0.47615817 -2.461829 0.662534 0.24185784 2.1314325 -1.7174866 -0.66233104 -0.6930635 -2.058198 -0.23442636 2.6203744 -0.9310169 1.7226579 1.4521829 -0.09211037 -0.836657 -2.2670712 2.6927392 0.48389837 -0.12227508 -0.8961924 -0.4961923 -1.51676 1.2991704 0.032504253 -1.9838747 -1.5870204 -1.6212943 -0.63651216 1.5154605 0.15086019 1.4045388 0.25363147 -0.42295164 -1.5922838 0.9093647 2.0256498 0.73106545 2.56987 0.11803983 0.7143109 1.8932533 -0.2462855 0.53723156 -2.527163 0.313215 1.717469 -0.07998587 -2.183442 -1.2411182
49 -3.5655854 -4.7021976 -2.4380093 1.8017267 1.6651307 2.0787385 2.1222477 0.7700619 2.5286071 -3.0806024 -4.274877 -2.5330253 -1.8526173 1.846689 0.12344437 -0.10769356 -1.1697888 -0.67568207 3.7580636 -0.32436207 -3.8894126 -4.379096 0.6484787 2.1226845 0.7533298 -1.0794497 0.90212286 -1.6103193 5.796893 2.6482742 4.9489174 0.69362056 -2.8592997 -1.1839424 -3.2301397 -0.587736 -2.5475693 -0.8121821 -2.1992536 2.3212783 1.9521816 -1.2147744 0.53115946 -0.5547591 1.0651394 2.544645 2.6001835 -0.2778752 1.8717995 4.853305 -0.2470153 3.4118528 3.7581186 -1.3440652 -1.4326994 -3.569055 1.3810058 -1.0617912 -3.9610155 5.035672 -0.85853314 -0.59973013 -0.9963262 2.3457108
64 0.13289349 -1.6380877 -0.7189364 -4.171792 0.41527674 -1.3005706 0.12138086 -2.7572882 0.5934248 -1.2801262 -0.9933574 -3.1469073 -2.175164 0.15693906 -0.72196996 1.9972247 2.1965635 0.07263249 -0.8440664 1.9409196 -0.2509247 1.8846006 -2.1450853 2.8418453 -1.1214099 -0.7148652 1.2329215 -2.3536894 1.8288118 0.57265955 0.74678606 0.25975823 0.76503295 0.15016836 0.4392165 2.4667203 -2.0853448 0.9615327 -0.43387514 0.6117821 -1.5865953 -1.8501015 0.02591271 1.3693806 3.368151 -3.9464087 -0.39978173 -0.37006685 0.34967676 1.9768949 3.020537 -1.8631928 -1.62717 -0.7207572 -1.4249957 1.62769 -2.082057 -0.03368491 -0.20852862 -3.8541958 3.7728107 3.5513206 -0.30972984 1.2604152
399 0.08309448 -1.2570916 2.4213154 3.6992624 -2.6725419 -0.8243885 -1.6170365 -1.2470484 -2.9905875 2.069693 0.088643044 1.1534355 -0.9320425 -1.0018502 -1.2770637 0.08040713 -0.93394756 2.1955056 -0.5326586 -0.88606954 1.3577937 -0.27795377 0.38479373 0.5991666 -1.0646822 1.8688387 -0.08329827 -3.0030735 -0.65032876 1.5154303 2.7584908 -1.2778511 0.15072997 3.339844 1.3486711 -1.9484127 -1.1849785 0.030682186 2.6191444 2.14237 1.528182 1.7368422 -0.104534686 1.1832863 -0.18780327 0.5759644 -2.0028656 -1.8067715 -0.6272526 0.08065479 -2.2984958 0.43275735 0.80274975 -2.191673 0.60173714 1.3252321 -0.0902455 0.34694844 -2.8122835 -0.61511064 0.09830727 2.969634 0.55887216 1.7245864
409 1.2102772 -0.92837495 0.35159734 -1.418636 1.0861804 -0.5652665 0.23991644 0.9530646 2.4096706 0.16128293 -0.51473343 2.0991597 -1.6255733 1.0664955 2.5560637 1.7952572 2.0008693 1.930315 2.7928858 1.0454614 -0.055641774 3.0571327 -0.97348267 -0.5640117 0.814664 -1.6600932 2.3246005 -0.74589354 -0.35268256 -0.6195991 -0.8460796 0.30189386 -1.6850694 -2.9440415 -0.71568835 -3.2737088 1.1265601 -1.9713299 -2.3188188 -0.124410056 -0.2657019 -0.45326644 -2.320153 0.522568 1.5180264 1.4804376 -1.4187424 -0.07187207 1.6370957 1.0128851 0.9141852 -0.25344542 -2.9979439 0.15828408 3.2667232 -2.949368 -4.071078 1.9418551 -4.689164 1.8166451 3.340131 -2.498659 3.844033 -0.35198218
454 -3.2198308 0.65338707 -0.5130863 1.458251 0.50930005 -1.3504353 1.7555935 -0.2707037 -1.1961167 2.381768 0.26807466 -4.6806846 -0.1990354 -2.8338072 0.37956458 0.22853222 0.3314586 0.88939345 -0.40810254 1.0994897 -0.57769406 0.81280005 -3.1874185 -0.56231666 2.3763034 0.66201204 -2.8777423 2.3048093 -1.0695482 3.1734111 -2.7041237 -1.7344881 2.0346363 -0.39252454 -0.6286691 1.7190707 -2.597297 -3.4471188 -0.6163901 2.7114303 0.7052201 0.87817454 -2.0289354 0.45912576 -1.3695663 -4.019397 -2.4173803 0.8872823 -0.18160115 0.5953213 -0.6587346 -0.23180404 -1.898255 1.2505263 -0.18741198 -0.6942223 -4.229991 2.6511064 1.8000586 1.7432476 -0.67257476 1.9550828 0.072597936 -0.056551363
39 -2.6712017 -2.2223332 -5.9422526 4.2286906 0.9223069 0.54169047 1.316781 1.2608159 1.3622259 -3.561688 3.3053584 -0.32530656 0.62754434 2.3193226 0.43251202 0.71384406 -0.33380452 -2.0377116 4.551649 -2.0437033 2.6947243 -4.1430717 2.880959 0.5160479 0.393533 0.27322185 -1.7182654 -3.5675318 1.8129482 2.9439626 1.7483064 -1.7259265 0.054387897 -2.1003659 0.2674165 2.7813854 0.15412183 -4.2197437 -3.658891 0.6919831 1.2193772 2.9133034 1.4085419 0.32924744 -0.27265245 1.2791028 1.7608043 -0.39604798 3.605054 -0.13002364 1.6101446 0.27210495 3.738026 1.8172411 -3.0527 0.122763716 -1.6105658 -1.4561777 -2.733377 2.623221 1.2394011 3.5202055 3.6296442 -0.3143928
40 -3.7902868 -0.27804917 -1.4126663 0.5534373 2.4179907 3.2010286 3.2816968 2.390633 -1.0837122 0.37657097 -3.5218158 -0.21729209 -0.94895494 -2.5020046 2.1285548 -0.5116981 0.004002875 -1.6929573 1.3071898 -2.629132 -3.6358933 -3.5941458 0.92675567 -1.5819625 0.078094676 -3.9164736 1.600888 -1.1957108 2.357227 3.4847426 2.2274776 -0.120010406 0.7514776 2.7594237 1.9932212 0.9953322 1.6714745 -4.009154 -1.0123163 0.61556363 4.7605643 -1.0404912 0.2919562 3.9053097 -1.1729778 1.9453307 3.7049787 1.6475326 1.6785903 1.85171 -0.42080986 0.28998154 4.733198 -0.6364938 -0.07581533 -2.5143542 -1.5492617 2.4385755 0.41674736 5.126359 1.5285769 2.1487038 -0.32628337 0.8540426
503 -0.6034439 -1.1120837 0.37901172 -0.5581052 2.0680332 -2.6859195 -0.17882465 1.0800813 1.6569058 -0.2117905 -0.503484 1.0342898 1.148303 1.2983936 0.13682884 0.30653456 1.9868776 0.1922877 3.7510695 2.5065637 -1.5671668 1.8072815 0.107647136 1.5823247 -1.4788748 2.1915648 5.735647 -0.686925 0.94194126 -0.36750594 -1.4190801 -1.9036943 -1.3706876 -1.5339206 -0.2091835 1.473799 4.0737534 1.2659211 1.5912302 1.550046 1.5142165 -0.876627 0.82775486 -1.1333787 -0.2610881 0.55783737 1.2247264 -0.5538186 3.3103535 0.12368198 -1.3304536 -2.1428816 0.285004 -0.7454086 -0.11364654 0.65854913 -1.5371001 2.671166 0.41714177 -2.039568 -2.3951397 -0.29291707 1.3839124 2.0926208
398 -0.80491984 0.8543999 1.8423699 2.6934319 -1.1265383 1.009071 0.0073537948 0.5583739 2.0098326 0.38089472 -1.6838768 2.3724978 0.79923683 -1.6464839 1.0083123 -5.4584994 -1.8516576 -0.3999244 -0.15598398 1.4018929 3.1867461 1.936655 -1.7722846 0.13652036 -1.6234151 -2.9559047 -0.41439012 0.35010052 -3.1464827 -3.0267982 0.5284835 -1.7605011 -0.2221311 -1.1587132 -1.5105114 0.88684905 0.7036521 -0.35092857 -1.472614 4.596986 -0.52050775 -2.2959948 0.28180197 -0.59769636 0.6456251 1.0029773 -2.6976209 -1.2876924 -0.6951779 2.6745462 2.0912602 -0.2231466 0.3877532 -0.23340884 1.1672198 -1.0990223 -1.937196 0.07376453 0.8182245 -2.8035321 -1.0502623 -0.78049475 -1.0517331 1.7375835
341 -0.39423704 3.0419898 2.882836 -0.3243904 0.95417905 2.0661244 0.039191395 1.8030463 -0.86866355 0.32360965 -4.1764817 2.2639852 1.0392743 -0.58380955 0.63486785 -3.6295455 -0.33362395 1.2836515 -2.6701243 -2.8170812 0.80590665 2.7691586 -2.2112646 0.22986838 1.4148989 -3.2838104 -2.3686328 1.3991617 -4.4003863 -1.8684695 0.3139331 -2.1526916 -0.8128541 0.41511682 0.12823369 0.2684678 -0.61348057 -1.669722 -3.2015984 3.4519143 0.3633636 -0.89400184 -1.7523792 0.6295989 0.9993318 4.8799615 -2.80041 -1.890544 2.147679 4.020182 5.4087048 0.5920402 2.0414484 3.118082 -0.78594786 -2.4466467 -3.3353782 -1.1104298 3.850247 -2.8805428 -1.7873126 0.15622097 -1.2851428 3.8416643
407 -0.98656815 1.034814 0.8265637 -0.49633983 2.913412 -0.2787657 2.2387373 1.4284314 1.6381346 1.7758582 2.8353639 0.8592235 -0.3425989 1.4534811 2.6055973 0.55721307 1.9638555 3.4230306 0.52329797 -0.03525781 -0.27230746 3.1490304 -4.801187 -1.768521 0.08845053 -1.6821328 0.65132064 0.24755451 2.3097098 -0.25050488 -2.0744634 1.9817786 -0.50826424 -1.4006349 -1.8314193 -2.6115832 0.8524775 1.2306914 -0.42864358 3.1991785 -0.24479933 -0.045876194 -2.0703635 -0.78103495 1.0726917 0.22978987 -1.6734794 0.8646706 0.1815012 2.0204723 0.82972205 0.41597152 0.12816577 -0.036154836 2.3506973 -1.3038167 -2.7525122 0.6404089 -3.5549614 0.75287753 1.8679672 -0.8307274 4.392215 -0.8925443
73 1.6954759 0.797449 -0.019597678 -1.1519599 2.7549803 -0.49181774 0.16337672 2.155714 0.64030737 1.3637853 1.6827492 0.3819471 -0.8812016 1.2102953 2.4270937 2.2905533 2.5914903 3.1687393 1.3127161 0.2782742 -0.79153204 2.038613 -3.6078677 -0.9321506 -0.28569856 -2.0397637 1.0310073 0.9571704 2.4363537 -0.5382172 -1.121292 3.7186623 -1.2458454 -3.949777 -3.2315376 -2.5621474 1.2594655 1.4849396 -1.9166527 2.5416715 -1.0668068 1.0665317 -1.6373274 -1.2320912 1.2543118 1.0554093 -2.144355 0.83183336 0.5166394 1.1437624 2.3786685 -0.18186665 -0.4276341 1.1956276 0.8540269 -2.07013 -1.5380193 0.4160375 -1.7798496 0.32232285 1.1806506 -1.7788528 4.088192 -1.424976
540 0.0470741 -0.9894682 2.617075 2.3376904 -2.8231487 -0.47641182 -2.375666 -1.9492445 -0.28861243 1.4306083 -1.8272085 -0.3637767 0.036430564 -0.6985385 -1.1452981 -2.5560079 -0.13304454 2.663503 0.31551728 0.8545725 1.481776 0.53473645 0.2827293 0.2905443 -2.4307363 1.7292622 1.517324 -2.9088938 1.4631298 -0.12380436 3.4788551 -2.7036412 -1.341982 2.7964547 1.7140604 -1.1347203 -1.9013991 1.0731173 2.742949 0.12259386 0.87467164 1.6400784 -0.09908156 1.1513386 0.5169942 1.484594 -0.40355894 -0.7687093 0.08740416 -1.7113758 -1.4884585 1.1582586 1.5332981 -2.7766366 0.6313555 2.1409397 -0.23222671 0.5359447 -3.3942397 -1.3294662 -1.7832465 2.837674 0.39096257 -0.13908596
502 -1.0003442 -0.42489913 -2.2698708 0.789114 0.7320338 -2.5185268 -0.97371835 -0.5183753 1.6704028 -0.76856756 -0.50984275 1.674174 1.6792021 3.3251781 -0.20669906 0.60450476 1.3798832 0.29923862 3.3188875 0.21154249 -1.907991 1.7204392 0.35909596 -1.2133611 -1.129706 -1.3655288 4.6582856 -0.5859229 0.3570421 -1.2546984 0.24705735 -0.56154656 -0.000844879 -1.2550257 0.122370556 1.3078082 3.461005 0.08707464 1.3331858 1.8488461 0.15847939 0.10647579 2.367868 -0.6284173 1.0442543 -0.39154628 0.91015863 0.3137209 1.711716 0.81316596 0.09105026 -1.5635048 -0.9321431 -1.5093504 -0.57239074 1.0731884 0.23136947 1.8413064 1.593775 -0.8710008 0.38142565 -2.3575041 0.030755427 0.4725392
500 0.9059067 -1.7698011 1.9475708 -1.3834263 2.4658737 -1.5295026 -0.150243 -0.84159255 2.6663933 -1.5636208 -2.0340776 -0.68754154 0.92672473 -4.3779755 -0.62526214 -1.9971532 0.8470144 0.2925544 2.1076872 -1.7591604 0.76279736 0.9041961 -4.206777 -0.4596533 1.7363061 0.67601186 0.96435916 1.1393026 -0.17314748 -1.0423337 -2.8896768 2.602106 1.5600319 1.397382 -0.88835204 -1.5939953 -2.8962126 1.5537975 -2.5321093 -2.0879903 -0.45619676 -0.3961456 0.5277447 1.1289487 0.16311248 0.0033781843 -0.6575891 -0.56588274 -1.8434539 0.5467832 1.2320019 1.0762918 2.1346872 1.7857406 1.0505866 0.84476155 1.3113501 -0.81987876 -2.6230288 -0.64859205 1.8287616 -1.6292914 -0.63826674 -0.9373263
182 1.4363887 0.11244802 1.2190794 3.2222588 4.1037674 0.21467328 -2.42116 0.021846801 1.1199483 -1.2533456 -0.46435106 -0.010748931 1.3384558 1.2727367 -3.3161023 1.6268317 -0.42994237 4.273207 1.1001424 -1.1921706 0.25183544 -2.445794 -1.8293238 2.1855998 1.941425 0.522539 0.17791694 -2.6188726 -1.1480412 -1.4933449 -2.0698142 0.58084685 0.6861231 -0.035559904 -4.065638 -2.307006 0.94450444 0.19881308 0.64014107 -3.3732553 0.09371818 -2.1774096 1.2801772 1.4206171 -1.0420702 -3.994475 0.8845005 2.1661673 -0.193952 0.356747 -0.47009388 1.1300912 -1.3443054 -0.5972709 1.7462555 -3.6803324 -1.3760608 1.8030857 1.6765249 -0.5932889 0.3473659 1.2069464 0.36244726 4.5522466
